/**************************************************
  Neural Network Parameters: NN_Model.h
  -------------------------

  Trainable Parameters: 101770
  Generated from Keras module.

  **************************************************/

#include "MatrixMult.h"


// Layer 1, 784 inputs, 128 outputs.
float Layer1_Weight[128][784] = { 

		{ // Unit 0 weights.
		 0.045,  0.036, -0.063, -0.062, -0.142, -0.182, -0.135, -0.174, -0.181, -0.274, 
		-0.298, -0.197, -0.089,  0.188,  0.315,  0.147, -0.124, -0.150, -0.248, -0.288, 
		-0.124, -0.044, -0.095, -0.194, -0.190, -0.148,  0.011,  0.035, -0.047, -0.020, 
		-0.160, -0.163, -0.068, -0.205, -0.142, -0.160, -0.107, -0.292, -0.121, -0.140, 
		 0.036, -0.073, -0.026, -0.013, -0.089, -0.174, -0.100, -0.248, -0.279, -0.145, 
		-0.223, -0.145, -0.242, -0.142, -0.004, -0.078,  0.059,  0.041, -0.083, -0.174, 
		-0.147, -0.177, -0.140, -0.218, -0.097, -0.097, -0.075, -0.116, -0.167, -0.179, 
		-0.245, -0.097,  0.047,  0.021, -0.107, -0.090, -0.177, -0.141, -0.177, -0.127, 
		-0.124, -0.206, -0.057, -0.134,  0.035,  0.050, -0.036, -0.157, -0.129, -0.138, 
		-0.103, -0.246, -0.212, -0.145, -0.045, -0.131, -0.068, -0.153, -0.200, -0.122, 
		 0.047, -0.051, -0.100, -0.086, -0.135, -0.157, -0.257, -0.266, -0.197, -0.146, 
		-0.083, -0.081, -0.042, -0.090,  0.013, -0.037, -0.088, -0.136, -0.132, -0.172, 
		-0.173, -0.101, -0.050, -0.154,  0.041,  0.018, -0.262, -0.097,  0.096, -0.089, 
		-0.122, -0.090, -0.116, -0.175, -0.145, -0.197, -0.254, -0.140, -0.028, -0.136, 
		 0.049, -0.047, -0.113, -0.085, -0.072, -0.117, -0.167, -0.134, -0.159, -0.099, 
		-0.139, -0.004, -0.008, -0.036, -0.173, -0.125, -0.001, -0.097, -0.082, -0.173, 
		-0.130, -0.131, -0.097, -0.005, -0.128, -0.086, -0.151, -0.046, -0.116, -0.059, 
		-0.080, -0.035, -0.093, -0.137, -0.184, -0.136, -0.156, -0.112, -0.082, -0.096, 
		 0.011, -0.113, -0.202, -0.202, -0.036, -0.066, -0.193, -0.263, -0.203, -0.074, 
		-0.105,  0.012, -0.053, -0.029, -0.092, -0.107,  0.058, -0.024,  0.036,  0.051, 
		 0.020, -0.061, -0.134, -0.171, -0.128, -0.031, -0.082, -0.022, -0.062, -0.163, 
		-0.154, -0.151, -0.038, -0.154, -0.166, -0.221, -0.100,  0.012, -0.022, -0.057, 
		-0.017, -0.063, -0.064, -0.005, -0.047, -0.003, -0.095,  0.035, -0.007, -0.111, 
		 0.022, -0.127, -0.045, -0.097, -0.026,  0.037, -0.052, -0.175, -0.229, -0.220, 
		-0.158, -0.057, -0.113,  0.002, -0.004, -0.029, -0.048, -0.027, -0.046, -0.069, 
		-0.028, -0.191, -0.073, -0.036,  0.004,  0.127, -0.057, -0.021, -0.076,  0.045, 
		-0.012,  0.028, -0.077, -0.007, -0.040, -0.180, -0.055, -0.122, -0.159, -0.099, 
		-0.125, -0.089, -0.009, -0.013,  0.015, -0.085, -0.028, -0.064,  0.039,  0.030, 
		 0.021, -0.114, -0.046,  0.018,  0.030, -0.021, -0.005, -0.002,  0.068,  0.131, 
		 0.060,  0.078, -0.036, -0.112, -0.105, -0.145, -0.133, -0.112,  0.047, -0.114, 
		 0.030,  0.036, -0.029,  0.080,  0.033, -0.127, -0.057,  0.112,  0.087, -0.146, 
		-0.070, -0.002,  0.018,  0.113,  0.049,  0.079,  0.092,  0.095,  0.080,  0.105, 
		 0.024, -0.043, -0.106,  0.003, -0.158,  0.030, -0.091, -0.026,  0.053,  0.107, 
		 0.079,  0.077, -0.042,  0.012, -0.085,  0.122,  0.024,  0.004,  0.013, -0.012, 
		 0.124,  0.072,  0.021,  0.039, -0.033,  0.034,  0.020,  0.034,  0.078, -0.042, 
		 0.027,  0.068, -0.010, -0.034, -0.053,  0.087,  0.082,  0.054,  0.090,  0.040, 
		-0.047, -0.097, -0.059,  0.028,  0.116,  0.127,  0.099,  0.033,  0.122,  0.033, 
		 0.115, -0.018, -0.068, -0.085, -0.007,  0.020, -0.055, -0.033,  0.030,  0.081, 
		-0.008,  0.085,  0.064,  0.062, -0.009,  0.034,  0.069,  0.009,  0.005, -0.091, 
		 0.002, -0.012,  0.107, -0.042, -0.051,  0.059,  0.120,  0.042,  0.109,  0.073, 
		-0.107, -0.024, -0.014, -0.060,  0.085, -0.066,  0.118,  0.089,  0.042,  0.075, 
		 0.032,  0.003, -0.003,  0.076, -0.018,  0.042, -0.065, -0.046,  0.028,  0.138, 
		 0.005, -0.068,  0.015,  0.067,  0.067,  0.036,  0.035,  0.098, -0.035,  0.010, 
		 0.056,  0.054,  0.030,  0.075,  0.084,  0.112,  0.093, -0.039,  0.087,  0.056, 
		 0.061, -0.083,  0.049, -0.014,  0.041, -0.005,  0.075,  0.075,  0.018, -0.065, 
		 0.071,  0.137,  0.185,  0.109,  0.016,  0.111, -0.034,  0.044,  0.110,  0.073, 
		 0.039,  0.047,  0.079,  0.099, -0.026,  0.033,  0.057,  0.057, -0.026, -0.065, 
		 0.021, -0.084,  0.054, -0.025, -0.027,  0.024, -0.085, -0.056,  0.059,  0.144, 
		 0.089,  0.006, -0.029,  0.039, -0.040, -0.010, -0.077,  0.044,  0.051,  0.006, 
		-0.058,  0.018, -0.010,  0.054, -0.050, -0.046, -0.019,  0.049, -0.090,  0.017, 
		-0.014,  0.080,  0.087,  0.020, -0.044, -0.056,  0.026,  0.090,  0.010, -0.061, 
		 0.073,  0.016,  0.034,  0.012,  0.018, -0.077, -0.040,  0.071,  0.084,  0.042, 
		-0.005, -0.058,  0.023,  0.043, -0.075,  0.039, -0.068,  0.023,  0.007, -0.055, 
		 0.029,  0.066,  0.043, -0.043,  0.076, -0.006,  0.030,  0.051, -0.084, -0.005, 
		-0.085, -0.082, -0.047,  0.009, -0.054,  0.045, -0.046,  0.004, -0.051, -0.057, 
		 0.017, -0.026,  0.012, -0.049, -0.129, -0.043, -0.030,  0.019, -0.073, -0.024, 
		 0.069,  0.023,  0.063,  0.037,  0.053,  0.088,  0.080, -0.013, -0.060,  0.016, 
		-0.028,  0.055,  0.089,  0.091, -0.012,  0.065, -0.023, -0.014, -0.018, -0.074, 
		-0.049,  0.034, -0.015, -0.049,  0.049,  0.010, -0.026,  0.133,  0.069,  0.093, 
		 0.132,  0.063,  0.106,  0.008,  0.015,  0.018, -0.009,  0.069,  0.119,  0.018, 
		 0.182,  0.024,  0.108,  0.107,  0.002,  0.085, -0.006, -0.009,  0.147,  0.074, 
		 0.045,  0.068,  0.105,  0.116,  0.076,  0.107,  0.033,  0.175,  0.161,  0.040, 
		-0.092,  0.002,  0.070,  0.065,  0.072,  0.107,  0.126,  0.092,  0.059,  0.061, 
		 0.085,  0.114, -0.015,  0.089, -0.015,  0.068,  0.072,  0.057, -0.053,  0.050, 
		 0.097,  0.115,  0.103,  0.125,  0.035,  0.165,  0.171,  0.173, -0.022,  0.050, 
		 0.086,  0.135,  0.140,  0.029,  0.141,  0.119,  0.017,  0.044,  0.096,  0.121, 
		 0.050,  0.066,  0.029,  0.058,  0.100, -0.040, -0.037,  0.040,  0.064,  0.092, 
		 0.068,  0.071, -0.119,  0.098,  0.158,  0.046, -0.066, -0.012, -0.025,  0.022, 
		 0.129,  0.046,  0.057,  0.068,  0.026,  0.086,  0.108,  0.008,  0.018,  0.138, 
		 0.036,  0.068,  0.086,  0.099,  0.099, -0.001,  0.013,  0.195,  0.154,  0.142, 
		 0.103,  0.088,  0.053,  0.103,  0.033,  0.026,  0.075,  0.035,  0.120,  0.049, 
		 0.056,  0.061,  0.146,  0.012,  0.096,  0.001,  0.102,  0.090, -0.001, -0.006, 
		 0.045, -0.022,  0.105,  0.069,  0.139,  0.056,  0.115,  0.082,  0.097,  0.166, 
		 0.219,  0.051,  0.062, -0.024,  0.090,  0.185,  0.081,  0.076,  0.181,  0.153, 
		 0.206,  0.117,  0.077,  0.134,  0.158,  0.077,  0.082,  0.053,  0.050,  0.109, 
		 0.097, -0.022,  0.131,  0.071,  0.091,  0.113, -0.114,  0.027,  0.071,  0.073, 
		 0.097,  0.022,  0.063,  0.229,  0.142,  0.090,  0.224,  0.208,  0.062,  0.132, 
		 0.063,  0.129,  0.017,  0.041,  0.063,  0.200,  0.084,  0.064, -0.093, -0.109, 
		-0.038, -0.027,  0.079, -0.066}, 

		{ // Unit 1 weights.
		 0.018,  0.060,  0.014, -0.023, -0.042, -0.108, -0.077, -0.123,  0.019,  0.227, 
		 0.302,  0.317,  0.067,  0.185,  0.113,  0.176,  0.349,  0.386,  0.126,  0.077, 
		-0.144, -0.145, -0.113, -0.115, -0.089,  0.095,  0.017, -0.012, -0.013, -0.056, 
		-0.018,  0.041, -0.081,  0.063, -0.109, -0.008,  0.019,  0.164,  0.160,  0.204, 
		 0.091,  0.164,  0.199,  0.178,  0.209,  0.170,  0.165,  0.077, -0.100, -0.081, 
		-0.095, -0.215, -0.126,  0.024,  0.016, -0.024, -0.032,  0.019,  0.139, -0.093, 
		 0.084,  0.065,  0.127,  0.018, -0.018, -0.025, -0.046, -0.018, -0.061,  0.033, 
		 0.049,  0.033,  0.029, -0.150, -0.017, -0.139, -0.028, -0.048, -0.084, -0.017, 
		-0.085, -0.007,  0.105,  0.064,  0.023,  0.036,  0.072, -0.094,  0.049,  0.069, 
		-0.019, -0.081, -0.093,  0.057, -0.041, -0.103,  0.044, -0.112, -0.086,  0.019, 
		-0.074, -0.050, -0.040, -0.095, -0.143, -0.070,  0.019,  0.111, -0.088,  0.038, 
		 0.117,  0.052,  0.129,  0.101, -0.021, -0.051,  0.140,  0.087,  0.039,  0.043, 
		 0.042,  0.075, -0.117, -0.102, -0.158, -0.171, -0.110, -0.090, -0.113, -0.128, 
		-0.110, -0.072, -0.030, -0.017, -0.049,  0.218,  0.019,  0.002,  0.132,  0.001, 
		-0.008,  0.039,  0.117,  0.092,  0.026,  0.111, -0.104, -0.034, -0.107, -0.105, 
		-0.113, -0.096, -0.078, -0.105, -0.177, -0.127, -0.078, -0.043, -0.126, -0.151, 
		 0.017, -0.053, -0.028,  0.072,  0.157,  0.193,  0.019,  0.113, -0.007, -0.027, 
		-0.061,  0.030,  0.061,  0.139, -0.079,  0.047, -0.038, -0.095, -0.047, -0.068, 
		-0.076, -0.001, -0.064,  0.017, -0.206, -0.129, -0.270, -0.248,  0.012, -0.016, 
		 0.104,  0.127,  0.122,  0.117, -0.014, -0.027, -0.049, -0.108,  0.042,  0.028, 
		-0.012, -0.053, -0.106, -0.029,  0.025, -0.174, -0.103,  0.007, -0.019, -0.069, 
		 0.179,  0.057, -0.013, -0.168, -0.256, -0.135, -0.012,  0.131,  0.002,  0.005, 
		 0.033,  0.034,  0.031, -0.055, -0.072, -0.135, -0.245, -0.011,  0.043, -0.077, 
		-0.158, -0.012,  0.061, -0.032,  0.038, -0.051,  0.092, -0.020,  0.041,  0.046, 
		-0.004, -0.093, -0.168, -0.100,  0.056,  0.014,  0.055, -0.033,  0.079,  0.016, 
		 0.103, -0.036, -0.166, -0.314, -0.249, -0.140, -0.172, -0.117, -0.149, -0.004, 
		 0.048, -0.071,  0.005,  0.084,  0.003,  0.007, -0.025,  0.102, -0.056,  0.067, 
		-0.097,  0.042,  0.113,  0.056, -0.022, -0.082,  0.089, -0.065, -0.058, -0.192, 
		-0.276, -0.228, -0.213, -0.071, -0.200, -0.104, -0.051, -0.002,  0.058,  0.055, 
		-0.056, -0.007, -0.100,  0.042,  0.031, -0.004, -0.024, -0.041,  0.057,  0.002, 
		 0.187,  0.141,  0.030, -0.087,  0.097, -0.067, -0.159, -0.046, -0.235, -0.262, 
		-0.113, -0.119, -0.036, -0.182,  0.078,  0.215,  0.115, -0.043, -0.117, -0.113, 
		-0.174, -0.069,  0.014, -0.049,  0.065,  0.030,  0.050,  0.118,  0.101,  0.102, 
		-0.038, -0.038,  0.058,  0.044, -0.083, -0.193, -0.248, -0.193, -0.153, -0.148, 
		-0.089, -0.092,  0.227,  0.235,  0.188, -0.009, -0.077, -0.124, -0.126, -0.106, 
		-0.160, -0.081,  0.067, -0.043, -0.031,  0.084, -0.005,  0.099,  0.075, -0.025, 
		-0.086,  0.013, -0.147, -0.173, -0.019,  0.028,  0.010, -0.108, -0.116,  0.076, 
		 0.183,  0.189,  0.034, -0.068,  0.004, -0.118, -0.052, -0.105, -0.099, -0.098, 
		 0.087,  0.061,  0.035,  0.055,  0.088,  0.070, -0.062, -0.035, -0.078, -0.106, 
		-0.168, -0.222,  0.111,  0.041, -0.029, -0.018, -0.052,  0.059,  0.191,  0.119, 
		 0.129, -0.023,  0.023, -0.093,  0.052, -0.118, -0.199, -0.109, -0.080,  0.066, 
		 0.014,  0.104,  0.114,  0.053,  0.050, -0.092, -0.197, -0.267, -0.210, -0.219, 
		 0.021,  0.059,  0.058, -0.006, -0.064,  0.150,  0.157,  0.083,  0.055,  0.058, 
		 0.001, -0.014, -0.041,  0.035, -0.099, -0.035,  0.041,  0.049,  0.057,  0.134, 
		-0.006,  0.037,  0.037, -0.036, -0.122, -0.117, -0.072, -0.026, -0.025,  0.078, 
		 0.029, -0.048,  0.119,  0.089,  0.115,  0.095,  0.175,  0.084,  0.071, -0.002, 
		-0.003,  0.024, -0.064,  0.020, -0.039,  0.012, -0.012, -0.017,  0.009,  0.127, 
		 0.026, -0.102, -0.113, -0.039,  0.051,  0.013, -0.035,  0.087, -0.052, -0.026, 
		-0.054,  0.044,  0.133,  0.187,  0.068, -0.039,  0.034,  0.004,  0.095,  0.022, 
		-0.029,  0.030, -0.125, -0.043, -0.107, -0.090,  0.027,  0.093, -0.055, -0.034, 
		-0.143, -0.034, -0.036,  0.012, -0.087, -0.003, -0.013,  0.058, -0.046,  0.062, 
		 0.023,  0.027, -0.065, -0.001,  0.066,  0.051,  0.073,  0.051, -0.041, -0.047, 
		-0.092, -0.036, -0.024, -0.023,  0.096,  0.099,  0.092, -0.027, -0.099, -0.050, 
		 0.097,  0.023,  0.060,  0.187,  0.098,  0.076,  0.095,  0.132,  0.152,  0.184, 
		 0.049,  0.054,  0.045,  0.099,  0.001, -0.048, -0.051, -0.078, -0.023, -0.136, 
		 0.012, -0.027,  0.069,  0.009, -0.005,  0.060, -0.101,  0.100,  0.012, -0.010, 
		-0.087,  0.039,  0.039,  0.041,  0.025, -0.010,  0.064,  0.153,  0.008,  0.032, 
		-0.038,  0.062,  0.087,  0.024, -0.099, -0.144, -0.169, -0.188, -0.080, -0.222, 
		-0.023,  0.095,  0.133, -0.018,  0.010,  0.099,  0.006, -0.125,  0.076,  0.041, 
		 0.069,  0.041, -0.006, -0.072,  0.152,  0.015,  0.003, -0.068, -0.069,  0.045, 
		 0.042,  0.026, -0.115, -0.083, -0.108, -0.158, -0.176, -0.149,  0.026,  0.187, 
		-0.016,  0.076, -0.112,  0.019,  0.042, -0.082,  0.005, -0.060, -0.031, -0.026, 
		-0.020, -0.005, -0.003, -0.016, -0.071, -0.086, -0.025, -0.104,  0.065,  0.021, 
		 0.008,  0.001,  0.019, -0.159, -0.132, -0.074,  0.003,  0.078, -0.015, -0.094, 
		-0.044, -0.041,  0.055,  0.082, -0.058, -0.014,  0.038, -0.062, -0.072, -0.012, 
		 0.144,  0.079, -0.106, -0.058,  0.005, -0.064,  0.011,  0.087, -0.005, -0.002, 
		-0.038, -0.036, -0.134, -0.168, -0.002,  0.082,  0.133,  0.006, -0.080,  0.014, 
		-0.022,  0.081, -0.093,  0.050,  0.026, -0.035, -0.154, -0.074,  0.121,  0.100, 
		-0.045,  0.040, -0.084,  0.048,  0.033, -0.006, -0.079, -0.089, -0.021, -0.026, 
		-0.061, -0.197, -0.077,  0.079,  0.119, -0.110, -0.152, -0.130,  0.076,  0.004, 
		-0.176, -0.013, -0.081, -0.079, -0.063,  0.053,  0.104, -0.048, -0.079,  0.061, 
		-0.023, -0.002, -0.060, -0.097, -0.036,  0.009, -0.038, -0.134, -0.132, -0.087, 
		-0.170,  0.095,  0.091,  0.042, -0.130, -0.252, -0.016, -0.050, -0.081,  0.007, 
		-0.006, -0.125, -0.154,  0.074,  0.102, -0.008, -0.085, -0.056, -0.136, -0.075, 
		-0.033, -0.047, -0.054, -0.115, -0.077, -0.094, -0.167, -0.160, -0.167,  0.037, 
		 0.055,  0.001, -0.229, -0.105, -0.064, -0.057,  0.015,  0.098,  0.152,  0.068, 
		 0.050,  0.073,  0.084,  0.098, -0.220, -0.343, -0.210, -0.311, -0.191, -0.284, 
		-0.316, -0.195, -0.295, -0.216, -0.214, -0.210,  0.059,  0.157,  0.100,  0.180, 
		-0.012, -0.037,  0.002,  0.036}, 

		{ // Unit 2 weights.
		 0.040, -0.064, -0.105,  0.032,  0.028,  0.124,  0.010, -0.089, -0.135, -0.174, 
		-0.096, -0.087, -0.131,  0.072,  0.147,  0.041, -0.135, -0.252, -0.057, -0.034, 
		-0.075,  0.052,  0.210,  0.126,  0.169,  0.168,  0.009,  0.084,  0.082, -0.082, 
		 0.015,  0.153,  0.121,  0.025, -0.023, -0.062, -0.152, -0.062, -0.151, -0.225, 
		-0.084,  0.017, -0.058,  0.011, -0.038, -0.070, -0.089, -0.058,  0.055,  0.024, 
		 0.159,  0.124,  0.126,  0.097,  0.003,  0.004, -0.058, -0.057,  0.009,  0.044, 
		 0.024, -0.011, -0.095, -0.120, -0.016, -0.144, -0.084, -0.089, -0.141, -0.029, 
		-0.080,  0.036, -0.105, -0.097,  0.005,  0.027, -0.050, -0.053,  0.031, -0.015, 
		 0.164,  0.235,  0.141, -0.023,  0.011,  0.031,  0.099,  0.080, -0.155, -0.147, 
		-0.072, -0.023, -0.106, -0.066, -0.119, -0.121,  0.041, -0.098, -0.116, -0.099, 
		 0.013, -0.043, -0.054,  0.037, -0.038, -0.011,  0.058,  0.074,  0.119,  0.223, 
		 0.046,  0.015,  0.080,  0.097,  0.064,  0.049, -0.051,  0.054,  0.053, -0.136, 
		-0.066, -0.218, -0.158, -0.091, -0.108, -0.104, -0.206, -0.044,  0.033, -0.021, 
		-0.126,  0.012, -0.011, -0.049,  0.101,  0.067,  0.127,  0.129,  0.129,  0.105, 
		-0.028,  0.078,  0.094,  0.017, -0.067,  0.075, -0.092, -0.012, -0.130, -0.120, 
		-0.138, -0.063, -0.048, -0.052, -0.141,  0.033, -0.079, -0.036, -0.058, -0.052, 
		-0.025,  0.039,  0.013,  0.028,  0.069,  0.141,  0.266,  0.132, -0.010,  0.104, 
		-0.011, -0.040, -0.008, -0.003, -0.041,  0.002, -0.125, -0.091, -0.058, -0.080, 
		-0.077, -0.073, -0.152, -0.016, -0.055, -0.069, -0.114, -0.063, -0.002,  0.092, 
		 0.074,  0.058,  0.165,  0.177,  0.118,  0.237,  0.002, -0.014, -0.036,  0.009, 
		-0.067, -0.083, -0.048, -0.067, -0.119, -0.116, -0.029, -0.078, -0.039,  0.002, 
		-0.022, -0.053,  0.054,  0.007,  0.009, -0.158,  0.044, -0.026, -0.054,  0.129, 
		 0.087,  0.097,  0.081,  0.122, -0.009, -0.050,  0.044,  0.092, -0.081, -0.085, 
		-0.027, -0.031, -0.141,  0.017, -0.076, -0.014, -0.032,  0.012, -0.025, -0.020, 
		-0.051, -0.007, -0.089, -0.002,  0.020, -0.047,  0.053,  0.003,  0.080,  0.067, 
		 0.066,  0.077,  0.017, -0.079,  0.022,  0.060, -0.106, -0.085, -0.114, -0.092, 
		-0.110, -0.100, -0.035, -0.036, -0.055, -0.064,  0.011, -0.044, -0.092,  0.041, 
		-0.093, -0.028, -0.003, -0.066, -0.016,  0.034, -0.025,  0.076,  0.164,  0.136, 
		 0.006,  0.038,  0.065,  0.023, -0.116, -0.122,  0.012, -0.028, -0.056, -0.040, 
		 0.014, -0.038, -0.018, -0.016,  0.030, -0.036, -0.015,  0.024,  0.046,  0.102, 
		 0.051,  0.082, -0.074,  0.002,  0.095,  0.101,  0.070,  0.184, -0.041, -0.005, 
		 0.055,  0.024,  0.022,  0.001, -0.016, -0.025, -0.014, -0.087, -0.086,  0.003, 
		-0.098, -0.055,  0.031, -0.058, -0.037, -0.007, -0.023,  0.054,  0.019, -0.023, 
		-0.089,  0.049,  0.063,  0.093,  0.065,  0.173,  0.010, -0.057, -0.081, -0.074, 
		-0.030, -0.135, -0.006, -0.057, -0.132, -0.144, -0.010,  0.023, -0.019, -0.075, 
		-0.012, -0.038, -0.073,  0.074, -0.050,  0.022, -0.026,  0.087,  0.010, -0.062, 
		-0.022,  0.062, -0.012,  0.080,  0.093,  0.110,  0.035, -0.031, -0.069, -0.006, 
		-0.118,  0.024, -0.009,  0.003,  0.030, -0.056,  0.064,  0.045,  0.046, -0.014, 
		 0.017, -0.025, -0.013,  0.099,  0.012,  0.019,  0.051, -0.046, -0.051, -0.020, 
		-0.010,  0.132,  0.053,  0.128, -0.010,  0.040, -0.061, -0.013, -0.031, -0.061, 
		-0.087, -0.099,  0.070,  0.041,  0.035,  0.017, -0.005, -0.014, -0.046,  0.113, 
		 0.102,  0.072,  0.053,  0.029, -0.001,  0.059,  0.072,  0.052, -0.024,  0.159, 
		 0.139,  0.108,  0.042,  0.012, -0.001,  0.038,  0.039, -0.005, -0.013, -0.000, 
		-0.012,  0.003,  0.067, -0.067, -0.007, -0.058, -0.010,  0.030, -0.021,  0.076, 
		-0.013,  0.046, -0.072,  0.051, -0.058, -0.078,  0.020,  0.150,  0.030, -0.029, 
		-0.045,  0.104,  0.046, -0.028,  0.032,  0.075, -0.059, -0.008, -0.079, -0.003, 
		 0.066, -0.026,  0.006, -0.051, -0.048,  0.053,  0.040,  0.038, -0.000, -0.061, 
		 0.041,  0.048,  0.072,  0.059, -0.029,  0.109,  0.027, -0.046,  0.012,  0.011, 
		 0.013,  0.009,  0.037,  0.037, -0.089,  0.025, -0.014,  0.012,  0.000,  0.071, 
		-0.058, -0.043, -0.034, -0.014,  0.059, -0.004,  0.071, -0.050, -0.008,  0.018, 
		-0.031,  0.048, -0.039,  0.099, -0.032,  0.004, -0.036,  0.069, -0.007, -0.029, 
		 0.048,  0.006, -0.028, -0.025,  0.051,  0.020,  0.006,  0.066,  0.032,  0.044, 
		 0.043, -0.043, -0.027,  0.060,  0.041,  0.094,  0.098, -0.006, -0.054,  0.085, 
		 0.016,  0.039, -0.023, -0.012,  0.005,  0.051, -0.031, -0.057,  0.005, -0.059, 
		-0.018,  0.004,  0.045,  0.023, -0.046, -0.022,  0.099,  0.058,  0.080,  0.050, 
		-0.052,  0.072, -0.025,  0.001, -0.021, -0.037,  0.059,  0.167,  0.039, -0.119, 
		-0.044, -0.010,  0.106,  0.045, -0.067, -0.088,  0.048, -0.023, -0.018,  0.034, 
		 0.078,  0.046, -0.017,  0.096, -0.020,  0.021, -0.024,  0.077, -0.062, -0.094, 
		-0.046,  0.032,  0.005,  0.019,  0.007,  0.027,  0.039, -0.142,  0.103,  0.025, 
		 0.077,  0.026,  0.013, -0.001, -0.054, -0.069, -0.003,  0.103,  0.045, -0.011, 
		 0.050,  0.131,  0.096,  0.058,  0.045,  0.059, -0.065,  0.039,  0.063, -0.039, 
		 0.103,  0.038,  0.055, -0.026, -0.006, -0.052,  0.196,  0.113, -0.014,  0.097, 
		 0.045,  0.050,  0.014, -0.027, -0.096, -0.017, -0.023,  0.012,  0.103,  0.106, 
		 0.084,  0.065,  0.019, -0.032, -0.055,  0.043,  0.015,  0.067,  0.022, -0.005, 
		 0.023,  0.003, -0.056, -0.073,  0.041,  0.047,  0.067,  0.098,  0.062, -0.026, 
		-0.047, -0.052, -0.008,  0.101,  0.062,  0.091,  0.055, -0.003, -0.026,  0.061, 
		 0.023, -0.003, -0.008,  0.017,  0.081, -0.024, -0.018,  0.002, -0.018, -0.003, 
		-0.028, -0.132,  0.035,  0.086, -0.020, -0.020,  0.044,  0.058, -0.055,  0.037, 
		-0.026, -0.033,  0.024, -0.030, -0.002,  0.028,  0.012, -0.011,  0.077, -0.041, 
		-0.064, -0.043, -0.067, -0.074, -0.046,  0.027,  0.030, -0.050, -0.014, -0.069, 
		 0.108,  0.099,  0.077,  0.056,  0.041,  0.046,  0.062,  0.035,  0.045,  0.073, 
		 0.107, -0.047,  0.097,  0.018,  0.099, -0.058, -0.016, -0.008,  0.022,  0.041, 
		 0.063,  0.003, -0.017,  0.037, -0.013,  0.055, -0.066, -0.093, -0.017,  0.007, 
		 0.015, -0.002, -0.014,  0.026,  0.085,  0.108,  0.073,  0.077,  0.069,  0.145, 
		 0.073,  0.071,  0.044,  0.086,  0.038, -0.002,  0.071, -0.001, -0.039, -0.060, 
		-0.059, -0.014, -0.098,  0.041, -0.066,  0.026,  0.083, -0.124, -0.047, -0.125, 
		 0.035, -0.049,  0.030,  0.131,  0.184,  0.096,  0.094,  0.178,  0.120,  0.090, 
		 0.001, -0.022, -0.038, -0.020,  0.004,  0.014, -0.006,  0.045,  0.012, -0.086, 
		-0.149, -0.016,  0.027, -0.006}, 

		{ // Unit 3 weights.
		 0.085, -0.037, -0.068,  0.034,  0.168,  0.085, -0.056, -0.246, -0.135, -0.095, 
		-0.143, -0.149,  0.220,  0.225,  0.123,  0.157, -0.061, -0.250, -0.189, -0.201, 
		-0.166, -0.086,  0.037,  0.148,  0.055,  0.024, -0.039, -0.034, -0.068, -0.066, 
		 0.044,  0.154,  0.131,  0.034, -0.010, -0.052, -0.075, -0.166, -0.257, -0.196, 
		 0.056,  0.027,  0.087,  0.025, -0.077, -0.395, -0.352, -0.151, -0.073,  0.024, 
		 0.077,  0.082,  0.120,  0.081, -0.087, -0.149,  0.019,  0.109, -0.031,  0.175, 
		 0.111, -0.021,  0.010, -0.155, -0.077, -0.069,  0.020,  0.069, -0.033,  0.017, 
		 0.119,  0.024, -0.034, -0.044, -0.105, -0.114, -0.179, -0.087, -0.025,  0.104, 
		-0.037, -0.081, -0.015, -0.078,  0.023,  0.111, -0.003,  0.062,  0.077, -0.099, 
		-0.019,  0.151,  0.172,  0.068, -0.028, -0.042,  0.082,  0.012,  0.061, -0.010, 
		-0.051, -0.130, -0.132,  0.106,  0.121,  0.005, -0.094, -0.033,  0.016,  0.013, 
		 0.044, -0.017,  0.004,  0.040,  0.149,  0.054,  0.036, -0.069,  0.077,  0.001, 
		-0.067, -0.051, -0.034,  0.004,  0.029, -0.057, -0.050, -0.032, -0.086, -0.084, 
		-0.033, -0.071,  0.072,  0.024,  0.010, -0.031,  0.033,  0.040,  0.124, -0.073, 
		 0.014,  0.092,  0.143, -0.009, -0.114, -0.065,  0.041, -0.068, -0.067, -0.086, 
		-0.052, -0.112, -0.111, -0.104, -0.064, -0.011, -0.077, -0.075,  0.013, -0.089, 
		-0.043,  0.043,  0.044, -0.033, -0.135,  0.000,  0.047,  0.002, -0.004,  0.075, 
		 0.040, -0.121,  0.027,  0.047,  0.043,  0.054, -0.064, -0.095,  0.004,  0.023, 
		 0.046, -0.035, -0.051, -0.081, -0.004, -0.029, -0.024,  0.078,  0.074, -0.052, 
		 0.049, -0.098,  0.060, -0.062, -0.035, -0.140, -0.075,  0.045,  0.001,  0.043, 
		 0.035, -0.035,  0.065,  0.065, -0.030,  0.005, -0.030, -0.036, -0.089,  0.005, 
		 0.059, -0.025, -0.063,  0.031,  0.024,  0.074,  0.052,  0.061, -0.033,  0.083, 
		-0.058, -0.110, -0.005, -0.135,  0.002,  0.135,  0.001,  0.066,  0.039, -0.055, 
		-0.028,  0.007,  0.013, -0.085, -0.084,  0.006, -0.032,  0.044, -0.015, -0.067, 
		 0.030, -0.009, -0.039,  0.082, -0.012, -0.047,  0.022, -0.055,  0.008, -0.123, 
		 0.002, -0.033,  0.055,  0.086, -0.016,  0.031,  0.003,  0.010,  0.073,  0.070, 
		-0.002,  0.027, -0.031, -0.056,  0.048,  0.046, -0.009, -0.054, -0.027,  0.003, 
		-0.072,  0.077,  0.093,  0.089,  0.057,  0.008,  0.002, -0.081, -0.004,  0.130, 
		 0.166,  0.168,  0.137,  0.171,  0.077,  0.096,  0.098,  0.009,  0.084, -0.002, 
		 0.053, -0.027, -0.004,  0.033, -0.080, -0.097,  0.006, -0.005, -0.048,  0.001, 
		-0.011, -0.015, -0.041,  0.009,  0.042, -0.049, -0.021,  0.094,  0.112,  0.136, 
		 0.022,  0.008,  0.031,  0.113, -0.039,  0.031, -0.007,  0.078,  0.073,  0.064, 
		-0.091, -0.008, -0.102, -0.042, -0.055,  0.006,  0.020,  0.046, -0.032,  0.006, 
		-0.092, -0.062, -0.046,  0.010,  0.124,  0.187,  0.065,  0.001, -0.068, -0.076, 
		-0.065, -0.037,  0.109,  0.122,  0.074,  0.113,  0.083,  0.086, -0.031, -0.074, 
		-0.019,  0.039, -0.084, -0.007,  0.037,  0.008, -0.009,  0.006,  0.024, -0.043, 
		-0.013,  0.009,  0.037,  0.195,  0.071,  0.082, -0.051, -0.042,  0.045,  0.058, 
		 0.032,  0.079,  0.088, -0.022, -0.039, -0.092, -0.061, -0.029, -0.008, -0.075, 
		-0.120, -0.056, -0.080, -0.045, -0.024,  0.050, -0.033,  0.020,  0.020, -0.026, 
		-0.001,  0.037,  0.013, -0.042, -0.048,  0.031, -0.038,  0.008,  0.109,  0.043, 
		-0.054, -0.036, -0.057, -0.007, -0.056,  0.074,  0.086, -0.030,  0.010,  0.021, 
		-0.009,  0.009, -0.038,  0.022,  0.038,  0.070, -0.013,  0.067,  0.003,  0.054, 
		 0.079, -0.174, -0.107,  0.012, -0.020, -0.006,  0.099,  0.101,  0.059,  0.055, 
		-0.042, -0.026,  0.011,  0.010,  0.064, -0.018,  0.007, -0.008, -0.064,  0.034, 
		-0.089, -0.016,  0.090, -0.005,  0.095,  0.096, -0.005,  0.051,  0.025, -0.119, 
		-0.208, -0.124,  0.065,  0.038,  0.090, -0.043,  0.019,  0.096, -0.084, -0.043, 
		 0.016, -0.073,  0.057, -0.024,  0.029, -0.095,  0.044, -0.009,  0.069, -0.043, 
		 0.054,  0.051,  0.132,  0.110, -0.018, -0.084,  0.042, -0.081, -0.181, -0.065, 
		 0.006,  0.075,  0.153,  0.032,  0.059,  0.068, -0.097,  0.043,  0.004, -0.032, 
		-0.039, -0.050,  0.026, -0.117, -0.097,  0.013, -0.010,  0.074,  0.031, -0.004, 
		 0.088,  0.078, -0.002, -0.072,  0.145,  0.013, -0.126, -0.066,  0.076,  0.001, 
		 0.115,  0.053, -0.038, -0.057, -0.048, -0.004,  0.039, -0.078, -0.056, -0.052, 
		-0.073,  0.027, -0.047, -0.069,  0.028,  0.014,  0.005, -0.055, -0.021,  0.031, 
		 0.023,  0.062,  0.091,  0.021, -0.107,  0.019,  0.115,  0.074,  0.002, -0.013, 
		-0.034, -0.024, -0.091, -0.130, -0.061, -0.088,  0.063, -0.040,  0.033, -0.090, 
		-0.066, -0.047, -0.102, -0.028, -0.035,  0.041,  0.036,  0.069, -0.050,  0.084, 
		 0.108,  0.031, -0.050, -0.022,  0.069,  0.041,  0.112,  0.074,  0.012,  0.036, 
		-0.054, -0.033, -0.119, -0.021,  0.015, -0.044, -0.060,  0.064, -0.001, -0.052, 
		-0.019, -0.020,  0.030,  0.015,  0.033,  0.050,  0.032,  0.120,  0.027,  0.003, 
		 0.037,  0.012, -0.006, -0.015,  0.106, -0.010,  0.056, -0.053, -0.004, -0.094, 
		-0.074,  0.037, -0.015,  0.011, -0.030,  0.050,  0.037, -0.045, -0.144, -0.047, 
		 0.061, -0.021,  0.035,  0.087, -0.072,  0.001, -0.004, -0.091, -0.007,  0.041, 
		 0.008,  0.043, -0.011,  0.011,  0.037, -0.025, -0.094, -0.062, -0.105,  0.059, 
		 0.096,  0.017, -0.042,  0.088, -0.028,  0.015, -0.095, -0.003, -0.034, -0.055, 
		 0.119,  0.088, -0.078,  0.092,  0.088, -0.067, -0.011,  0.094,  0.009,  0.131, 
		 0.019,  0.046, -0.015, -0.084,  0.022,  0.003, -0.010,  0.061, -0.047,  0.021, 
		-0.016, -0.068, -0.047, -0.036, -0.024,  0.030,  0.052, -0.001,  0.022,  0.038, 
		-0.007, -0.019, -0.053, -0.064, -0.017,  0.083, -0.004,  0.067, -0.002,  0.044, 
		 0.066,  0.055,  0.023,  0.035, -0.062,  0.126,  0.012, -0.043,  0.025,  0.009, 
		 0.006,  0.023, -0.044,  0.022,  0.111,  0.099,  0.036,  0.139, -0.023, -0.029, 
		-0.031,  0.060,  0.115,  0.022,  0.062,  0.077,  0.020, -0.142, -0.134, -0.083, 
		 0.017, -0.034,  0.060,  0.000,  0.140, -0.007,  0.006,  0.021, -0.021, -0.002, 
		-0.110, -0.071,  0.046,  0.013, -0.028,  0.135,  0.011, -0.084, -0.068,  0.026, 
		 0.183,  0.145,  0.160, -0.110, -0.055, -0.222, -0.227, -0.163, -0.039, -0.001, 
		-0.004,  0.149,  0.130,  0.125,  0.043, -0.008, -0.005, -0.149, -0.319, -0.114, 
		-0.008,  0.035,  0.066,  0.076, -0.078, -0.042, -0.016,  0.029, -0.052, -0.027, 
		 0.024, -0.046, -0.171, -0.199, -0.345, -0.349, -0.059,  0.116,  0.087,  0.234, 
		 0.260,  0.052,  0.103, -0.004, -0.195, -0.448, -0.389, -0.120, -0.057, -0.134, 
		 0.026, -0.028, -0.072, -0.058}, 

		{ // Unit 4 weights.
		-0.061, -0.023,  0.011, -0.009, -0.102, -0.073,  0.033, -0.026, -0.110, -0.068, 
		-0.158,  0.093,  0.064,  0.090,  0.090,  0.128,  0.094,  0.014, -0.180, -0.162, 
		-0.165,  0.099, -0.047, -0.040,  0.006,  0.069, -0.073, -0.006,  0.007, -0.083, 
		 0.048, -0.020, -0.088, -0.106, -0.132, -0.269, -0.192,  0.064,  0.162,  0.118, 
		-0.010,  0.029,  0.114,  0.045, -0.024,  0.100,  0.135, -0.144, -0.189, -0.201, 
		-0.066, -0.007,  0.074, -0.025,  0.003, -0.016,  0.068,  0.008,  0.005, -0.098, 
		-0.146, -0.081, -0.119, -0.156, -0.147,  0.005, -0.018,  0.017,  0.033, -0.058, 
		-0.020, -0.044, -0.049,  0.031, -0.028,  0.018, -0.057, -0.096, -0.047, -0.096, 
		-0.074, -0.045,  0.029, -0.066, -0.102,  0.014, -0.088, -0.058, -0.090, -0.131, 
		-0.139, -0.135, -0.056, -0.090,  0.030, -0.000,  0.041, -0.004,  0.117,  0.073, 
		 0.047,  0.006, -0.033, -0.134, -0.154, -0.133, -0.196, -0.136, -0.019, -0.006, 
		-0.105, -0.026,  0.004, -0.041, -0.076, -0.069, -0.084, -0.044, -0.200, -0.176, 
		-0.022, -0.072,  0.002,  0.002,  0.003,  0.037,  0.021, -0.014, -0.087,  0.023, 
		 0.078,  0.004, -0.134, -0.207, -0.223, -0.121, -0.125, -0.042, -0.076,  0.046, 
		-0.080,  0.027, -0.095, -0.125, -0.157, -0.232, -0.168, -0.012,  0.093, -0.039, 
		 0.026, -0.022, -0.004,  0.038, -0.014, -0.032,  0.060, -0.049,  0.048,  0.064, 
		-0.032,  0.001, -0.090, -0.260, -0.082, -0.087, -0.082, -0.018,  0.019, -0.055, 
		-0.028, -0.158, -0.139, -0.305, -0.059,  0.160,  0.091,  0.034,  0.080,  0.031, 
		-0.037, -0.054,  0.033, -0.032,  0.061,  0.093,  0.011,  0.022,  0.184,  0.045, 
		-0.169, -0.236, -0.014, -0.011, -0.010, -0.042, -0.140, -0.007, -0.033, -0.144, 
		-0.197, -0.361, -0.022,  0.102, -0.015, -0.018,  0.066, -0.022, -0.053,  0.021, 
		-0.011,  0.018, -0.068, -0.022,  0.052,  0.048,  0.092,  0.065, -0.156, -0.231, 
		-0.006, -0.093, -0.059,  0.015, -0.078, -0.030, -0.102, -0.193, -0.191, -0.375, 
		 0.157,  0.141,  0.059, -0.057,  0.014, -0.010, -0.040, -0.050, -0.027, -0.024, 
		 0.023, -0.026,  0.061,  0.045,  0.073,  0.134, -0.114, -0.252, -0.072, -0.035, 
		-0.159, -0.049, -0.084, -0.131, -0.024, -0.081, -0.298, -0.155,  0.097,  0.120, 
		 0.016, -0.075, -0.117,  0.049,  0.025,  0.073,  0.055, -0.026,  0.065, -0.041, 
		-0.031,  0.041,  0.048,  0.029, -0.068, -0.256, -0.151,  0.010, -0.106,  0.025, 
		-0.124,  0.027, -0.117, -0.192, -0.184, -0.184,  0.092,  0.038,  0.064, -0.047, 
		-0.065,  0.088, -0.010,  0.048,  0.064,  0.028,  0.044, -0.042, -0.030,  0.014, 
		 0.008,  0.017, -0.087, -0.175, -0.149, -0.008, -0.061, -0.005, -0.086,  0.048, 
		-0.104, -0.131, -0.340, -0.305,  0.045,  0.007,  0.023, -0.095,  0.069,  0.057, 
		 0.141,  0.052,  0.061,  0.068,  0.011,  0.036, -0.012,  0.096,  0.131,  0.071, 
		-0.037, -0.084, -0.086, -0.018, -0.029, -0.004, -0.063,  0.047, -0.143, -0.071, 
		-0.190, -0.185,  0.090,  0.167,  0.011,  0.037,  0.077,  0.021,  0.015, -0.005, 
		-0.005, -0.019,  0.059,  0.010, -0.046, -0.018,  0.169,  0.176, -0.018, -0.052, 
		 0.013, -0.020,  0.122,  0.037, -0.047,  0.013,  0.100,  0.014, -0.219, -0.036, 
		 0.152,  0.199,  0.125,  0.061,  0.042,  0.012, -0.031,  0.108,  0.108,  0.005, 
		 0.048, -0.068, -0.093, -0.069,  0.085,  0.238,  0.071,  0.024, -0.058, -0.072, 
		 0.104,  0.056, -0.029,  0.049,  0.151,  0.058, -0.113, -0.138,  0.057,  0.153, 
		 0.022, -0.134, -0.003, -0.034,  0.095,  0.122, -0.024, -0.031,  0.013, -0.023, 
		-0.029,  0.003,  0.046,  0.093,  0.033, -0.085, -0.078,  0.012,  0.141,  0.048, 
		 0.081,  0.036,  0.147,  0.073, -0.055, -0.080,  0.116,  0.147, -0.080, -0.054, 
		 0.105,  0.068,  0.031, -0.026,  0.058,  0.070,  0.047, -0.033,  0.065, -0.062, 
		 0.069,  0.087,  0.095, -0.117, -0.016,  0.033,  0.064,  0.026,  0.104,  0.114, 
		 0.059,  0.095, -0.163, -0.110,  0.105, -0.008, -0.078, -0.069,  0.093, -0.063, 
		 0.055, -0.020,  0.079, -0.028, -0.023,  0.067,  0.032, -0.010, -0.046,  0.154, 
		 0.016, -0.102, -0.067, -0.081,  0.073, -0.007,  0.150, -0.038,  0.011, -0.092, 
		-0.134,  0.036,  0.100,  0.070, -0.147, -0.050, -0.037, -0.077,  0.022, -0.014, 
		 0.001,  0.009, -0.057, -0.003,  0.022, -0.051,  0.063,  0.152, -0.050, -0.193, 
		-0.049, -0.062, -0.054,  0.033, -0.003,  0.031,  0.058,  0.003, -0.222, -0.057, 
		 0.018,  0.030, -0.039, -0.064, -0.013, -0.006,  0.060,  0.045, -0.064, -0.050, 
		-0.097, -0.044, -0.068, -0.043,  0.023,  0.091,  0.084, -0.177, -0.193, -0.114, 
		-0.100, -0.018, -0.041, -0.115,  0.044, -0.011, -0.137, -0.038,  0.110,  0.051, 
		-0.154, -0.116,  0.010,  0.024, -0.029,  0.003, -0.058,  0.024,  0.072,  0.056, 
		-0.038, -0.108, -0.020,  0.115,  0.124, -0.114, -0.090, -0.120,  0.015,  0.211, 
		-0.066, -0.084, -0.085, -0.020, -0.230, -0.016,  0.060,  0.021, -0.203,  0.030, 
		-0.046, -0.023,  0.035, -0.017,  0.099,  0.007, -0.023,  0.093,  0.052, -0.005, 
		-0.111,  0.041,  0.114, -0.012, -0.019, -0.018, -0.072, -0.059,  0.010,  0.033, 
		-0.102, -0.120, -0.307, -0.025,  0.046, -0.035, -0.225, -0.090, -0.072,  0.017, 
		-0.096,  0.055, -0.043,  0.055, -0.010, -0.056, -0.052, -0.137, -0.124, -0.040, 
		-0.001, -0.068, -0.114, -0.073, -0.122, -0.036, -0.067,  0.034, -0.014,  0.016, 
		-0.282, -0.100, -0.055, -0.157, -0.184, -0.064,  0.011, -0.020,  0.048,  0.056, 
		-0.009,  0.038, -0.039,  0.033, -0.033, -0.145, -0.102, -0.066, -0.014, -0.075, 
		-0.020, -0.057, -0.102, -0.059, -0.079, -0.065, -0.070, -0.019, -0.250, -0.012, 
		-0.141, -0.042, -0.119,  0.049,  0.000,  0.032, -0.006,  0.004,  0.011, -0.003, 
		 0.021, -0.009, -0.039, -0.103, -0.142, -0.029,  0.028, -0.222, -0.109, -0.079, 
		-0.015, -0.136,  0.073, -0.071,  0.030, -0.116, -0.147, -0.153, -0.085, -0.112, 
		-0.176,  0.050,  0.088,  0.039, -0.040,  0.042, -0.063,  0.043,  0.054, -0.034, 
		 0.050, -0.153, -0.106, -0.062, -0.049, -0.237, -0.059,  0.002, -0.045, -0.114, 
		 0.082,  0.038, -0.068, -0.098, -0.290, -0.186, -0.123, -0.134, -0.084,  0.035, 
		 0.088,  0.066,  0.069, -0.025,  0.019, -0.043,  0.035, -0.044,  0.016,  0.002, 
		-0.182, -0.063, -0.104, -0.299, -0.089,  0.038,  0.049,  0.028, -0.015,  0.025, 
		 0.004, -0.054, -0.437, -0.139, -0.112, -0.100, -0.108,  0.179,  0.082,  0.032, 
		 0.042,  0.074,  0.069, -0.027,  0.110,  0.040,  0.091,  0.076, -0.037, -0.024, 
		-0.070, -0.273, -0.241, -0.032, -0.012, -0.041, -0.024, -0.068, -0.055,  0.032, 
		-0.201, -0.026,  0.025, -0.065, -0.261,  0.066,  0.125,  0.031, -0.044,  0.041, 
		-0.040,  0.065, -0.014,  0.099,  0.100, -0.063, -0.138,  0.024,  0.058, -0.174, 
		-0.144,  0.078, -0.046,  0.030}, 

		{ // Unit 5 weights.
		 0.052, -0.083,  0.100, -0.003, -0.130, -0.044, -0.158, -0.154, -0.162, -0.226, 
		-0.251, -0.057,  0.184,  0.159,  0.115,  0.214,  0.026, -0.265, -0.193, -0.248, 
		-0.154, -0.109, -0.083, -0.077,  0.032,  0.053,  0.008,  0.001, -0.042, -0.030, 
		-0.058, -0.126,  0.015,  0.043,  0.004, -0.121, -0.108, -0.191, -0.204,  0.058, 
		 0.008,  0.061,  0.104,  0.161, -0.025, -0.073, -0.133, -0.116, -0.146, -0.174, 
		 0.042, -0.104, -0.007,  0.067,  0.055, -0.044, -0.033,  0.024,  0.039,  0.023, 
		-0.060, -0.008, -0.094, -0.165, -0.015, -0.025, -0.024,  0.059,  0.025,  0.042, 
		 0.115,  0.065,  0.077, -0.024, -0.060, -0.041, -0.241, -0.119,  0.033, -0.054, 
		 0.075,  0.066, -0.030,  0.027, -0.070, -0.003, -0.058,  0.041, -0.075, -0.105, 
		-0.130,  0.028,  0.050, -0.047, -0.018, -0.054,  0.036,  0.066,  0.166,  0.050, 
		 0.015, -0.062, -0.068,  0.057, -0.078, -0.168, -0.172,  0.042,  0.044,  0.046, 
		 0.031,  0.074, -0.024, -0.067, -0.054, -0.052, -0.085, -0.056, -0.011, -0.107, 
		 0.031, -0.006,  0.044,  0.012,  0.099,  0.042,  0.087,  0.138,  0.045, -0.025, 
		-0.114,  0.021, -0.133, -0.070,  0.055, -0.133,  0.007,  0.041,  0.041, -0.098, 
		 0.003, -0.086, -0.131, -0.138, -0.056, -0.010, -0.079,  0.012, -0.004, -0.061, 
		 0.069,  0.119, -0.018,  0.015,  0.036, -0.002, -0.011,  0.062,  0.049, -0.070, 
		-0.085, -0.031,  0.003, -0.135,  0.023,  0.030, -0.067, -0.108, -0.063, -0.093, 
		-0.143, -0.138, -0.003, -0.154, -0.115, -0.032,  0.053, -0.040,  0.004, -0.029, 
		 0.086,  0.119,  0.041,  0.075, -0.019,  0.074,  0.026, -0.026, -0.118, -0.054, 
		-0.151, -0.090, -0.029, -0.054, -0.225, -0.103, -0.033, -0.102, -0.026, -0.099, 
		-0.079,  0.013, -0.101, -0.001, -0.085,  0.024,  0.011,  0.049,  0.003,  0.040, 
		-0.028, -0.060,  0.010, -0.050, -0.036,  0.026, -0.009, -0.066, -0.059, -0.038, 
		-0.160, -0.092, -0.145, -0.163, -0.150, -0.083, -0.168, -0.038, -0.069, -0.047, 
		 0.003,  0.008,  0.019,  0.027,  0.072,  0.040, -0.074,  0.029,  0.081,  0.059, 
		 0.044,  0.004, -0.004,  0.051, -0.052, -0.018, -0.028, -0.131, -0.193, -0.195, 
		-0.040,  0.030, -0.077, -0.197, -0.022, -0.126, -0.105, -0.028, -0.005, -0.065, 
		-0.086, -0.050, -0.017,  0.049, -0.011, -0.042, -0.001,  0.031, -0.045, -0.122, 
		-0.066,  0.032, -0.081, -0.055,  0.052, -0.036, -0.092, -0.161, -0.018, -0.004, 
		-0.108, -0.114, -0.110,  0.007, -0.063,  0.004,  0.000,  0.044, -0.031,  0.037, 
		-0.004, -0.046,  0.009, -0.032,  0.012,  0.043, -0.059, -0.036,  0.080, -0.054, 
		 0.063,  0.005,  0.049,  0.073,  0.008,  0.045,  0.046, -0.043, -0.298, -0.237, 
		-0.064, -0.101, -0.070, -0.036, -0.073,  0.049,  0.015,  0.122,  0.022,  0.015, 
		-0.006,  0.027, -0.019, -0.011, -0.074, -0.077, -0.002, -0.025,  0.056, -0.037, 
		 0.023,  0.083, -0.009,  0.031, -0.032, -0.046, -0.245, -0.270, -0.133, -0.177, 
		 0.053,  0.020, -0.032,  0.017,  0.016,  0.118,  0.056,  0.048, -0.035, -0.045, 
		 0.050,  0.088, -0.016, -0.070,  0.001,  0.023,  0.082, -0.010, -0.042,  0.072, 
		 0.043, -0.038, -0.001, -0.020, -0.229, -0.334, -0.215, -0.126, -0.027,  0.077, 
		-0.025,  0.072,  0.041,  0.005, -0.051, -0.016,  0.035,  0.051,  0.036, -0.011, 
		-0.059,  0.050,  0.059,  0.147,  0.078,  0.063,  0.082,  0.077,  0.089,  0.060, 
		 0.015,  0.062, -0.004, -0.075, -0.114, -0.003,  0.072,  0.071,  0.017,  0.059, 
		 0.055,  0.027,  0.064,  0.010, -0.051, -0.028,  0.010,  0.069, -0.086, -0.015, 
		 0.054,  0.127,  0.021,  0.031,  0.053,  0.019,  0.108,  0.040, -0.117, -0.084, 
		 0.110, -0.065, -0.173, -0.083, -0.044,  0.034,  0.013,  0.067,  0.017,  0.101, 
		 0.013, -0.064, -0.111,  0.038, -0.006,  0.041,  0.032,  0.027, -0.033,  0.027, 
		 0.089, -0.070, -0.020,  0.096, -0.069, -0.017, -0.122, -0.114,  0.100, -0.068, 
		-0.169, -0.035, -0.032,  0.073,  0.077,  0.107,  0.060,  0.067,  0.044, -0.095, 
		 0.025,  0.059, -0.010,  0.043, -0.010, -0.004,  0.048,  0.094,  0.063, -0.035, 
		-0.052,  0.091,  0.047,  0.049,  0.021, -0.164,  0.083,  0.026, -0.063, -0.014, 
		 0.021,  0.012,  0.048,  0.067,  0.013, -0.017, -0.024, -0.073, -0.097, -0.014, 
		 0.062, -0.060,  0.056, -0.085, -0.064,  0.021,  0.045, -0.013, -0.028,  0.027, 
		-0.003,  0.039, -0.096, -0.046,  0.027, -0.135, -0.088, -0.042,  0.035,  0.102, 
		 0.066,  0.027,  0.018, -0.047, -0.002, -0.059, -0.084,  0.045,  0.075, -0.046, 
		-0.038,  0.042,  0.009,  0.117,  0.024, -0.060, -0.037, -0.015,  0.058,  0.089, 
		-0.051,  0.056,  0.036,  0.021, -0.083, -0.008,  0.078,  0.039, -0.071, -0.052, 
		 0.049,  0.029,  0.017,  0.067,  0.012,  0.029,  0.098, -0.030,  0.013, -0.012, 
		 0.069,  0.055,  0.060,  0.041, -0.055,  0.020,  0.064, -0.057, -0.064,  0.092, 
		 0.047,  0.034,  0.056, -0.002,  0.146,  0.070, -0.036,  0.013, -0.005, -0.049, 
		-0.067,  0.007, -0.008,  0.074,  0.060,  0.006, -0.021,  0.069, -0.046, -0.006, 
		 0.024, -0.014, -0.048,  0.008, -0.035, -0.051, -0.048, -0.010,  0.131, -0.044, 
		 0.014,  0.036, -0.004, -0.013,  0.021,  0.041,  0.100, -0.035, -0.088, -0.084, 
		-0.108, -0.010,  0.036,  0.056, -0.029,  0.096, -0.011,  0.006,  0.031, -0.079, 
		 0.032,  0.123,  0.092,  0.066,  0.011, -0.126,  0.023,  0.016, -0.026,  0.077, 
		-0.001,  0.021,  0.039,  0.052,  0.030, -0.076, -0.034, -0.092, -0.029,  0.034, 
		-0.025, -0.051, -0.035,  0.098,  0.004,  0.023,  0.111, -0.046,  0.076,  0.094, 
		 0.033, -0.058, -0.031, -0.006, -0.026,  0.082,  0.111, -0.004,  0.065, -0.039, 
		-0.092, -0.040,  0.087, -0.052, -0.070,  0.026,  0.020, -0.050, -0.079, -0.066, 
		-0.007,  0.066,  0.050,  0.037,  0.099, -0.001, -0.019,  0.133,  0.043,  0.038, 
		-0.090, -0.088, -0.036,  0.038, -0.007,  0.012,  0.100,  0.028,  0.041,  0.025, 
		 0.093,  0.023,  0.008, -0.014, -0.048,  0.042,  0.001,  0.017,  0.001, -0.058, 
		 0.012,  0.041,  0.079,  0.014, -0.092,  0.093,  0.104,  0.011,  0.033, -0.048, 
		-0.051, -0.085, -0.020,  0.014,  0.121,  0.075, -0.066,  0.063, -0.119, -0.020, 
		-0.054, -0.046, -0.085, -0.050,  0.064, -0.058,  0.012,  0.062, -0.001, -0.039, 
		-0.047, -0.042, -0.062,  0.040,  0.085, -0.084, -0.063, -0.076, -0.078, -0.036, 
		-0.067,  0.090,  0.032, -0.031, -0.094, -0.062, -0.120, -0.012, -0.072,  0.030, 
		 0.031, -0.026,  0.005, -0.015,  0.011, -0.059,  0.026, -0.025, -0.020, -0.053, 
		-0.033,  0.085, -0.014,  0.009, -0.070, -0.121, -0.031, -0.025, -0.052, -0.047, 
		 0.040, -0.028, -0.118, -0.211, -0.348, -0.221, -0.182, -0.043,  0.053,  0.022, 
		 0.005,  0.027, -0.058, -0.135, -0.127, -0.283, -0.332, -0.049,  0.033,  0.015, 
		 0.043,  0.087,  0.067,  0.014}, 

		{ // Unit 6 weights.
		-0.045, -0.045,  0.080, -0.025,  0.096,  0.012, -0.132,  0.073,  0.170,  0.136, 
		 0.154, -0.011,  0.023,  0.055,  0.032, -0.004,  0.097, -0.011,  0.215,  0.359, 
		 0.128,  0.005, -0.041, -0.046,  0.024,  0.053, -0.039,  0.076, -0.031, -0.067, 
		 0.044,  0.027, -0.021, -0.041, -0.035,  0.206,  0.132, -0.021,  0.166,  0.090, 
		 0.060, -0.057,  0.007, -0.042,  0.000,  0.050,  0.129,  0.148,  0.197,  0.212, 
		-0.153, -0.158, -0.069,  0.019, -0.059,  0.003, -0.085, -0.050,  0.050,  0.050, 
		 0.032, -0.144,  0.065,  0.097,  0.009,  0.003, -0.009,  0.023,  0.123,  0.036, 
		-0.083, -0.002,  0.061,  0.088, -0.028,  0.031,  0.088,  0.191,  0.109,  0.022, 
		-0.036, -0.167, -0.054,  0.037, -0.031, -0.049,  0.020, -0.004,  0.037,  0.025, 
		 0.008, -0.131, -0.076, -0.000, -0.008,  0.006,  0.086,  0.060, -0.018, -0.030, 
		-0.063,  0.078,  0.032,  0.019,  0.001,  0.084,  0.038, -0.023, -0.084, -0.037, 
		-0.026,  0.034, -0.038,  0.028, -0.069, -0.022,  0.010, -0.055, -0.121, -0.203, 
		-0.046, -0.009, -0.064,  0.009,  0.007,  0.082,  0.112,  0.016, -0.012,  0.053, 
		-0.018,  0.001, -0.017, -0.127, -0.016, -0.022,  0.009, -0.064, -0.089, -0.013, 
		-0.048, -0.050, -0.016, -0.104,  0.057, -0.127, -0.279, -0.193,  0.012,  0.056, 
		-0.027, -0.054,  0.017, -0.023,  0.072, -0.054, -0.033, -0.073, -0.024, -0.023, 
		 0.008, -0.148, -0.132,  0.007, -0.069, -0.039,  0.005, -0.140,  0.016, -0.081, 
		-0.080, -0.099,  0.060, -0.054, -0.306, -0.068,  0.093, -0.018, -0.019, -0.099, 
		-0.117, -0.022,  0.126,  0.094, -0.058, -0.006,  0.019,  0.102, -0.082, -0.120, 
		-0.068,  0.059, -0.009,  0.018, -0.115, -0.133, -0.123, -0.161, -0.113, -0.062, 
		 0.039, -0.015, -0.250, -0.052,  0.141, -0.075,  0.036, -0.111, -0.125,  0.057, 
		 0.008,  0.044,  0.012,  0.138,  0.054,  0.138,  0.062, -0.129, -0.071,  0.049, 
		-0.079, -0.142, -0.138, -0.166, -0.043, -0.035, -0.012, -0.082,  0.061, -0.032, 
		-0.238, -0.044,  0.074,  0.026,  0.079, -0.024, -0.035,  0.034, -0.058,  0.010, 
		 0.073,  0.036,  0.145,  0.011, -0.022, -0.189,  0.000, -0.103, -0.139, -0.199, 
		-0.161, -0.019, -0.123, -0.145, -0.066,  0.014,  0.039, -0.078, -0.216,  0.001, 
		 0.035,  0.013,  0.066, -0.019, -0.011,  0.033,  0.004,  0.012, -0.013,  0.083, 
		 0.205,  0.056, -0.093, -0.131, -0.148,  0.002, -0.037, -0.149, -0.116, -0.017, 
		-0.103, -0.130, -0.112, -0.033, -0.031, -0.055, -0.135, -0.079,  0.109,  0.059, 
		 0.023,  0.030, -0.010, -0.054,  0.009,  0.100,  0.036,  0.128,  0.170,  0.042, 
		-0.030, -0.164, -0.028, -0.053, -0.069,  0.017,  0.011,  0.017, -0.172, -0.104, 
		-0.170, -0.107, -0.117, -0.063, -0.250, -0.106,  0.016,  0.108, -0.038, -0.059, 
		-0.013, -0.034,  0.029,  0.014,  0.063,  0.118,  0.127,  0.061, -0.045, -0.186, 
		-0.048, -0.032,  0.092,  0.069,  0.059,  0.085, -0.107, -0.171, -0.162, -0.115, 
		-0.065, -0.093, -0.239, -0.086,  0.057,  0.048,  0.028, -0.018, -0.028,  0.001, 
		-0.094,  0.130,  0.081, -0.006, -0.011,  0.066, -0.075, -0.204, -0.045,  0.054, 
		 0.037,  0.029,  0.060,  0.013, -0.197, -0.166, -0.162, -0.157, -0.152, -0.132, 
		-0.164, -0.093,  0.007,  0.030,  0.085, -0.056,  0.073, -0.062, -0.109,  0.062, 
		 0.063,  0.015,  0.031,  0.064, -0.086, -0.059, -0.037, -0.050, -0.042,  0.077, 
		-0.029,  0.045, -0.066, -0.036, -0.137, -0.163, -0.110, -0.086, -0.003,  0.062, 
		 0.039, -0.044,  0.033, -0.069, -0.042, -0.028,  0.008,  0.064,  0.001, -0.049, 
		 0.014, -0.011, -0.056, -0.098,  0.034, -0.053,  0.026,  0.089, -0.045, -0.082, 
		 0.066, -0.076, -0.126, -0.092, -0.023, -0.013, -0.013,  0.012, -0.005,  0.095, 
		-0.093,  0.052, -0.032, -0.009, -0.037,  0.039,  0.094, -0.048, -0.035, -0.019, 
		-0.020, -0.097, -0.034, -0.061,  0.042,  0.046, -0.045, -0.054,  0.113,  0.017, 
		-0.048, -0.064, -0.113, -0.016,  0.018,  0.008,  0.072, -0.004, -0.028,  0.010, 
		-0.036, -0.088, -0.091,  0.055,  0.030,  0.090,  0.048, -0.025, -0.054, -0.037, 
		 0.041, -0.018, -0.006,  0.033,  0.101, -0.109,  0.135,  0.049, -0.112,  0.002, 
		 0.015,  0.069,  0.102, -0.080,  0.097, -0.016,  0.005,  0.087,  0.003, -0.044, 
		-0.167, -0.032, -0.031, -0.006, -0.037, -0.106, -0.107, -0.134,  0.028,  0.062, 
		-0.019, -0.034, -0.034, -0.022,  0.074,  0.013, -0.013, -0.053, -0.035,  0.020, 
		 0.081, -0.036,  0.086, -0.089, -0.016, -0.057, -0.022, -0.144, -0.048, -0.049, 
		 0.024,  0.056, -0.099, -0.048, -0.013, -0.128, -0.073,  0.090, -0.007,  0.048, 
		 0.104,  0.128,  0.063, -0.072, -0.003, -0.068,  0.090,  0.052,  0.055,  0.026, 
		 0.060, -0.024,  0.035,  0.061, -0.025, -0.022, -0.138,  0.069,  0.094,  0.082, 
		-0.048,  0.067,  0.087,  0.013,  0.007,  0.056,  0.040,  0.011,  0.129,  0.108, 
		 0.063,  0.032,  0.021, -0.052, -0.080, -0.100,  0.003,  0.147,  0.136, -0.081, 
		-0.005, -0.035, -0.048, -0.055, -0.122,  0.088,  0.009, -0.082, -0.020,  0.058, 
		 0.021,  0.074, -0.113, -0.037,  0.027,  0.058,  0.032,  0.110, -0.020, -0.020, 
		 0.070,  0.031, -0.062, -0.073,  0.121,  0.171,  0.127, -0.060,  0.016,  0.025, 
		-0.027, -0.047, -0.190, -0.018,  0.048, -0.007, -0.003,  0.006,  0.164,  0.076, 
		-0.139, -0.003, -0.117,  0.032,  0.020, -0.043,  0.001, -0.061,  0.009, -0.047, 
		-0.091, -0.057,  0.043,  0.177,  0.079, -0.076,  0.036,  0.028,  0.093, -0.032, 
		-0.185,  0.080,  0.052, -0.005,  0.094,  0.017,  0.054, -0.005, -0.201, -0.117, 
		-0.141,  0.007, -0.002,  0.010, -0.021, -0.105,  0.020, -0.056, -0.202, -0.100, 
		 0.121,  0.160,  0.092, -0.002, -0.062,  0.034,  0.024, -0.091, -0.097, -0.052, 
		 0.017,  0.034,  0.060,  0.012,  0.091,  0.009, -0.190, -0.105, -0.092, -0.060, 
		-0.032, -0.014, -0.044,  0.042, -0.021, -0.078, -0.168, -0.170,  0.052,  0.160, 
		-0.008,  0.082, -0.013,  0.020, -0.036, -0.074, -0.028, -0.006,  0.028,  0.003, 
		 0.044,  0.094,  0.031,  0.025, -0.188, -0.114, -0.077,  0.084, -0.006,  0.040, 
		 0.072, -0.015,  0.023, -0.015, -0.194, -0.210,  0.002,  0.101,  0.003,  0.051, 
		-0.095,  0.011,  0.047, -0.126, -0.143,  0.007, -0.027, -0.081, -0.072, -0.034, 
		 0.103, -0.042, -0.260, -0.230, -0.091,  0.024,  0.000,  0.041, -0.037,  0.081, 
		-0.046, -0.090, -0.040, -0.036, -0.070,  0.057, -0.005, -0.053,  0.043,  0.043, 
		 0.078, -0.058, -0.101,  0.102, -0.044, -0.015, -0.005, -0.023,  0.002, -0.032, 
		-0.235, -0.169, -0.041,  0.040,  0.008, -0.085,  0.006, -0.017, -0.058,  0.020, 
		-0.080, -0.102,  0.029,  0.065,  0.002, -0.055, -0.062,  0.048,  0.109, -0.028, 
		-0.165,  0.069,  0.056,  0.075,  0.004, -0.062,  0.008,  0.056,  0.045, -0.042, 
		-0.073, -0.039, -0.045, -0.048}, 

		{ // Unit 7 weights.
		-0.075, -0.029, -0.026, -0.011,  0.076, -0.006,  0.055,  0.002,  0.039,  0.064, 
		 0.016, -0.047, -0.016, -0.080, -0.034, -0.017,  0.050,  0.060, -0.060, -0.014, 
		 0.051,  0.006,  0.076, -0.036,  0.019,  0.058,  0.058, -0.028,  0.048, -0.060, 
		 0.043,  0.039,  0.067,  0.067,  0.006, -0.079, -0.001, -0.039, -0.047, -0.025, 
		 0.064,  0.015, -0.027,  0.042, -0.072,  0.053, -0.009, -0.038,  0.045,  0.026, 
		-0.070,  0.045, -0.078,  0.069, -0.053,  0.049, -0.019,  0.062,  0.066,  0.052, 
		-0.019, -0.005, -0.024, -0.072,  0.059,  0.015, -0.018, -0.004, -0.075,  0.020, 
		 0.029,  0.031,  0.021, -0.012, -0.041, -0.039,  0.032,  0.044,  0.050,  0.063, 
		 0.063,  0.034,  0.057, -0.024, -0.078, -0.023,  0.050, -0.079,  0.060,  0.008, 
		-0.057, -0.079, -0.071, -0.055,  0.041, -0.034, -0.064, -0.063, -0.083,  0.050, 
		-0.016,  0.023,  0.064, -0.011, -0.079, -0.025,  0.039, -0.062,  0.033,  0.073, 
		 0.074, -0.047,  0.027,  0.062,  0.065,  0.073,  0.067,  0.020, -0.010, -0.081, 
		 0.003,  0.001,  0.049,  0.055, -0.001, -0.019,  0.039,  0.011, -0.080, -0.029, 
		-0.025,  0.017,  0.049, -0.057, -0.085,  0.001, -0.016,  0.071,  0.062,  0.026, 
		 0.080, -0.032,  0.024,  0.005, -0.052,  0.023, -0.074, -0.037,  0.032, -0.083, 
		-0.062, -0.042, -0.001, -0.081,  0.013, -0.051,  0.030,  0.069,  0.040, -0.035, 
		 0.056, -0.035,  0.042,  0.010, -0.078, -0.019, -0.039,  0.040, -0.062, -0.069, 
		-0.071, -0.048,  0.017,  0.047,  0.021, -0.044,  0.064, -0.065, -0.004, -0.003, 
		-0.061,  0.044, -0.021, -0.053,  0.016,  0.027,  0.014, -0.067, -0.076,  0.033, 
		 0.009, -0.036,  0.048, -0.017,  0.046,  0.041,  0.072, -0.080, -0.051, -0.060, 
		 0.054, -0.058, -0.032, -0.002,  0.037, -0.067,  0.012,  0.019,  0.063, -0.084, 
		 0.034,  0.027, -0.052, -0.047,  0.002, -0.009, -0.084, -0.032,  0.005, -0.051, 
		-0.033, -0.069,  0.058,  0.033, -0.039,  0.049,  0.039,  0.019, -0.013,  0.048, 
		-0.003, -0.052,  0.002,  0.038,  0.050, -0.023,  0.074, -0.064, -0.017,  0.036, 
		-0.082, -0.057, -0.002,  0.024,  0.004,  0.005, -0.061,  0.062, -0.006,  0.017, 
		 0.031, -0.049,  0.020,  0.005,  0.031, -0.070, -0.085,  0.030, -0.025, -0.059, 
		-0.032,  0.010, -0.033, -0.049, -0.033, -0.000, -0.079,  0.031, -0.027,  0.034, 
		-0.079, -0.005, -0.005, -0.010, -0.011,  0.073, -0.034, -0.020, -0.002, -0.048, 
		 0.068,  0.048, -0.045, -0.013,  0.012,  0.001,  0.006, -0.038,  0.042, -0.012, 
		 0.020, -0.087,  0.071, -0.039, -0.061, -0.017, -0.082,  0.033, -0.076,  0.028, 
		-0.005, -0.083, -0.051,  0.027,  0.043, -0.080, -0.011, -0.057, -0.067, -0.066, 
		-0.051,  0.055, -0.001, -0.005, -0.017, -0.008, -0.035, -0.037, -0.052,  0.025, 
		-0.044,  0.065, -0.000,  0.050,  0.028, -0.037,  0.010, -0.074, -0.010,  0.038, 
		 0.001,  0.067, -0.030, -0.038, -0.085,  0.005,  0.037,  0.040,  0.049,  0.015, 
		 0.008, -0.060, -0.010, -0.006, -0.050,  0.008,  0.070,  0.017, -0.071,  0.055, 
		-0.001, -0.077, -0.084,  0.001,  0.049, -0.055, -0.071, -0.034, -0.057,  0.043, 
		-0.078, -0.057, -0.003, -0.050, -0.063,  0.018,  0.002, -0.002,  0.020,  0.036, 
		-0.047,  0.007, -0.084, -0.082,  0.011,  0.022,  0.025, -0.064, -0.012, -0.065, 
		 0.055,  0.031, -0.054, -0.070, -0.090,  0.051, -0.057,  0.035,  0.034,  0.017, 
		 0.038,  0.050, -0.038, -0.022,  0.054, -0.005,  0.055,  0.016, -0.030, -0.070, 
		 0.064, -0.090,  0.049,  0.067, -0.060, -0.081,  0.033, -0.043, -0.079,  0.001, 
		-0.068,  0.034,  0.002, -0.075,  0.032,  0.014, -0.005, -0.051, -0.079,  0.042, 
		-0.077, -0.041, -0.071, -0.051,  0.060, -0.050,  0.042, -0.029, -0.057, -0.073, 
		-0.087,  0.008, -0.062, -0.076, -0.052,  0.001,  0.050,  0.062,  0.030, -0.023, 
		-0.086,  0.019,  0.059, -0.079,  0.004,  0.021,  0.024, -0.002, -0.004, -0.085, 
		 0.035, -0.004, -0.005,  0.028, -0.003, -0.002,  0.035,  0.041,  0.058,  0.048, 
		-0.027,  0.014, -0.029,  0.029,  0.043, -0.027, -0.026,  0.026, -0.074, -0.060, 
		-0.080, -0.032, -0.025, -0.003, -0.063, -0.058, -0.054, -0.004,  0.010, -0.061, 
		 0.049,  0.033, -0.049, -0.005,  0.029, -0.060, -0.060,  0.049, -0.073, -0.078, 
		-0.029, -0.027, -0.055,  0.051,  0.053,  0.030,  0.063,  0.051, -0.012, -0.072, 
		 0.043, -0.071, -0.023, -0.058, -0.050,  0.069,  0.034, -0.091, -0.013,  0.064, 
		 0.066,  0.046, -0.003, -0.011,  0.000, -0.009,  0.062,  0.054,  0.013, -0.072, 
		-0.040,  0.026, -0.085,  0.032, -0.060, -0.004, -0.044,  0.009, -0.082, -0.085, 
		-0.056, -0.048,  0.048,  0.062,  0.025, -0.080,  0.068, -0.039,  0.049,  0.015, 
		-0.021,  0.041,  0.042,  0.059, -0.031,  0.004, -0.014, -0.012, -0.007,  0.004, 
		 0.018,  0.006, -0.019,  0.048, -0.050,  0.050, -0.038, -0.073, -0.011, -0.088, 
		-0.071, -0.043, -0.009,  0.017,  0.029,  0.049, -0.054,  0.056, -0.030,  0.045, 
		-0.019,  0.063, -0.054, -0.046,  0.011, -0.074,  0.060, -0.040, -0.092,  0.044, 
		 0.042, -0.062, -0.075,  0.055,  0.017, -0.026,  0.023, -0.021,  0.058,  0.008, 
		 0.043,  0.027, -0.076,  0.052,  0.059, -0.058, -0.066, -0.049, -0.043, -0.050, 
		 0.069, -0.052, -0.061,  0.030,  0.054, -0.081,  0.059,  0.040,  0.012, -0.030, 
		-0.067,  0.041, -0.009,  0.073, -0.052,  0.065, -0.017,  0.041, -0.058, -0.021, 
		 0.004, -0.032,  0.022, -0.030, -0.004,  0.022, -0.015, -0.059, -0.005, -0.046, 
		 0.063, -0.011, -0.021, -0.036, -0.004, -0.051, -0.041, -0.064, -0.048, -0.075, 
		 0.033,  0.010, -0.005,  0.045, -0.014,  0.041, -0.065, -0.013, -0.000, -0.021, 
		-0.004,  0.055,  0.071,  0.054, -0.055,  0.042,  0.059,  0.021,  0.036, -0.010, 
		-0.032,  0.007,  0.043,  0.053,  0.060,  0.046,  0.008,  0.018,  0.035,  0.073, 
		 0.008, -0.069, -0.030,  0.067,  0.009, -0.080,  0.064, -0.001, -0.031, -0.028, 
		-0.025,  0.053,  0.048, -0.079, -0.037, -0.061, -0.082, -0.045, -0.053, -0.086, 
		 0.066, -0.057,  0.069, -0.090, -0.009,  0.024, -0.066, -0.056, -0.044,  0.006, 
		-0.045, -0.045, -0.064,  0.054, -0.091, -0.076,  0.012,  0.004, -0.079,  0.047, 
		-0.062,  0.073,  0.047, -0.022,  0.021, -0.011, -0.051,  0.066, -0.003, -0.062, 
		-0.076,  0.020, -0.030,  0.039,  0.067, -0.041,  0.046,  0.049, -0.009,  0.030, 
		-0.077,  0.061,  0.021,  0.001,  0.065,  0.049,  0.066, -0.051, -0.001, -0.031, 
		-0.000, -0.070,  0.059, -0.072, -0.002, -0.008,  0.066, -0.042,  0.034,  0.033, 
		 0.029, -0.048, -0.085,  0.057, -0.028, -0.028,  0.005,  0.004, -0.031, -0.034, 
		-0.022,  0.028, -0.020, -0.084,  0.028, -0.015, -0.046,  0.032, -0.071, -0.046, 
		 0.052, -0.010,  0.033, -0.045,  0.023,  0.054, -0.015, -0.065,  0.001, -0.039, 
		-0.075,  0.055, -0.049,  0.049}, 

		{ // Unit 8 weights.
		 0.069,  0.020, -0.004, -0.179, -0.207, -0.118, -0.072, -0.080, -0.076, -0.178, 
		-0.019, -0.095, -0.102,  0.110,  0.254,  0.020, -0.029, -0.071, -0.147, -0.136, 
		-0.068, -0.060, -0.160, -0.047, -0.064, -0.028, -0.012, -0.030,  0.003, -0.061, 
		-0.012, -0.088, -0.210, -0.165, -0.153, -0.140, -0.128, -0.097, -0.096, -0.075, 
		-0.025,  0.041, -0.074, -0.029,  0.043, -0.104,  0.006, -0.161, -0.084, -0.003, 
		 0.059, -0.086, -0.055,  0.027, -0.078, -0.102, -0.012, -0.001, -0.081, -0.033, 
		-0.076, -0.129, -0.106, -0.010, -0.079, -0.093, -0.088, -0.024,  0.038,  0.005, 
		-0.083, -0.063, -0.078, -0.027, -0.090, -0.057, -0.001,  0.045, -0.048,  0.032, 
		 0.044, -0.128,  0.042, -0.094, -0.029,  0.023, -0.050, -0.058, -0.125, -0.159, 
		-0.058, -0.163, -0.064, -0.154, -0.036, -0.124, -0.004, -0.116, -0.201,  0.043, 
		-0.068, -0.116, -0.028, -0.056, -0.013, -0.068, -0.022,  0.028, -0.066, -0.066, 
		 0.012,  0.014, -0.038, -0.020, -0.043, -0.035, -0.017, -0.114,  0.008, -0.160, 
		-0.034,  0.025, -0.046, -0.120, -0.052, -0.090, -0.038, -0.062,  0.022, -0.136, 
		-0.039, -0.065, -0.092, -0.022,  0.021,  0.031, -0.084, -0.036,  0.020, -0.013, 
		-0.010, -0.075, -0.045, -0.074, -0.079, -0.016, -0.054, -0.130, -0.131, -0.055, 
		-0.154, -0.119,  0.036,  0.051, -0.056,  0.011,  0.036,  0.036,  0.022,  0.000, 
		-0.035, -0.093,  0.062,  0.083,  0.054,  0.082, -0.046, -0.027,  0.054, -0.077, 
		-0.139, -0.038,  0.029, -0.065, -0.107, -0.071,  0.048, -0.017, -0.128, -0.025, 
		-0.046, -0.115, -0.123, -0.035, -0.081, -0.046,  0.050, -0.011,  0.001, -0.042, 
		-0.018,  0.076,  0.096,  0.023, -0.171, -0.135,  0.028, -0.152, -0.058, -0.012, 
		-0.051,  0.014, -0.037, -0.082, -0.011, -0.093, -0.125, -0.134, -0.067, -0.146, 
		-0.160, -0.040, -0.107, -0.049,  0.024, -0.023, -0.030, -0.126,  0.041,  0.102, 
		 0.037, -0.059, -0.142, -0.053, -0.042, -0.131, -0.092, -0.001,  0.044, -0.061, 
		-0.036, -0.063,  0.051, -0.020, -0.043, -0.140, -0.047, -0.029, -0.147, -0.157, 
		-0.022, -0.062,  0.036,  0.009,  0.084,  0.044,  0.001,  0.031,  0.087,  0.053, 
		 0.041,  0.099,  0.087, -0.133,  0.005, -0.076, -0.043,  0.066, -0.090,  0.013, 
		-0.070, -0.089, -0.140, -0.124, -0.003, -0.102, -0.015, -0.040, -0.028, -0.042, 
		-0.045, -0.039, -0.029, -0.078,  0.073,  0.012,  0.044,  0.012,  0.046,  0.012, 
		-0.058,  0.021, -0.091,  0.005,  0.040,  0.012, -0.125, -0.012, -0.001,  0.025, 
		-0.062,  0.021, -0.048, -0.153, -0.079, -0.044,  0.034,  0.066,  0.076,  0.062, 
		-0.096, -0.041, -0.078, -0.084,  0.004, -0.022,  0.093,  0.057,  0.063,  0.005, 
		-0.101, -0.042,  0.025, -0.099, -0.111, -0.048, -0.096,  0.046, -0.010,  0.092, 
		 0.017, -0.082, -0.069, -0.080,  0.033,  0.040, -0.006, -0.048, -0.104,  0.023, 
		-0.075, -0.058, -0.034,  0.068,  0.094,  0.091,  0.067,  0.037, -0.090, -0.061, 
		 0.037, -0.058, -0.027, -0.057, -0.025,  0.123,  0.050, -0.047, -0.029,  0.010, 
		-0.121, -0.136, -0.004, -0.019, -0.082,  0.023, -0.080, -0.006,  0.031,  0.010, 
		-0.004,  0.044,  0.249,  0.145,  0.095,  0.034, -0.093,  0.005, -0.090, -0.017, 
		-0.001,  0.026,  0.098,  0.166,  0.164, -0.060, -0.026, -0.079, -0.025, -0.100, 
		-0.091, -0.048,  0.000, -0.058, -0.060, -0.070, -0.088,  0.088,  0.064,  0.022, 
		 0.137,  0.117,  0.145,  0.051, -0.143,  0.013,  0.004,  0.020,  0.089,  0.081, 
		 0.197,  0.125,  0.058, -0.021, -0.041, -0.067, -0.095, -0.083, -0.031, -0.080, 
		-0.061, -0.069, -0.022, -0.098,  0.070,  0.027,  0.126,  0.102,  0.088,  0.150, 
		 0.057, -0.081, -0.154, -0.162, -0.031, -0.037,  0.062,  0.150,  0.054,  0.170, 
		-0.003,  0.072,  0.079, -0.048, -0.001, -0.113, -0.057,  0.051, -0.070, -0.091, 
		-0.014,  0.052,  0.011,  0.083,  0.135,  0.131,  0.091,  0.051,  0.154,  0.074, 
		-0.129, -0.128,  0.026,  0.020,  0.124,  0.108,  0.077,  0.116,  0.013, -0.005, 
		 0.047, -0.085, -0.121, -0.063, -0.071, -0.008, -0.005, -0.050, -0.022, -0.041, 
		 0.057, -0.000,  0.104,  0.086, -0.030, -0.109,  0.207, -0.016, -0.120, -0.206, 
		 0.003,  0.070, -0.023,  0.029,  0.130,  0.029,  0.084,  0.072, -0.070, -0.071, 
		-0.076, -0.089, -0.057, -0.067, -0.033,  0.035,  0.008,  0.030,  0.067,  0.037, 
		-0.038,  0.081, -0.006, -0.095,  0.079, -0.131, -0.199, -0.064,  0.068,  0.086, 
		 0.006,  0.008,  0.021,  0.097,  0.050,  0.040,  0.069, -0.003,  0.079,  0.028, 
		-0.073, -0.048,  0.022,  0.031, -0.090, -0.091, -0.074, -0.075,  0.014, -0.092, 
		-0.078,  0.021,  0.051,  0.051, -0.104, -0.080,  0.038,  0.104,  0.042, -0.023, 
		-0.029,  0.087, -0.029, -0.056,  0.089,  0.092,  0.014, -0.055,  0.018,  0.028, 
		-0.035, -0.078,  0.036, -0.007, -0.048, -0.043, -0.059,  0.039, -0.039,  0.060, 
		-0.008, -0.120, -0.064, -0.059,  0.003,  0.064,  0.036,  0.138,  0.079,  0.077, 
		 0.013,  0.086,  0.021, -0.001,  0.059,  0.113,  0.130,  0.022,  0.115,  0.066, 
		-0.003,  0.035, -0.008, -0.093, -0.073, -0.090, -0.015,  0.061,  0.127, -0.036, 
		-0.103, -0.086,  0.063,  0.078, -0.033,  0.068,  0.009,  0.071,  0.043, -0.060, 
		 0.021,  0.040,  0.080,  0.132,  0.145,  0.131,  0.131,  0.013, -0.006,  0.027, 
		-0.025, -0.051,  0.023,  0.003, -0.165, -0.125,  0.064, -0.097, -0.103, -0.033, 
		 0.100,  0.111, -0.008,  0.120, -0.003,  0.011, -0.016, -0.031,  0.026, -0.052, 
		-0.020, -0.066,  0.020, -0.013,  0.089, -0.012,  0.013, -0.053, -0.086, -0.107, 
		-0.096, -0.097, -0.174, -0.125,  0.074, -0.001, -0.058,  0.059,  0.042,  0.062, 
		 0.051,  0.103, -0.043,  0.112,  0.011, -0.034, -0.030, -0.002, -0.023, -0.010, 
		 0.005,  0.070,  0.113,  0.079,  0.001, -0.036,  0.030,  0.052,  0.002,  0.060, 
		-0.106, -0.123,  0.021,  0.024, -0.027, -0.009, -0.006, -0.004, -0.007, -0.040, 
		 0.034, -0.051,  0.038,  0.085,  0.023, -0.049, -0.018, -0.004,  0.004,  0.037, 
		 0.044, -0.013, -0.088,  0.080, -0.013, -0.029,  0.041,  0.051,  0.022, -0.054, 
		-0.047,  0.013, -0.052,  0.081, -0.039,  0.000, -0.039,  0.044,  0.091,  0.058, 
		 0.029,  0.074,  0.034,  0.039,  0.070,  0.042,  0.029,  0.046, -0.046,  0.054, 
		 0.012, -0.029, -0.125, -0.046,  0.050, -0.010, -0.075, -0.092, -0.021,  0.028, 
		 0.013, -0.041,  0.011, -0.052,  0.010,  0.084,  0.080, -0.013, -0.040,  0.058, 
		-0.052,  0.052,  0.001, -0.011,  0.022,  0.029, -0.010, -0.082, -0.042, -0.069, 
		-0.114, -0.076,  0.009,  0.024, -0.117,  0.017,  0.029, -0.048,  0.071,  0.048, 
		-0.095,  0.009,  0.082,  0.157,  0.076,  0.184,  0.070,  0.123,  0.022, -0.030, 
		 0.022, -0.048,  0.016, -0.048,  0.044,  0.102,  0.090,  0.165, -0.036, -0.006, 
		-0.081, -0.108, -0.011, -0.048}, 

		{ // Unit 9 weights.
		 0.019,  0.025, -0.084,  0.060,  0.047,  0.219,  0.330,  0.305,  0.133,  0.036, 
		 0.137,  0.287,  0.027,  0.031,  0.084,  0.022,  0.225,  0.172,  0.133,  0.057, 
		 0.132,  0.302,  0.327,  0.157,  0.059, -0.026,  0.029,  0.009,  0.040,  0.049, 
		-0.027,  0.045,  0.061,  0.095,  0.122, -0.002,  0.051,  0.092,  0.052, -0.031, 
		-0.010,  0.036,  0.018, -0.081, -0.059, -0.038,  0.092,  0.101, -0.070, -0.016, 
		 0.223,  0.170,  0.055,  0.092,  0.112,  0.015,  0.004, -0.060, -0.051,  0.080, 
		 0.022, -0.084, -0.200, -0.106,  0.123,  0.090, -0.085,  0.029, -0.003, -0.089, 
		-0.074, -0.107,  0.016,  0.078,  0.011,  0.105,  0.027,  0.004, -0.050,  0.005, 
		 0.013,  0.128,  0.083, -0.012,  0.018, -0.013, -0.073,  0.040, -0.058, -0.081, 
		-0.077,  0.106,  0.110, -0.095, -0.054,  0.005, -0.082,  0.014,  0.082, -0.091, 
		 0.035, -0.027, -0.010,  0.016,  0.007,  0.003, -0.087, -0.025,  0.099,  0.029, 
		 0.055,  0.011,  0.030, -0.038,  0.029, -0.042, -0.216, -0.181, -0.072,  0.083, 
		-0.011,  0.030,  0.009,  0.113, -0.113,  0.019,  0.006, -0.016,  0.077, -0.003, 
		-0.103,  0.056,  0.018,  0.040, -0.022, -0.029,  0.010,  0.003,  0.105,  0.114, 
		 0.017, -0.065, -0.002, -0.159, -0.258, -0.132,  0.036,  0.067, -0.037, -0.046, 
		 0.018,  0.066, -0.046,  0.005, -0.099, -0.061,  0.037,  0.039,  0.058, -0.036, 
		-0.030, -0.002, -0.021, -0.055,  0.079,  0.063,  0.062,  0.049,  0.021,  0.006, 
		-0.085, -0.153, -0.272, -0.263, -0.027, -0.056,  0.004, -0.014, -0.029,  0.070, 
		 0.031,  0.075,  0.039, -0.029,  0.043,  0.046, -0.014, -0.096,  0.022,  0.075, 
		-0.086, -0.049, -0.009,  0.048,  0.168,  0.052, -0.112, -0.013, -0.067, -0.225, 
		-0.352, -0.276, -0.020, -0.025, -0.105,  0.025,  0.051,  0.074,  0.080,  0.069, 
		 0.077,  0.102,  0.096, -0.071, -0.000, -0.004,  0.002,  0.044,  0.016, -0.190, 
		-0.045,  0.136,  0.184,  0.050, -0.130, -0.124, -0.132, -0.285, -0.329, -0.156, 
		 0.082, -0.101, -0.141, -0.011,  0.041,  0.114,  0.091, -0.019,  0.132,  0.092, 
		 0.039,  0.005, -0.007, -0.033, -0.087,  0.097, -0.027, -0.124,  0.109,  0.072, 
		 0.026, -0.029, -0.046, -0.108, -0.085, -0.190, -0.223, -0.086, -0.006, -0.013, 
		-0.172, -0.168, -0.112,  0.083,  0.096,  0.047,  0.057,  0.015, -0.006, -0.127, 
		-0.070, -0.104,  0.054,  0.031,  0.060, -0.023, -0.042,  0.084,  0.024, -0.065, 
		-0.012, -0.109, -0.044, -0.219, -0.152, -0.126,  0.010,  0.030, -0.082, -0.117, 
		-0.053, -0.056, -0.025,  0.002,  0.098,  0.085,  0.061, -0.101, -0.190, -0.011, 
		 0.074,  0.086, -0.005, -0.101,  0.097,  0.119, -0.000,  0.020, -0.070, -0.013, 
		-0.149, -0.097, -0.203, -0.045, -0.054, -0.013, -0.089, -0.283, -0.041,  0.039, 
		 0.057,  0.013, -0.014, -0.025,  0.075,  0.035, -0.056, -0.114,  0.105,  0.117, 
		 0.001,  0.046,  0.016,  0.108, -0.036, -0.019, -0.118, -0.121, -0.161, -0.134, 
		-0.189, -0.033, -0.050, -0.047, -0.026, -0.263, -0.016,  0.057,  0.122,  0.051, 
		-0.063, -0.053, -0.013,  0.008, -0.012, -0.054,  0.107,  0.096,  0.108,  0.010, 
		-0.006,  0.050, -0.036, -0.038, -0.009, -0.012, -0.171, -0.235, -0.129, -0.020, 
		 0.026, -0.089, -0.080, -0.195, -0.079,  0.083,  0.020,  0.077, -0.023, -0.008, 
		-0.033, -0.022, -0.036, -0.019,  0.026,  0.102,  0.046,  0.061,  0.003,  0.061, 
		-0.028, -0.051,  0.017, -0.017, -0.026, -0.098, -0.132,  0.029, -0.146, -0.090, 
		-0.108, -0.182, -0.026, -0.036, -0.017, -0.027, -0.123,  0.039,  0.084,  0.026, 
		 0.063,  0.015,  0.043, -0.006,  0.012, -0.066,  0.012, -0.015,  0.002, -0.063, 
		 0.016,  0.064,  0.023,  0.022, -0.040,  0.019, -0.041, -0.124, -0.158, -0.148, 
		 0.074,  0.020, -0.004,  0.029, -0.107,  0.097,  0.009, -0.024, -0.083, -0.115, 
		 0.009,  0.103, -0.042, -0.056,  0.026, -0.017,  0.014,  0.121, -0.060,  0.069, 
		 0.184,  0.091,  0.082, -0.037, -0.137, -0.009, -0.125, -0.070, -0.010,  0.041, 
		 0.086, -0.009, -0.004,  0.007,  0.114,  0.082, -0.074,  0.019,  0.067, -0.017, 
		-0.063, -0.040, -0.046,  0.092,  0.056,  0.128, -0.061,  0.082,  0.171,  0.100, 
		-0.044, -0.004,  0.033, -0.088, -0.085, -0.023,  0.012,  0.064,  0.044, -0.023, 
		-0.112,  0.049, -0.005, -0.065, -0.035, -0.061,  0.073, -0.026,  0.038, -0.086, 
		-0.055,  0.075,  0.120,  0.119, -0.097,  0.001,  0.058,  0.165, -0.071,  0.008, 
		-0.012,  0.021, -0.019, -0.110,  0.011,  0.009,  0.052, -0.054, -0.008,  0.071, 
		 0.103,  0.025,  0.018,  0.053,  0.030,  0.115,  0.061,  0.090,  0.009,  0.021, 
		 0.081, -0.035, -0.066, -0.052,  0.155,  0.034, -0.006,  0.007,  0.037, -0.045, 
		-0.040,  0.032, -0.055,  0.053,  0.081,  0.013, -0.034,  0.062,  0.088, -0.072, 
		-0.012, -0.018,  0.008,  0.050,  0.071, -0.056, -0.022,  0.110,  0.107, -0.159, 
		-0.069,  0.071,  0.029,  0.129,  0.045, -0.079, -0.056, -0.064, -0.022,  0.046, 
		 0.115,  0.033,  0.071,  0.002, -0.016,  0.077, -0.026,  0.019, -0.148, -0.041, 
		-0.060, -0.033,  0.111,  0.088,  0.104,  0.126,  0.105, -0.172, -0.036,  0.087, 
		-0.025,  0.048, -0.077, -0.119, -0.143, -0.112, -0.124,  0.062, -0.001,  0.010, 
		 0.158, -0.038, -0.084,  0.038,  0.077, -0.032, -0.050, -0.057, -0.098, -0.038, 
		-0.033,  0.008,  0.039,  0.143, -0.029,  0.029, -0.060,  0.055,  0.120,  0.001, 
		 0.000, -0.086, -0.152, -0.146, -0.093, -0.004,  0.016,  0.151,  0.008,  0.021, 
		-0.106,  0.057,  0.081,  0.029, -0.147, -0.048, -0.020, -0.118, -0.024, -0.059, 
		 0.050, -0.017, -0.008, -0.049,  0.047,  0.072,  0.088,  0.048, -0.029, -0.024, 
		-0.060, -0.094, -0.018,  0.080,  0.100,  0.140,  0.100,  0.066, -0.023,  0.099, 
		 0.040,  0.049, -0.120, -0.034, -0.081, -0.125, -0.068, -0.079,  0.070, -0.001, 
		 0.019, -0.006,  0.134,  0.140,  0.057, -0.053, -0.055, -0.073, -0.094,  0.006, 
		 0.072, -0.047,  0.082,  0.057,  0.096,  0.096,  0.017,  0.048,  0.016,  0.017, 
		-0.028, -0.086, -0.099, -0.016,  0.009, -0.003,  0.036, -0.049, -0.021,  0.057, 
		 0.070,  0.031,  0.101,  0.064, -0.046, -0.044,  0.046,  0.044, -0.028,  0.048, 
		 0.091,  0.148,  0.156,  0.127, -0.091,  0.063,  0.034,  0.118, -0.036,  0.023, 
		-0.002, -0.017,  0.046, -0.059,  0.013, -0.030, -0.023, -0.011, -0.004,  0.036, 
		 0.003,  0.006, -0.059, -0.011,  0.052,  0.055, -0.035,  0.017,  0.125,  0.118, 
		 0.096,  0.060, -0.073,  0.011,  0.024,  0.097,  0.025, -0.103,  0.092,  0.052, 
		-0.058, -0.031,  0.054,  0.089,  0.042,  0.060, -0.028, -0.049, -0.127, -0.085, 
		-0.074, -0.231, -0.177, -0.139, -0.043,  0.105,  0.109,  0.199,  0.048, -0.082, 
		-0.150, -0.011,  0.072,  0.184,  0.188,  0.086, -0.037, -0.151, -0.211, -0.128, 
		-0.066, -0.062,  0.149,  0.020}, 

		{ // Unit 10 weights.
		-0.016, -0.056, -0.043,  0.054, -0.051, -0.173, -0.075,  0.176,  0.172,  0.201, 
		 0.228,  0.016, -0.099, -0.115, -0.058, -0.131, -0.036,  0.186,  0.182,  0.218, 
		 0.018, -0.190, -0.241, -0.093, -0.033,  0.025, -0.021, -0.022,  0.018,  0.040, 
		-0.081, -0.098, -0.141, -0.022,  0.005,  0.052,  0.087,  0.116,  0.121, -0.045, 
		-0.059,  0.033,  0.075,  0.063, -0.011, -0.032,  0.058,  0.133,  0.116, -0.056, 
		-0.157, -0.141, -0.059, -0.017,  0.037,  0.006,  0.088,  0.032,  0.032, -0.087, 
		-0.045,  0.026,  0.209,  0.227,  0.075,  0.055,  0.102,  0.079, -0.026, -0.025, 
		-0.029,  0.023,  0.001, -0.062,  0.053, -0.047,  0.057,  0.135,  0.111, -0.042, 
		-0.051, -0.117, -0.069, -0.049,  0.015, -0.028,  0.099, -0.045,  0.168,  0.170, 
		 0.184,  0.045, -0.006, -0.004, -0.028, -0.050,  0.025, -0.080, -0.014, -0.027, 
		-0.069, -0.010,  0.070,  0.022,  0.063,  0.136,  0.109,  0.092, -0.078, -0.118, 
		 0.009, -0.021, -0.036,  0.062, -0.082,  0.132,  0.163,  0.110,  0.090,  0.079, 
		-0.036,  0.101, -0.042, -0.067, -0.101, -0.010, -0.152, -0.059, -0.009,  0.023, 
		 0.025,  0.065,  0.023,  0.108,  0.054,  0.080, -0.000, -0.049, -0.040, -0.086, 
		 0.180,  0.069, -0.033,  0.171,  0.182,  0.084,  0.127,  0.103,  0.075, -0.060, 
		-0.058, -0.073,  0.004, -0.027, -0.128, -0.143, -0.035,  0.017,  0.011, -0.076, 
		 0.034,  0.036,  0.037,  0.058, -0.113, -0.210, -0.024, -0.014,  0.033,  0.090, 
		 0.107,  0.067, -0.007,  0.036,  0.124,  0.013,  0.027, -0.012, -0.055, -0.009, 
		 0.024, -0.013, -0.114, -0.013, -0.044,  0.029,  0.060, -0.006, -0.010, -0.096, 
		 0.023,  0.037,  0.059, -0.101, -0.136, -0.067,  0.108,  0.176,  0.073, -0.007, 
		 0.079,  0.129,  0.091,  0.137,  0.039, -0.020, -0.032,  0.025, -0.009, -0.012, 
		-0.060, -0.038, -0.071,  0.044,  0.151,  0.063,  0.036, -0.078, -0.085, -0.076, 
		 0.019, -0.057, -0.015, -0.050,  0.225,  0.074,  0.164,  0.091,  0.127,  0.006, 
		 0.033,  0.044,  0.179,  0.056, -0.020, -0.031,  0.020, -0.066, -0.134, -0.056, 
		-0.041,  0.076,  0.026,  0.071, -0.000,  0.074,  0.023, -0.046, -0.030, -0.072, 
		 0.013,  0.100,  0.200,  0.128,  0.217,  0.162,  0.082,  0.112,  0.073,  0.063, 
		 0.083,  0.103,  0.061, -0.018,  0.010, -0.076, -0.128,  0.016, -0.016,  0.110, 
		 0.044,  0.058,  0.053,  0.032,  0.049,  0.056, -0.039, -0.061,  0.074, -0.060, 
		 0.137,  0.186,  0.168,  0.096,  0.006, -0.005,  0.003,  0.022, -0.014, -0.038, 
		 0.084,  0.100,  0.001,  0.011,  0.010, -0.038, -0.047,  0.010, -0.012, -0.072, 
		-0.080, -0.023, -0.013,  0.002, -0.083,  0.072, -0.052, -0.024,  0.144,  0.277, 
		 0.215,  0.017, -0.053, -0.058,  0.053,  0.007,  0.060, -0.009,  0.028,  0.135, 
		 0.098,  0.019, -0.111,  0.007,  0.008, -0.026,  0.087,  0.034, -0.063,  0.014, 
		 0.062, -0.076,  0.060, -0.063,  0.085, -0.031,  0.219,  0.104,  0.098,  0.060, 
		 0.038, -0.024,  0.046,  0.057,  0.012,  0.118,  0.114,  0.084,  0.086,  0.016, 
		 0.008, -0.031,  0.107,  0.105,  0.018,  0.032, -0.057, -0.056,  0.045,  0.048, 
		 0.035, -0.043,  0.145,  0.192,  0.016,  0.092,  0.050,  0.107,  0.038, -0.010, 
		-0.042,  0.046, -0.007,  0.120,  0.050,  0.048, -0.019,  0.010, -0.074,  0.042, 
		 0.062,  0.102,  0.002, -0.083,  0.018,  0.016,  0.029,  0.007,  0.013, -0.028, 
		 0.070,  0.088,  0.053,  0.126,  0.049,  0.009,  0.012, -0.082, -0.046,  0.068, 
		 0.001, -0.043,  0.112,  0.017,  0.091,  0.020, -0.015,  0.009,  0.071, -0.031, 
		-0.002, -0.069, -0.009,  0.046,  0.009, -0.064,  0.073,  0.086,  0.014,  0.025, 
		-0.029,  0.037,  0.014, -0.034, -0.011,  0.001,  0.025, -0.044, -0.060,  0.117, 
		 0.104,  0.051,  0.001,  0.029, -0.034,  0.094, -0.010, -0.021,  0.020, -0.017, 
		-0.040, -0.019,  0.041, -0.038,  0.027, -0.007,  0.099, -0.035,  0.127,  0.036, 
		 0.034, -0.072, -0.007, -0.104, -0.005, -0.069,  0.088, -0.009, -0.029,  0.028, 
		 0.013, -0.067,  0.059,  0.094,  0.092,  0.066, -0.065, -0.002,  0.029,  0.061, 
		 0.003,  0.058,  0.052, -0.039,  0.003,  0.028,  0.034, -0.031,  0.001,  0.042, 
		-0.018, -0.030,  0.057,  0.030, -0.014, -0.018,  0.070,  0.116,  0.070,  0.061, 
		 0.030,  0.034,  0.075, -0.008, -0.048, -0.007, -0.100, -0.062,  0.082, -0.065, 
		-0.065, -0.091,  0.065,  0.031,  0.118, -0.019,  0.040, -0.053, -0.059, -0.092, 
		 0.037, -0.057,  0.011, -0.044,  0.059, -0.042, -0.059,  0.063,  0.068,  0.019, 
		 0.068,  0.051,  0.077, -0.093,  0.016,  0.079, -0.073, -0.043, -0.037, -0.007, 
		-0.037,  0.113,  0.011,  0.058, -0.034, -0.029,  0.017, -0.161,  0.005, -0.075, 
		-0.056,  0.009,  0.037, -0.062, -0.041,  0.035, -0.033,  0.083, -0.001, -0.008, 
		 0.054,  0.036, -0.109, -0.037,  0.032,  0.007, -0.068, -0.118, -0.008,  0.169, 
		 0.181,  0.085,  0.097,  0.051, -0.072, -0.090,  0.042,  0.019, -0.127, -0.026, 
		-0.027, -0.026, -0.102,  0.029,  0.017, -0.036,  0.123,  0.094,  0.032, -0.037, 
		-0.059,  0.015, -0.111, -0.045, -0.042, -0.054, -0.069,  0.145, -0.012, -0.007, 
		 0.010, -0.039, -0.020, -0.055,  0.026, -0.081,  0.005,  0.012, -0.082, -0.056, 
		-0.032,  0.001, -0.009,  0.048,  0.122,  0.123,  0.066,  0.041, -0.128, -0.000, 
		-0.026, -0.104, -0.028, -0.112, -0.034, -0.002,  0.002,  0.041, -0.035,  0.061, 
		 0.052, -0.033,  0.061, -0.019, -0.031,  0.063, -0.072, -0.039,  0.068, -0.051, 
		 0.086,  0.107,  0.118,  0.112,  0.147, -0.014, -0.139,  0.010,  0.024, -0.082, 
		-0.048, -0.021, -0.135,  0.048, -0.093, -0.089, -0.088,  0.013,  0.005, -0.074, 
		 0.101,  0.001,  0.024, -0.025, -0.079, -0.018, -0.064,  0.086, -0.013, -0.056, 
		 0.017,  0.081,  0.087,  0.043, -0.042, -0.094,  0.061, -0.023, -0.013, -0.045, 
		-0.074,  0.167, -0.067,  0.002, -0.091, -0.081, -0.082, -0.057, -0.017, -0.085, 
		-0.019, -0.059,  0.024, -0.014, -0.052, -0.025, -0.057,  0.030, -0.029, -0.029, 
		 0.055, -0.071,  0.002, -0.033,  0.069, -0.008, -0.035, -0.010, -0.029, -0.018, 
		 0.052, -0.033,  0.038, -0.014, -0.108,  0.002,  0.026, -0.092, -0.025, -0.026, 
		-0.087, -0.031,  0.013,  0.031, -0.065,  0.010,  0.028, -0.029,  0.069,  0.024, 
		-0.091,  0.004,  0.053,  0.022, -0.082, -0.076,  0.035,  0.053, -0.021,  0.016, 
		 0.016, -0.099, -0.078,  0.052,  0.075, -0.014,  0.074,  0.032, -0.039,  0.067, 
		-0.057, -0.037,  0.049, -0.023, -0.009,  0.124,  0.109,  0.041, -0.160,  0.032, 
		 0.079, -0.119, -0.117, -0.126, -0.016,  0.128, -0.059, -0.111, -0.104, -0.042, 
		-0.011, -0.004,  0.037,  0.084,  0.014, -0.088, -0.002,  0.013,  0.088, -0.015, 
		-0.084,  0.001,  0.061,  0.056, -0.034,  0.071,  0.353,  0.174, -0.020, -0.010, 
		-0.033, -0.032, -0.105,  0.039}, 

		{ // Unit 11 weights.
		-0.013,  0.019, -0.065, -0.081, -0.122, -0.166, -0.114, -0.058, -0.135, -0.178, 
		 0.036,  0.126,  0.004,  0.036,  0.061,  0.040,  0.121,  0.181, -0.146, -0.159, 
		-0.172, -0.147, -0.255, -0.144, -0.141,  0.082,  0.000, -0.084, -0.017, -0.006, 
		-0.157, -0.046, -0.180, -0.174, -0.251, -0.100, -0.095,  0.067,  0.081,  0.115, 
		-0.057,  0.066,  0.153,  0.102,  0.156,  0.139,  0.179, -0.034, -0.094, -0.107, 
		-0.067, -0.099, -0.126,  0.018,  0.114, -0.046,  0.064, -0.128, -0.067, -0.078, 
		-0.105, -0.089, -0.113, -0.059, -0.035, -0.017, -0.056, -0.016, -0.082,  0.039, 
		 0.007,  0.018, -0.071, -0.008,  0.011, -0.002, -0.029, -0.036, -0.039, -0.114, 
		-0.005,  0.033,  0.079,  0.048,  0.028,  0.009, -0.074, -0.133, -0.043, -0.015, 
		 0.029, -0.192, -0.166,  0.038,  0.053,  0.057,  0.050,  0.013,  0.031,  0.022, 
		-0.070,  0.041, -0.041, -0.159, -0.166, -0.113,  0.068, -0.007, -0.031,  0.076, 
		 0.117,  0.066,  0.090, -0.066, -0.125, -0.024, -0.004,  0.045, -0.082, -0.001, 
		-0.077,  0.044, -0.027, -0.047,  0.074, -0.002, -0.055,  0.049,  0.054,  0.050, 
		 0.044, -0.066, -0.072, -0.067,  0.001,  0.103,  0.063,  0.076,  0.119,  0.031, 
		 0.073, -0.065, -0.113, -0.047,  0.036,  0.126,  0.027, -0.037,  0.062,  0.031, 
		-0.008,  0.019,  0.105, -0.049, -0.038, -0.033, -0.050, -0.034,  0.083,  0.040, 
		 0.022, -0.006,  0.086,  0.117,  0.092,  0.127,  0.082,  0.127,  0.124, -0.019, 
		-0.091,  0.023,  0.085,  0.096, -0.030,  0.073, -0.001, -0.053, -0.072,  0.050, 
		-0.043,  0.039, -0.006, -0.102, -0.081,  0.038, -0.037, -0.114, -0.007, -0.075, 
		 0.105,  0.080,  0.088,  0.101, -0.008,  0.123,  0.195, -0.048,  0.046, -0.040, 
		 0.156,  0.140,  0.043,  0.062, -0.083,  0.075,  0.094, -0.043,  0.008,  0.019, 
		 0.014,  0.036,  0.063,  0.041, -0.044, -0.045, -0.037,  0.043,  0.026,  0.071, 
		 0.097, -0.002,  0.095,  0.157,  0.111, -0.070, -0.014,  0.017,  0.031,  0.068, 
		-0.011,  0.002,  0.038, -0.048,  0.082,  0.089,  0.067,  0.067, -0.020,  0.004, 
		 0.031, -0.083, -0.034,  0.046,  0.037,  0.061,  0.043,  0.114,  0.049,  0.002, 
		 0.097,  0.162,  0.025, -0.035,  0.025,  0.093,  0.111,  0.044, -0.011,  0.054, 
		-0.072,  0.063, -0.002,  0.105, -0.046, -0.092, -0.064, -0.036,  0.031, -0.061, 
		-0.004, -0.091, -0.067, -0.059,  0.050,  0.128,  0.048, -0.040,  0.031, -0.006, 
		 0.059, -0.107,  0.000,  0.090,  0.138, -0.017,  0.044, -0.068, -0.036,  0.052, 
		-0.051,  0.071, -0.036, -0.007, -0.070, -0.077, -0.044,  0.040, -0.004,  0.048, 
		-0.092, -0.034, -0.027, -0.029,  0.072, -0.054,  0.118,  0.160,  0.072,  0.016, 
		 0.086,  0.077,  0.093,  0.002,  0.094,  0.061, -0.005,  0.023, -0.001, -0.075, 
		-0.110, -0.073, -0.046, -0.034, -0.025, -0.099,  0.036, -0.030, -0.063,  0.054, 
		 0.070,  0.111,  0.056, -0.057, -0.043,  0.089,  0.111,  0.028,  0.059, -0.046, 
		 0.036, -0.034, -0.004,  0.017, -0.046, -0.017,  0.053, -0.047,  0.025, -0.113, 
		-0.084, -0.105, -0.086, -0.027,  0.051, -0.043, -0.026, -0.018,  0.057,  0.048, 
		-0.005, -0.020, -0.059,  0.008,  0.081,  0.023,  0.056,  0.108,  0.066,  0.005, 
		-0.021,  0.056, -0.015,  0.032, -0.019, -0.028, -0.034, -0.006, -0.029, -0.124, 
		 0.046, -0.094, -0.088, -0.041, -0.080,  0.047,  0.028, -0.041,  0.082,  0.004, 
		 0.093,  0.152,  0.158,  0.071,  0.021, -0.009, -0.011,  0.050, -0.038, -0.016, 
		 0.075, -0.016,  0.026, -0.042,  0.083, -0.040, -0.049,  0.003, -0.080,  0.074, 
		 0.002,  0.034, -0.022, -0.079,  0.037,  0.003, -0.031, -0.021,  0.010,  0.049, 
		 0.056, -0.076,  0.033,  0.071,  0.096,  0.033, -0.051,  0.079,  0.054,  0.043, 
		 0.082, -0.045,  0.043, -0.049, -0.064, -0.014, -0.052,  0.056, -0.053, -0.035, 
		 0.007,  0.050,  0.059, -0.008,  0.027,  0.039,  0.053,  0.018,  0.072, -0.060, 
		-0.068,  0.016,  0.064,  0.079, -0.027,  0.102,  0.038, -0.011, -0.046, -0.028, 
		 0.057, -0.018, -0.066, -0.025,  0.061, -0.050,  0.038,  0.042,  0.045, -0.081, 
		 0.036, -0.015, -0.052, -0.057, -0.071,  0.000,  0.134, -0.025, -0.109,  0.008, 
		-0.026,  0.084,  0.046,  0.058,  0.045,  0.007,  0.037,  0.059,  0.003,  0.029, 
		-0.005, -0.074,  0.013,  0.034,  0.063, -0.080, -0.013,  0.011,  0.056, -0.037, 
		 0.027, -0.049, -0.043,  0.075,  0.095, -0.067, -0.094, -0.132, -0.058,  0.093, 
		 0.055,  0.036,  0.083,  0.093,  0.029,  0.085,  0.020, -0.060, -0.040, -0.008, 
		-0.039, -0.075,  0.051,  0.039, -0.044, -0.010,  0.063,  0.047, -0.038, -0.108, 
		 0.027, -0.009, -0.033, -0.080, -0.093, -0.006, -0.043,  0.057, -0.027, -0.008, 
		 0.134, -0.021,  0.003,  0.008,  0.018,  0.007,  0.073, -0.071,  0.085, -0.008, 
		-0.033, -0.062,  0.037,  0.005,  0.020,  0.086, -0.067, -0.092, -0.099, -0.066, 
		-0.099, -0.161, -0.139, -0.033,  0.074,  0.142,  0.050,  0.045, -0.002, -0.039, 
		 0.026,  0.078, -0.051,  0.024,  0.101, -0.075, -0.040, -0.054, -0.042,  0.049, 
		 0.032, -0.014,  0.090,  0.088, -0.118, -0.051, -0.016, -0.013,  0.017, -0.001, 
		-0.135, -0.027,  0.046,  0.129,  0.005,  0.018, -0.017, -0.043, -0.025,  0.065, 
		 0.076, -0.023, -0.038, -0.006, -0.020, -0.049,  0.016,  0.057,  0.054, -0.001, 
		-0.025,  0.065, -0.003, -0.065,  0.002, -0.013, -0.050, -0.107, -0.089,  0.005, 
		-0.017,  0.075,  0.093,  0.069,  0.018,  0.024, -0.019,  0.059, -0.003, -0.064, 
		-0.073, -0.029,  0.012,  0.048, -0.075, -0.049, -0.013, -0.005,  0.117,  0.088, 
		 0.052, -0.025, -0.023, -0.010,  0.023, -0.094, -0.059,  0.046,  0.132,  0.012, 
		 0.113,  0.020,  0.040,  0.013,  0.012, -0.078,  0.030, -0.013,  0.042,  0.036, 
		-0.053,  0.016, -0.023,  0.018, -0.146,  0.023, -0.019,  0.092,  0.105, -0.107, 
		-0.018, -0.064, -0.086, -0.038, -0.024, -0.047,  0.008,  0.081, -0.004, -0.002, 
		-0.090,  0.058, -0.060, -0.088, -0.066, -0.020, -0.030, -0.087, -0.056,  0.011, 
		-0.078,  0.006, -0.096,  0.070,  0.103,  0.078,  0.115, -0.138, -0.133, -0.036, 
		-0.044, -0.040, -0.065,  0.063,  0.070,  0.014,  0.136,  0.073,  0.024, -0.075, 
		-0.023, -0.115, -0.013, -0.119, -0.118,  0.007, -0.033, -0.014,  0.002, -0.045, 
		 0.007,  0.151,  0.056,  0.026,  0.027, -0.074, -0.170, -0.144, -0.052, -0.085, 
		-0.132, -0.123, -0.036,  0.086,  0.035,  0.132,  0.122, -0.029, -0.123, -0.056, 
		-0.121, -0.145, -0.123, -0.083, -0.092, -0.133, -0.066,  0.050,  0.108,  0.011, 
		 0.056,  0.153,  0.030, -0.133, -0.129, -0.165,  0.036, -0.081,  0.033,  0.068, 
		 0.099,  0.116,  0.130,  0.071,  0.203,  0.029, -0.072, -0.188, -0.232, -0.211, 
		-0.258, -0.185, -0.173, -0.095, -0.108,  0.081,  0.134,  0.069,  0.154,  0.222, 
		 0.103,  0.035,  0.081, -0.022}, 

		{ // Unit 12 weights.
		-0.005,  0.043,  0.035, -0.061, -0.097, -0.126, -0.117, -0.231, -0.133, -0.040, 
		-0.085,  0.121, -0.003, -0.148, -0.076, -0.075,  0.137,  0.138, -0.039, -0.209, 
		-0.112, -0.080, -0.099, -0.141, -0.144, -0.073, -0.017,  0.053, -0.005,  0.003, 
		-0.015, -0.011, -0.195, -0.177, -0.153, -0.214, -0.084,  0.014,  0.062,  0.073, 
		 0.049,  0.107,  0.198,  0.166,  0.162,  0.142,  0.170, -0.020, -0.115, -0.052, 
		-0.090, -0.052, -0.050, -0.046, -0.097, -0.047,  0.063, -0.010,  0.043, -0.124, 
		-0.054, -0.053,  0.035,  0.052, -0.036,  0.016,  0.025, -0.066, -0.073,  0.096, 
		 0.080, -0.032, -0.007,  0.046, -0.032,  0.031,  0.102,  0.099,  0.064,  0.024, 
		-0.016, -0.096, -0.030,  0.001, -0.012,  0.002,  0.013, -0.153, -0.016,  0.049, 
		-0.012, -0.012, -0.013,  0.032, -0.018,  0.044,  0.010, -0.033, -0.113, -0.012, 
		-0.013,  0.059, -0.045, -0.096, -0.071, -0.051,  0.022,  0.050, -0.011, -0.106, 
		 0.018,  0.012,  0.001, -0.141, -0.057,  0.102,  0.017,  0.035,  0.004, -0.123, 
		 0.040,  0.004,  0.019,  0.011, -0.114,  0.012, -0.047,  0.037, -0.020, -0.061, 
		 0.067,  0.022,  0.021, -0.064,  0.143,  0.102,  0.031, -0.097, -0.112, -0.041, 
		-0.055, -0.163, -0.080,  0.062,  0.092,  0.100,  0.030, -0.038,  0.014,  0.040, 
		 0.061, -0.011,  0.063, -0.107, -0.074,  0.044, -0.019,  0.025, -0.021,  0.054, 
		 0.036,  0.050,  0.053,  0.102,  0.186, -0.046, -0.119, -0.036, -0.048, -0.150, 
		 0.135,  0.028,  0.092,  0.035,  0.042,  0.028,  0.051, -0.067,  0.095, -0.047, 
		-0.047, -0.098, -0.084,  0.047,  0.065,  0.029,  0.000, -0.030, -0.004,  0.089, 
		 0.111,  0.182,  0.086,  0.072,  0.035, -0.125, -0.024,  0.045,  0.130,  0.160, 
		 0.080,  0.105,  0.130, -0.040,  0.024,  0.040, -0.053,  0.001, -0.047,  0.037, 
		 0.016,  0.037,  0.043, -0.003,  0.062, -0.019,  0.001,  0.060,  0.079,  0.038, 
		 0.127,  0.103, -0.102,  0.024,  0.031, -0.030,  0.034,  0.085,  0.189,  0.145, 
		 0.045, -0.041, -0.010,  0.070,  0.004, -0.008, -0.058, -0.022, -0.080,  0.001, 
		-0.052, -0.015, -0.001,  0.039,  0.002,  0.045,  0.004,  0.151,  0.125,  0.068, 
		-0.096, -0.108,  0.012, -0.055,  0.081,  0.088,  0.135,  0.099,  0.014, -0.082, 
		 0.073,  0.025,  0.022,  0.011,  0.051,  0.036, -0.018, -0.027,  0.002, -0.041, 
		 0.054,  0.017, -0.075,  0.010,  0.144, -0.002,  0.074, -0.010, -0.032, -0.111, 
		-0.040,  0.032, -0.060, -0.065,  0.060,  0.161,  0.090, -0.097,  0.066,  0.020, 
		-0.032, -0.034, -0.025, -0.038,  0.009, -0.004, -0.054,  0.061, -0.037, -0.036, 
		-0.150, -0.039,  0.076,  0.002,  0.012, -0.154, -0.115, -0.096,  0.041, -0.092, 
		 0.088,  0.017,  0.111, -0.026, -0.036, -0.085, -0.083,  0.090,  0.070, -0.044, 
		 0.011,  0.009, -0.011,  0.021, -0.097, -0.107, -0.072, -0.040, -0.113,  0.006, 
		 0.035,  0.023, -0.015, -0.111, -0.155, -0.138, -0.034,  0.014,  0.102,  0.075, 
		 0.013,  0.072, -0.041, -0.054,  0.004,  0.030,  0.046, -0.071,  0.041, -0.082, 
		-0.029, -0.126, -0.112, -0.074,  0.000,  0.016, -0.135, -0.069,  0.090,  0.073, 
		-0.063,  0.003, -0.090,  0.021, -0.106,  0.094,  0.061,  0.042,  0.002,  0.034, 
		 0.023, -0.123, -0.039, -0.039, -0.033,  0.036, -0.057, -0.054,  0.008, -0.097, 
		-0.083, -0.047,  0.015, -0.041, -0.095, -0.007, -0.022,  0.041,  0.041,  0.005, 
		 0.061,  0.057,  0.043,  0.026,  0.152,  0.084, -0.018,  0.020, -0.070, -0.125, 
		-0.051,  0.013, -0.056,  0.022,  0.025,  0.006,  0.004, -0.144, -0.098, -0.085, 
		-0.103,  0.027, -0.122, -0.028, -0.081, -0.008, -0.071, -0.035,  0.004,  0.130, 
		-0.039, -0.003,  0.063,  0.007, -0.045,  0.043, -0.057, -0.174,  0.020,  0.043, 
		-0.018,  0.063, -0.062, -0.004,  0.070, -0.100, -0.028,  0.038, -0.036, -0.032, 
		-0.045, -0.008, -0.067,  0.070, -0.002,  0.023,  0.058, -0.046,  0.096,  0.001, 
		 0.003,  0.023,  0.051, -0.061,  0.029, -0.024, -0.078, -0.001, -0.074, -0.089, 
		-0.063,  0.010,  0.065, -0.007, -0.078, -0.009, -0.041, -0.122, -0.025, -0.098, 
		-0.014,  0.034,  0.008,  0.021,  0.142, -0.004, -0.018,  0.013, -0.058,  0.040, 
		-0.001,  0.058, -0.054, -0.120,  0.005,  0.060, -0.046,  0.026,  0.010, -0.016, 
		 0.008, -0.048, -0.047, -0.103, -0.039, -0.076, -0.067, -0.071, -0.085, -0.038, 
		-0.039,  0.024,  0.019,  0.069, -0.003,  0.047, -0.082, -0.017, -0.080,  0.103, 
		-0.108, -0.117, -0.039, -0.046, -0.037,  0.008, -0.111, -0.012,  0.014, -0.044, 
		-0.101, -0.025, -0.038, -0.129, -0.082, -0.157, -0.052,  0.050, -0.116, -0.074, 
		 0.093, -0.059, -0.040,  0.024, -0.159, -0.084,  0.005,  0.064,  0.025, -0.043, 
		 0.003,  0.037, -0.012, -0.007, -0.095,  0.036,  0.070,  0.024, -0.110,  0.037, 
		 0.017, -0.032, -0.064, -0.160, -0.008,  0.009, -0.106, -0.029,  0.041, -0.086, 
		-0.049, -0.057, -0.014, -0.092,  0.030,  0.001,  0.022, -0.073,  0.054,  0.040, 
		-0.052,  0.017,  0.028,  0.044, -0.020, -0.045, -0.052, -0.086, -0.032, -0.112, 
		 0.017, -0.022, -0.013, -0.007, -0.022, -0.006, -0.013, -0.003, -0.123, -0.048, 
		 0.029,  0.023, -0.055,  0.072, -0.080, -0.023,  0.088,  0.077,  0.101, -0.007, 
		-0.025, -0.018,  0.015, -0.060, -0.076, -0.108,  0.007, -0.037, -0.052, -0.071, 
		-0.053, -0.014,  0.013,  0.068,  0.084,  0.031, -0.115,  0.063,  0.041, -0.031, 
		 0.086,  0.011, -0.072, -0.148,  0.090,  0.023,  0.088, -0.013, -0.058,  0.103, 
		 0.014,  0.058, -0.104, -0.021, -0.014, -0.095, -0.043, -0.103, -0.053,  0.119, 
		 0.013, -0.015,  0.106, -0.029, -0.042,  0.037, -0.019,  0.021, -0.004, -0.111, 
		-0.086, -0.022,  0.059,  0.086, -0.004,  0.007, -0.031,  0.100, -0.008, -0.047, 
		 0.048,  0.010,  0.007,  0.037, -0.111, -0.013, -0.112, -0.050,  0.037,  0.047, 
		 0.041,  0.017, -0.005, -0.017, -0.005,  0.096,  0.036, -0.067, -0.040, -0.111, 
		 0.060,  0.069,  0.134,  0.052, -0.011,  0.042,  0.079, -0.017,  0.067, -0.026, 
		-0.052,  0.051,  0.002, -0.123, -0.047, -0.021,  0.052, -0.024,  0.060,  0.125, 
		 0.064,  0.056, -0.028, -0.003, -0.003, -0.094, -0.015, -0.114,  0.012,  0.045, 
		-0.011,  0.113,  0.055,  0.076,  0.112, -0.021,  0.013,  0.021,  0.106,  0.075, 
		 0.054, -0.141, -0.074,  0.099,  0.019,  0.006,  0.042,  0.097,  0.059,  0.068, 
		-0.081, -0.013, -0.032,  0.092, -0.002,  0.080,  0.183,  0.039,  0.057,  0.008, 
		 0.045,  0.064, -0.026, -0.054,  0.001,  0.010, -0.009,  0.061,  0.151,  0.040, 
		-0.077,  0.024, -0.003,  0.028, -0.016,  0.062,  0.063,  0.037, -0.012,  0.024, 
		-0.023,  0.099, -0.039,  0.016,  0.205,  0.123, -0.046, -0.142, -0.131, -0.061, 
		 0.005,  0.010, -0.077,  0.010,  0.091,  0.094,  0.213,  0.076,  0.036,  0.021, 
		 0.097,  0.065, -0.008,  0.059}, 

		{ // Unit 13 weights.
		-0.004,  0.001, -0.050,  0.050,  0.006, -0.024, -0.070, -0.021,  0.006, -0.007, 
		-0.023, -0.027, -0.095, -0.158, -0.261, -0.138, -0.104,  0.002, -0.092, -0.008, 
		-0.088,  0.006, -0.097, -0.011, -0.015,  0.040,  0.035, -0.008, -0.036, -0.003, 
		 0.024,  0.003, -0.069, -0.141, -0.017,  0.016, -0.066, -0.075, -0.103,  0.025, 
		 0.001, -0.144, -0.156, -0.094, -0.135, -0.047, -0.052,  0.014, -0.076, -0.001, 
		-0.032,  0.021, -0.103, -0.019, -0.095, -0.076, -0.008,  0.030,  0.021,  0.047, 
		-0.092,  0.008, -0.084, -0.021,  0.025, -0.095,  0.008, -0.032, -0.107, -0.110, 
		-0.001, -0.155, -0.138, -0.028, -0.011, -0.113, -0.039,  0.018, -0.125, -0.107, 
		-0.117, -0.080, -0.090, -0.061, -0.110, -0.114, -0.114,  0.023, -0.141, -0.126, 
		-0.048, -0.002,  0.063,  0.028, -0.063, -0.042, -0.060, -0.036, -0.113, -0.089, 
		-0.142, -0.020,  0.019, -0.027, -0.045, -0.022, -0.006, -0.036, -0.059, -0.041, 
		 0.001,  0.033, -0.066, -0.044, -0.160,  0.019, -0.061, -0.004, -0.095, -0.065, 
		 0.019,  0.008,  0.024, -0.041, -0.131, -0.146, -0.020,  0.007, -0.017,  0.039, 
		 0.112, -0.004,  0.015, -0.077, -0.144, -0.072, -0.152, -0.137, -0.039, -0.143, 
		-0.014, -0.019, -0.038, -0.005, -0.032,  0.016, -0.044, -0.076, -0.044, -0.114, 
		-0.099, -0.115, -0.210, -0.099, -0.041,  0.015, -0.026,  0.140,  0.217,  0.112, 
		 0.036, -0.057, -0.093, -0.164, -0.228, -0.177,  0.004, -0.080, -0.064, -0.073, 
		-0.018, -0.150, -0.043, -0.101, -0.018, -0.004, -0.066, -0.039, -0.226, -0.193, 
		-0.150, -0.231, -0.150, -0.169,  0.012,  0.080,  0.161,  0.250,  0.049, -0.035, 
		-0.026, -0.192,  0.027, -0.112, -0.053, -0.059, -0.060, -0.157,  0.006, -0.063, 
		-0.016, -0.033, -0.101, -0.122, -0.203, -0.160, -0.147, -0.223, -0.303, -0.216, 
		-0.237, -0.061,  0.037,  0.040,  0.217,  0.166,  0.029, -0.149, -0.008, -0.122, 
		-0.001, -0.137, -0.094, -0.173, -0.151, -0.071, -0.111, -0.077, -0.176, -0.179, 
		-0.064, -0.141, -0.141, -0.214, -0.252, -0.257, -0.155, -0.226, -0.062, -0.076, 
		-0.015,  0.025,  0.009,  0.049,  0.091,  0.012, -0.035, -0.082,  0.039, -0.047, 
		-0.029,  0.054, -0.154, -0.084, -0.210, -0.157, -0.227, -0.109, -0.154, -0.295, 
		-0.346, -0.356, -0.320, -0.040, -0.141, -0.018, -0.036,  0.014,  0.029,  0.130, 
		 0.126, -0.034, -0.102,  0.010,  0.036, -0.049,  0.052,  0.033,  0.064,  0.029, 
		-0.118, -0.147, -0.194, -0.179, -0.179, -0.325, -0.324, -0.282, -0.177, -0.237, 
		-0.139,  0.042,  0.001, -0.020,  0.054,  0.023,  0.113,  0.109,  0.039, -0.018, 
		-0.031, -0.067,  0.006, -0.014, -0.083,  0.015,  0.059, -0.104, -0.095, -0.102, 
		-0.097, -0.142, -0.236, -0.361, -0.343, -0.259, -0.015, -0.032,  0.178,  0.214, 
		 0.045, -0.021, -0.019, -0.001,  0.060,  0.118,  0.099, -0.054, -0.075, -0.110, 
		-0.008, -0.050,  0.095,  0.097,  0.157,  0.033, -0.119, -0.026, -0.073, -0.097, 
		-0.190, -0.203, -0.171, -0.163,  0.099,  0.194,  0.056,  0.066,  0.069,  0.072, 
		-0.047,  0.069,  0.103, -0.014, -0.002,  0.022,  0.028,  0.048,  0.015,  0.014, 
		-0.033,  0.029,  0.120,  0.082, -0.213,  0.030,  0.095,  0.095, -0.037, -0.163, 
		-0.147,  0.040,  0.055,  0.040, -0.050,  0.066, -0.005,  0.014,  0.007,  0.048, 
		 0.006, -0.043,  0.027, -0.005,  0.029, -0.010,  0.051, -0.008,  0.080,  0.106, 
		 0.088,  0.052, -0.087,  0.018,  0.068,  0.061, -0.039, -0.083, -0.037,  0.008, 
		 0.069,  0.058,  0.052,  0.056,  0.002, -0.010,  0.084,  0.020,  0.001,  0.009, 
		 0.036,  0.053,  0.050, -0.007, -0.066,  0.110, -0.007,  0.149,  0.051, -0.091, 
		 0.102,  0.005,  0.062,  0.049, -0.010, -0.027,  0.026, -0.046,  0.027,  0.054, 
		 0.040,  0.076,  0.057, -0.063,  0.040,  0.109,  0.071,  0.086,  0.086,  0.015, 
		 0.000,  0.094,  0.042,  0.120,  0.128,  0.077,  0.031, -0.060,  0.095, -0.008, 
		 0.033,  0.048, -0.059, -0.096, -0.003, -0.082,  0.016,  0.029,  0.071,  0.087, 
		 0.060, -0.050,  0.058, -0.027,  0.032,  0.018,  0.025,  0.010,  0.019,  0.033, 
		 0.019,  0.037,  0.011,  0.034,  0.102,  0.007,  0.178,  0.072, -0.028,  0.023, 
		-0.075, -0.024,  0.026, -0.037,  0.008, -0.021, -0.031, -0.014,  0.025,  0.057, 
		 0.052,  0.093,  0.094,  0.014,  0.019,  0.036,  0.080,  0.006,  0.005,  0.030, 
		-0.003,  0.049, -0.057, -0.049,  0.143,  0.063, -0.049,  0.015, -0.090,  0.072, 
		-0.073,  0.043,  0.041,  0.035, -0.067, -0.058, -0.002, -0.004, -0.017, -0.037, 
		 0.018, -0.070, -0.016, -0.066,  0.073,  0.000,  0.009, -0.088,  0.062,  0.018, 
		 0.008,  0.088, -0.023,  0.024, -0.024, -0.041, -0.046, -0.015, -0.020, -0.039, 
		-0.012, -0.049, -0.137, -0.004,  0.011, -0.025,  0.049,  0.005,  0.092,  0.003, 
		-0.012,  0.021, -0.049,  0.029,  0.011,  0.027, -0.001, -0.065,  0.070,  0.265, 
		 0.016,  0.020,  0.031, -0.035,  0.050,  0.047,  0.003, -0.010,  0.003, -0.033, 
		 0.009, -0.108,  0.023, -0.019, -0.061,  0.085,  0.098,  0.222,  0.125,  0.022, 
		 0.032,  0.029,  0.011, -0.048, -0.020, -0.130, -0.036,  0.069,  0.132, -0.010, 
		 0.112,  0.080, -0.036, -0.044, -0.010, -0.020, -0.138, -0.069, -0.022, -0.155, 
		-0.107, -0.063, -0.012,  0.134,  0.177,  0.103,  0.158,  0.136, -0.124, -0.057, 
		-0.027, -0.035, -0.100,  0.011, -0.031,  0.080, -0.112, -0.026, -0.004, -0.046, 
		 0.061, -0.052, -0.010, -0.048,  0.008, -0.081, -0.057, -0.010, -0.005, -0.022, 
		 0.045,  0.102,  0.137,  0.130,  0.164,  0.098, -0.029, -0.011, -0.035, -0.055, 
		-0.052, -0.156, -0.104,  0.023, -0.057, -0.067, -0.013, -0.020, -0.092,  0.065, 
		 0.037, -0.065,  0.009, -0.020, -0.017,  0.026, -0.089,  0.063,  0.114,  0.071, 
		 0.139,  0.129,  0.050,  0.076, -0.071, -0.091, -0.067, -0.099, -0.137, -0.149, 
		-0.133,  0.072, -0.016, -0.168, -0.084, -0.110, -0.100, -0.095, -0.061, -0.025, 
		-0.153, -0.125, -0.050, -0.091, -0.044, -0.008, -0.151, -0.052, -0.064, -0.087, 
		 0.053, -0.049, -0.073, -0.097, -0.054, -0.112, -0.018, -0.104, -0.053, -0.007, 
		-0.121, -0.106, -0.077, -0.095,  0.027, -0.029, -0.095, -0.086, -0.187, -0.206, 
		-0.085, -0.126, -0.054, -0.148, -0.115, -0.057, -0.172, -0.170, -0.087, -0.000, 
		-0.117, -0.119, -0.187, -0.091, -0.030, -0.145, -0.088, -0.064, -0.123, -0.024, 
		-0.176, -0.122, -0.091, -0.015, -0.091, -0.086, -0.071, -0.064, -0.088, -0.153, 
		-0.215, -0.047, -0.061, -0.012, -0.039, -0.095, -0.151, -0.032, -0.070, -0.116, 
		-0.083, -0.049, -0.077, -0.035, -0.087, -0.113, -0.036, -0.049, -0.089, -0.024, 
		-0.108, -0.153, -0.132, -0.137, -0.134, -0.094, -0.089, -0.116, -0.039, -0.112, 
		-0.118, -0.050, -0.005,  0.016, -0.061, -0.064, -0.048, -0.147, -0.013, -0.126, 
		-0.012, -0.114, -0.045, -0.039}, 

		{ // Unit 14 weights.
		-0.077, -0.069,  0.079, -0.004, -0.029, -0.080,  0.034, -0.032, -0.019,  0.007, 
		 0.078, -0.046, -0.096,  0.013,  0.039, -0.076, -0.052, -0.042, -0.022,  0.090, 
		 0.007,  0.048,  0.047, -0.030,  0.078,  0.032,  0.014, -0.023,  0.013, -0.051, 
		 0.062, -0.038, -0.034,  0.044,  0.102,  0.137,  0.069, -0.051,  0.022, -0.007, 
		 0.002, -0.006,  0.034, -0.079,  0.045,  0.050, -0.048, -0.039,  0.026, -0.031, 
		 0.004, -0.014,  0.014, -0.020,  0.078, -0.071, -0.011,  0.087,  0.020,  0.076, 
		 0.044,  0.088,  0.039,  0.070, -0.021,  0.003, -0.004, -0.102, -0.016,  0.050, 
		-0.039, -0.077,  0.020, -0.081,  0.038, -0.054,  0.018,  0.043,  0.076,  0.066, 
		 0.058, -0.049,  0.010, -0.055, -0.077,  0.066, -0.058, -0.004,  0.127,  0.117, 
		 0.058, -0.020, -0.042, -0.010, -0.076, -0.094, -0.052, -0.077, -0.081, -0.128, 
		-0.085, -0.021, -0.009, -0.066, -0.083, -0.006,  0.121,  0.116,  0.016, -0.046, 
		 0.057,  0.073,  0.058,  0.049, -0.038, -0.047,  0.068, -0.037,  0.059,  0.075, 
		-0.065,  0.039, -0.023, -0.011, -0.047, -0.096, -0.073, -0.065, -0.096, -0.001, 
		-0.047, -0.072, -0.008, -0.074, -0.075,  0.104, -0.014,  0.063,  0.029,  0.020, 
		 0.046,  0.005,  0.011,  0.004,  0.011, -0.008,  0.080,  0.003, -0.074,  0.015, 
		 0.030, -0.040, -0.106, -0.081,  0.027, -0.031, -0.113, -0.076, -0.117,  0.011, 
		-0.055, -0.039, -0.054,  0.032, -0.057,  0.004,  0.046,  0.004,  0.072, -0.059, 
		-0.055,  0.128,  0.045,  0.038, -0.051, -0.012, -0.021,  0.052, -0.030, -0.001, 
		-0.043, -0.048, -0.013,  0.005, -0.030,  0.040, -0.059, -0.005, -0.062, -0.060, 
		-0.095, -0.046,  0.041, -0.005,  0.026, -0.033, -0.033, -0.008,  0.104,  0.118, 
		 0.016, -0.001, -0.073,  0.085,  0.028, -0.010,  0.072,  0.016,  0.001,  0.005, 
		 0.064, -0.068, -0.038, -0.058,  0.013,  0.081, -0.021,  0.006,  0.021, -0.051, 
		-0.054, -0.065,  0.015, -0.038, -0.039,  0.102,  0.040,  0.023, -0.005,  0.042, 
		-0.067,  0.070,  0.033,  0.024,  0.026,  0.004,  0.087,  0.051,  0.047,  0.011, 
		-0.027, -0.045,  0.031, -0.052, -0.113, -0.052, -0.066, -0.048,  0.054,  0.038, 
		-0.055, -0.024, -0.053,  0.029,  0.008,  0.017,  0.012,  0.060,  0.022,  0.081, 
		-0.021, -0.001,  0.058,  0.056, -0.032,  0.105,  0.067,  0.083,  0.054, -0.024, 
		-0.046, -0.082, -0.081, -0.065,  0.036, -0.064,  0.013, -0.040,  0.023, -0.015, 
		 0.068,  0.099, -0.023,  0.017, -0.068, -0.064, -0.078, -0.068,  0.070,  0.035, 
		 0.011,  0.106,  0.087,  0.060,  0.058, -0.027,  0.061,  0.087,  0.098, -0.064, 
		 0.066, -0.009,  0.022, -0.104,  0.010, -0.066, -0.069,  0.090, -0.010,  0.086, 
		-0.055,  0.134, -0.013, -0.021, -0.048,  0.023,  0.079, -0.035,  0.037, -0.067, 
		 0.043,  0.101, -0.057, -0.029,  0.046,  0.056, -0.031, -0.089, -0.070, -0.026, 
		-0.043,  0.041, -0.104,  0.022,  0.036,  0.082, -0.021, -0.030, -0.027,  0.088, 
		-0.054,  0.043, -0.041, -0.016, -0.109,  0.066, -0.000,  0.012,  0.007,  0.094, 
		 0.030,  0.084,  0.033,  0.054, -0.125, -0.011, -0.102, -0.105, -0.057,  0.029, 
		-0.048, -0.040, -0.014, -0.022,  0.004,  0.047,  0.027, -0.024, -0.096, -0.054, 
		-0.076, -0.060, -0.064,  0.041,  0.001, -0.046, -0.012,  0.127, -0.031,  0.106, 
		 0.006, -0.115, -0.068, -0.072, -0.070, -0.072, -0.083,  0.006, -0.098,  0.030, 
		-0.019, -0.013,  0.109, -0.061,  0.058, -0.064,  0.009, -0.113,  0.019, -0.031, 
		-0.051, -0.044, -0.049,  0.035,  0.063,  0.084,  0.037, -0.037, -0.017, -0.116, 
		-0.026,  0.012, -0.086,  0.026, -0.097, -0.114, -0.092, -0.012, -0.014,  0.003, 
		 0.023, -0.021, -0.087, -0.085, -0.029, -0.014,  0.031, -0.093, -0.087,  0.013, 
		-0.110, -0.083,  0.038, -0.096, -0.046, -0.113, -0.057, -0.053, -0.028, -0.125, 
		-0.040, -0.007, -0.029, -0.025,  0.042, -0.066, -0.085,  0.009, -0.011,  0.106, 
		 0.038, -0.013, -0.091, -0.040, -0.006, -0.006, -0.035,  0.064, -0.061, -0.090, 
		-0.038,  0.016, -0.003, -0.077, -0.071, -0.042, -0.091, -0.060,  0.020, -0.029, 
		 0.076,  0.011, -0.062,  0.060, -0.050,  0.017, -0.045, -0.022,  0.027, -0.063, 
		-0.021, -0.012,  0.009, -0.067,  0.018,  0.044, -0.081,  0.052, -0.019, -0.119, 
		-0.097, -0.090, -0.009, -0.065, -0.096,  0.034, -0.068,  0.041,  0.030,  0.076, 
		-0.031,  0.066, -0.064,  0.052, -0.002,  0.026, -0.010,  0.011,  0.003, -0.008, 
		 0.003, -0.035, -0.008, -0.068, -0.034, -0.094, -0.036, -0.053, -0.064, -0.084, 
		-0.091, -0.060, -0.083, -0.057,  0.021,  0.021,  0.024, -0.030, -0.067, -0.050, 
		-0.067, -0.017, -0.014,  0.026, -0.045, -0.101, -0.011, -0.027, -0.090,  0.054, 
		-0.066, -0.032,  0.009, -0.109, -0.059, -0.113, -0.008,  0.018, -0.065, -0.126, 
		 0.006,  0.001, -0.027, -0.036, -0.032, -0.063,  0.014,  0.016,  0.065,  0.036, 
		 0.117,  0.115,  0.023, -0.051, -0.053, -0.070,  0.016, -0.054,  0.037,  0.020, 
		 0.007, -0.030, -0.119, -0.005, -0.061,  0.001, -0.047, -0.094,  0.056,  0.047, 
		-0.076, -0.037,  0.014,  0.061,  0.027,  0.068,  0.023, -0.024, -0.011,  0.018, 
		 0.040,  0.039, -0.025,  0.035,  0.083, -0.024, -0.012, -0.080,  0.024, -0.031, 
		-0.049,  0.034,  0.030, -0.002, -0.027, -0.003, -0.069,  0.060, -0.049, -0.020, 
		 0.017,  0.045, -0.078,  0.040, -0.005,  0.004,  0.026,  0.038, -0.031, -0.007, 
		 0.050,  0.014, -0.028, -0.084,  0.075, -0.081, -0.029, -0.066,  0.011, -0.006, 
		-0.067, -0.103, -0.037, -0.022, -0.057, -0.048, -0.063, -0.064,  0.059,  0.089, 
		 0.005, -0.072,  0.005,  0.002, -0.018,  0.064,  0.002,  0.028, -0.078,  0.028, 
		-0.001,  0.027,  0.083, -0.066, -0.109, -0.040,  0.041, -0.034,  0.030,  0.036, 
		 0.018, -0.090,  0.003, -0.083,  0.004, -0.029,  0.063,  0.046, -0.065,  0.050, 
		-0.021, -0.053, -0.047, -0.050, -0.021, -0.022, -0.010, -0.038, -0.028, -0.024, 
		-0.034,  0.035,  0.017, -0.044, -0.037,  0.024, -0.061, -0.114, -0.049, -0.061, 
		-0.001, -0.089,  0.060, -0.036, -0.005,  0.026, -0.025,  0.053, -0.026,  0.042, 
		 0.020,  0.012, -0.001, -0.050, -0.066, -0.024,  0.084,  0.054, -0.004, -0.087, 
		-0.110, -0.118,  0.041, -0.105, -0.006, -0.101, -0.109,  0.023,  0.035, -0.002, 
		-0.066, -0.043,  0.009,  0.091,  0.037, -0.019,  0.011,  0.063,  0.063, -0.002, 
		-0.032,  0.037, -0.019, -0.009, -0.039,  0.011, -0.045,  0.001, -0.056, -0.023, 
		 0.033,  0.001, -0.104, -0.053, -0.096, -0.093,  0.028, -0.042,  0.038,  0.127, 
		-0.010, -0.028,  0.060,  0.016,  0.051,  0.003, -0.078,  0.059, -0.067,  0.016, 
		-0.042, -0.019,  0.032, -0.023,  0.050, -0.010,  0.016,  0.035,  0.016, -0.058, 
		-0.051, -0.003, -0.041, -0.024,  0.056,  0.010,  0.038,  0.016,  0.042, -0.034, 
		 0.026,  0.025,  0.041,  0.033}, 

		{ // Unit 15 weights.
		-0.010,  0.064,  0.033, -0.058, -0.107, -0.148, -0.133, -0.057, -0.258, -0.222, 
		-0.194,  0.011,  0.174,  0.105,  0.017,  0.153,  0.037, -0.094, -0.127, -0.156, 
		-0.082,  0.047,  0.082,  0.061,  0.041,  0.064,  0.054, -0.006,  0.006,  0.096, 
		-0.031,  0.019, -0.077, -0.055, -0.097, -0.282, -0.182, -0.096, -0.044, -0.003, 
		 0.013,  0.041,  0.060,  0.103,  0.067, -0.020, -0.179, -0.233, -0.243, -0.145, 
		-0.074, -0.100, -0.012, -0.017, -0.088,  0.051, -0.047,  0.017, -0.070,  0.039, 
		-0.169, -0.195, -0.267, -0.181, -0.005,  0.023,  0.067,  0.028,  0.096,  0.110, 
		 0.181,  0.193,  0.059, -0.031, -0.009, -0.030, -0.238, -0.246, -0.143,  0.023, 
		-0.054, -0.048, -0.028,  0.005, -0.001,  0.011, -0.085,  0.003, -0.146, -0.080, 
		-0.149, -0.086,  0.052,  0.037,  0.015, -0.030,  0.064,  0.056,  0.077,  0.153, 
		 0.083,  0.070,  0.032,  0.096,  0.048,  0.031, -0.089, -0.133,  0.009,  0.007, 
		-0.018, -0.061,  0.002, -0.043, -0.102, -0.069, -0.030,  0.052,  0.094, -0.027, 
		-0.058, -0.036,  0.013, -0.061,  0.005,  0.131,  0.056,  0.046,  0.026,  0.042, 
		-0.081, -0.042,  0.049,  0.099,  0.060, -0.008,  0.106,  0.077,  0.005,  0.109, 
		-0.120, -0.151, -0.158, -0.024,  0.064,  0.138,  0.120, -0.122, -0.072,  0.033, 
		 0.004,  0.005,  0.095,  0.120,  0.088,  0.079, -0.010, -0.002, -0.087,  0.003, 
		 0.072, -0.013,  0.091,  0.116,  0.124,  0.088,  0.050, -0.048, -0.018, -0.161, 
		-0.095, -0.032,  0.027,  0.182, -0.059,  0.005, -0.042, -0.009, -0.009,  0.042, 
		-0.089,  0.047,  0.018,  0.062,  0.040,  0.034, -0.090, -0.015, -0.107, -0.036, 
