/**************************************************
  Neural Network Parameters: NN_Model2.h
  -------------------------

  Trainable Parameters: 7960
  Generated from Keras module.

  **************************************************/

#include "MatrixMult.h"


// Layer 1, 784 inputs, 10 outputs.
float Layer1_Weight[10][784] = { 

		{ // Unit 0 weights.
		 0.042, -0.304,  1.277,  0.327,  1.188, -0.598, -0.535, -0.110,  0.030, -0.836, 
		 0.672, -0.021, -0.615, -0.107,  0.129, -0.644, -0.049,  0.755, -2.076, -1.082, 
		 0.083, -2.108,  0.442,  0.364, -2.339, -0.361,  0.599,  0.029, -0.753,  0.808, 
		 1.053,  1.264,  1.616,  0.968, -0.780,  0.758,  0.564,  0.501, -0.211, -0.515, 
		-0.349,  0.484,  1.028, -0.615, -0.288, -0.186, -0.121,  0.192, -0.384,  0.399, 
		 0.378,  1.228,  0.174,  0.427,  1.342, -0.784,  1.031,  0.935,  0.112,  0.389, 
		-0.248, -0.822,  0.197, -0.421,  0.420,  0.116, -0.348, -0.095, -0.082, -0.334, 
		-0.047,  0.253,  0.239, -0.654, -0.139,  1.011, -0.714, -0.677,  0.302, -0.361, 
		-0.568, -0.809,  0.700, -0.056, -2.191, -0.035,  0.780,  1.086, -0.538, -0.386, 
		 0.793,  0.172, -0.051,  0.081, -0.056, -0.498,  0.031,  0.166,  0.544,  0.051, 
		 0.138,  0.227, -0.296,  0.106,  0.453,  0.056,  0.235, -0.805, -0.482,  0.006, 
		 1.882,  0.007,  1.462, -0.340,  0.231,  0.345, -0.043,  0.504,  0.179, -0.418, 
		 0.094, -0.024, -0.167,  0.358, -0.333, -0.105, -0.165, -0.194, -0.197,  0.173, 
		 0.219,  0.222, -0.109,  0.576,  0.287, -0.016, -0.385,  0.229, -0.231, -0.923, 
		 1.121,  0.447,  0.582, -0.189,  0.007, -0.018, -0.181,  0.590,  0.228,  0.070, 
		-0.216, -0.048,  0.126,  0.235, -0.445, -0.330, -0.669,  0.178, -0.457,  0.136, 
		-0.220, -0.314,  0.391,  0.916, -1.216, -0.219,  0.962,  2.177, -0.400,  0.101, 
		 1.445,  1.601,  1.318,  0.925,  0.450,  1.078,  0.317,  0.075,  0.745,  0.683, 
		 0.218,  0.391, -0.020, -0.257, -0.607, -0.346,  0.164, -0.059, -0.036, -0.261, 
		 0.466, -0.097, -0.970, -0.056,  0.741, -0.291, -1.480,  0.316,  0.019,  0.020, 
		 0.763,  0.508,  0.297,  0.476,  0.548,  0.271,  0.312,  0.030,  0.491,  0.102, 
		 0.026, -0.048, -0.148,  0.288,  0.169, -0.475, -0.100, -0.202, -0.050,  0.585, 
		-0.653, -0.622,  0.612,  1.290,  0.065,  0.380, -0.375, -0.722, -0.044, -0.060, 
		 0.253,  0.142, -0.398,  0.639,  0.368,  0.223,  0.379, -0.171,  0.267,  0.002, 
		 0.653,  0.472,  0.226, -0.717,  0.291, -0.058, -0.028, -0.138, -1.115, -0.840, 
		 0.254, -0.437,  1.813,  0.316, -0.299, -0.302,  0.035,  0.345,  0.100,  0.225, 
		 0.308,  0.193,  0.551, -0.026, -0.038, -0.459, -0.182, -0.528,  0.178,  0.213, 
		 0.462, -0.410,  0.148, -0.346, -0.297,  0.087, -0.232, -0.399,  0.168,  0.020, 
		 0.131,  0.505, -0.509, -0.312,  0.379, -0.425,  0.249,  0.354,  0.181, -0.631, 
		-0.095,  0.331,  0.242, -0.184, -0.116, -0.599,  0.142,  0.244, -0.037,  0.245, 
		-0.273, -0.366, -0.469, -1.021,  0.076,  0.293, -0.227, -0.657, -0.092, -0.399, 
		-0.428, -0.816, -0.139, -0.567,  0.349, -0.085,  0.260, -0.469,  0.297, -0.035, 
		 0.169, -0.094,  0.676, -0.490,  0.266, -0.136, -0.306,  0.131,  0.254,  0.470, 
		-0.512, -0.652, -0.268, -0.038,  0.144, -0.186, -0.632, -0.768,  0.320,  0.022, 
		-0.425, -0.195, -0.202, -0.177,  0.563, -0.602, -0.182, -0.363,  0.338, -0.186, 
		-0.233, -0.297,  0.421,  0.474,  0.191, -0.103, -0.025,  0.211,  0.281,  0.681, 
		-0.708, -0.033,  0.775,  0.384, -0.089,  0.244, -0.108,  0.721,  0.247, -0.426, 
		 0.084,  0.363, -0.110, -0.194,  0.446,  0.153,  0.004,  0.225, -0.017, -0.408, 
		-0.354,  0.080, -0.753,  0.362, -0.078, -0.593,  0.184,  0.031, -0.488, -0.360, 
		 1.184,  1.427, -0.467,  0.902,  0.064,  0.467, -0.054, -0.151, -0.000, -0.082, 
		-0.333,  0.249,  0.018,  0.071,  0.312,  0.092, -0.266, -0.340,  0.071,  0.388, 
		 0.120,  0.157, -0.188,  0.172, -0.141, -0.156, -0.386,  0.422,  0.365,  0.962, 
		 0.439,  1.505, -0.395, -0.229,  0.246, -0.302, -0.441,  0.240,  0.252,  0.498, 
		-0.331, -0.126,  0.029,  0.119, -0.237,  0.050,  0.049,  0.544,  0.007,  0.116, 
		-0.161, -0.029, -0.137,  0.187,  0.203,  0.180, -0.119, -0.707,  1.057,  0.902, 
		-0.520, -0.184,  0.142, -0.790, -0.213, -0.255, -0.195, -0.513, -0.370, -0.026, 
		 0.113,  0.089, -0.167, -0.065,  0.544,  0.013, -0.941,  0.133,  0.043, -0.299, 
		-0.386,  0.055,  0.600, -0.224, -0.263,  0.540,  1.044,  0.680, -0.375, -0.692, 
		-0.063, -0.219, -0.434,  0.059,  0.073,  0.187, -0.114, -0.327, -0.048, -0.268, 
		-0.407,  0.046,  0.271, -0.682, -0.469,  0.050,  0.639,  0.182, -0.084, -0.129, 
		 0.252,  0.405,  0.052,  0.891,  0.458,  1.056, -0.222, -0.692,  0.003,  0.104, 
		-0.325, -0.402, -1.300, -0.067, -0.354, -0.077,  0.494,  0.025, -0.254, -0.157, 
		 0.016, -0.478, -0.102,  0.101,  0.622,  0.420,  0.193,  0.493, -0.402, -0.008, 
		-0.076, -0.010, -2.252, -0.776,  0.147,  0.133,  0.099,  0.223,  0.341,  0.193, 
		-0.595,  0.101,  0.079, -0.032, -0.232, -0.243, -0.041,  0.206,  0.186, -0.148, 
		 0.268, -0.510,  0.076,  0.298,  0.035, -0.079, -0.546, -0.452,  0.660,  0.101, 
		 0.353, -0.017,  0.024,  0.677, -0.046,  0.374,  0.306, -0.157, -0.421,  0.134, 
		-0.208, -0.167, -0.075,  0.346,  0.404,  0.258,  0.418,  0.435, -0.190, -0.047, 
		-0.766, -0.385, -0.039, -0.055, -0.692, -1.190,  0.808,  1.135,  0.609, -0.312, 
		-0.024, -0.319, -0.284,  0.536, -0.314, -0.364,  0.332,  0.209,  0.080, -0.198, 
		-0.974,  0.294, -0.103,  0.020, -0.058,  0.048, -0.255,  0.119, -0.346, -0.010, 
		 0.112, -0.137, -0.459, -0.907,  1.111,  1.208, -1.274, -0.423, -0.308, -0.513, 
		 0.020,  0.323,  0.000, -0.626, -0.506,  0.165,  0.142,  0.215,  0.255,  0.284, 
		 0.118,  0.441,  0.032, -0.269, -0.614, -0.236, -0.484, -0.469,  0.044, -0.190, 
		 0.058, -0.411,  1.290,  0.195, -2.837,  0.158,  0.828, -0.677,  0.095,  0.207, 
		 0.259, -0.201, -0.032, -0.124, -0.715,  0.262,  0.127,  0.062,  0.325,  0.347, 
		 0.863,  0.586, -0.404,  0.978, -0.687, -0.288, -0.059, -0.138, -0.211, -0.087, 
		 0.413,  0.443, -2.015, -3.065, -0.276, -0.149, -0.182,  0.161,  0.075,  0.289, 
		 0.726, -0.033, -0.882, -0.846, -0.863, -0.276, -0.458, -0.182,  0.047, -0.238, 
		-0.392,  1.902,  0.552, -0.366,  0.731, -0.056,  0.157, -0.156,  0.320,  1.351, 
		-0.759, -1.590, -0.504, -0.428,  0.160,  0.097,  0.082,  0.351,  1.086,  0.361, 
		-0.256, -0.871, -1.482, -1.497, -0.495, -0.512, -0.714,  0.011,  0.147, -0.944, 
		 0.800, -0.052,  0.548, -0.111, -0.111, -0.863,  0.622,  0.758, -0.832, -1.196, 
		-1.679, -2.026, -1.019,  0.872,  0.188,  0.643,  0.250, -1.828, -3.180, -1.686, 
		-3.431, -1.066,  0.698,  0.416, -1.180, -1.592, -2.308, -4.202,  0.202,  0.570, 
		 0.852, -1.063, -1.192, -1.945, -1.364,  0.171, -0.906, -1.460, -0.439,  0.767, 
		 0.978,  0.500, -0.587,  0.650,  1.284, -0.947, -1.838, -1.764, -2.556, -1.643, 
		-0.867, -0.769, -3.204, -2.160, -0.290, -1.965,  1.461,  0.032,  0.547,  0.179, 
		-0.571, -1.814, -2.056, -1.619}, 

		{ // Unit 1 weights.
		 2.576, -3.572,  2.089, -1.872,  0.821,  0.912, -0.638,  0.226, -0.070, -0.459, 
		 0.305, -0.541,  0.931,  0.548, -1.115,  1.244, -0.736,  0.223, -0.480, -0.456, 
		-1.062, -0.747, -0.857,  1.134, -0.872,  0.687,  2.670,  0.993,  2.434, -3.207, 
		 1.336, -0.683,  1.896,  1.516,  0.636,  0.395,  0.807,  0.378, -0.098, -0.240, 
		 0.757,  0.525, -0.028,  0.259,  0.401,  0.068, -0.082, -0.135, -1.091, -0.560, 
		 0.922, -0.553, -1.874, -0.967, -1.383,  0.317, -1.058,  1.204,  1.667, -1.523, 
		 1.012, -0.279,  0.503,  0.289, -0.230,  0.651,  0.044,  0.197,  0.291,  0.316, 
		 0.738,  0.117, -0.001, -0.220, -0.169,  0.252, -0.652, -0.082, -0.378, -0.500, 
		-1.868, -0.709,  0.441, -2.298,  2.108,  1.127, -0.681,  0.386,  0.124,  0.359, 
		-0.154,  0.394,  0.614,  0.083, -0.328,  0.082, -0.095,  0.206,  0.301,  0.447, 
		-0.207,  0.325, -0.163,  0.073,  0.659, -1.024,  0.269, -0.629, -1.083, -1.153, 
		-1.353,  0.510,  0.931,  0.051,  0.843, -1.393,  0.502,  0.207, -0.268,  1.248, 
		 0.405, -0.236,  0.086,  0.223, -0.294, -0.245,  0.468,  0.033, -0.049,  0.750, 
		-0.441, -0.388, -0.119, -0.262, -1.222, -1.225, -1.187, -0.027,  1.601,  0.849, 
		-3.950,  0.563,  0.263,  0.533, -1.278, -0.059, -0.200,  0.473,  0.354,  0.340, 
		 0.206,  0.477, -0.136,  0.294,  0.380, -0.175,  0.178, -0.226, -0.172, -0.204, 
		-0.070, -0.125,  0.269, -0.237,  0.337, -0.867, -0.090, -1.546, -1.045, -1.735, 
		-0.577,  0.088,  0.243,  0.635, -0.110,  0.274, -0.334,  0.492, -0.471, -0.125, 
		 0.731, -0.431,  0.401, -0.018,  0.008,  0.050, -0.562, -0.287,  0.078,  0.540, 
		-0.118, -0.451, -0.859, -1.623,  0.184,  0.167, -3.220, -1.778, -0.193,  0.482, 
		 0.298,  0.510, -0.012,  0.225,  0.365,  0.387,  0.418, -0.095, -0.070,  0.138, 
		 0.535, -0.191, -0.214, -0.260,  0.064, -1.075, -0.520,  0.306, -0.286, -0.224, 
		-0.387, -0.151,  0.187, -0.530, -3.368, -0.682, -0.338, -0.255, -0.614, -0.157, 
		 0.165,  0.265,  0.026, -0.050, -0.136,  0.540,  0.156, -0.035,  0.482,  0.059, 
		 0.043, -0.673, -0.243, -0.111,  0.240,  0.418, -0.070,  0.112, -0.529,  0.252, 
		 0.833, -0.989, -3.155,  0.087, -0.297, -0.809,  0.134, -0.027,  0.486,  0.098, 
		 0.109,  0.273, -0.401, -0.135,  0.210, -0.358,  0.080,  0.085, -0.204, -0.214, 
		-0.113,  0.152,  0.589,  0.409, -0.089, -0.066,  0.143,  0.165,  0.044,  0.750, 
		-0.223, -0.700,  0.710,  0.967,  0.043, -0.180, -0.316, -0.097,  0.190, -0.200, 
		 0.050, -0.194, -0.222,  0.161,  0.134, -0.136,  0.167, -0.522, -0.238, -0.246, 
		 0.211, -0.399,  0.201, -0.222,  0.195,  0.537,  0.244,  0.307,  0.072,  0.476, 
		-0.164,  0.496, -0.112,  0.389,  0.209,  0.782, -0.055, -0.098, -0.319, -0.506, 
		 0.519,  0.076,  0.116,  0.125, -0.391, -0.211, -0.502,  0.423,  0.146,  0.122, 
		-0.000, -0.124,  0.070,  0.101,  0.024,  0.083, -2.897, -0.835, -0.395,  0.396, 
		-0.313, -0.118,  0.110,  0.714,  0.166, -0.265, -0.174, -0.024, -0.679,  0.164, 
		 0.047, -0.047, -0.515, -0.050,  0.183, -0.009,  0.291,  0.348,  0.318, -0.443, 
		 0.307,  0.201,  0.348, -0.337,  0.800, -1.487, -0.116,  0.303,  0.457,  0.091, 
		-0.004,  0.044,  0.022, -0.262,  0.236, -0.161, -0.181,  0.438,  0.058,  0.081, 
		-0.257,  0.247, -0.169, -0.154, -0.061,  0.044,  0.358, -0.073,  0.326,  0.598, 
		 0.059,  0.013, -2.428, -0.438,  0.142,  0.022,  0.071,  0.789, -0.354,  0.078, 
		-0.043, -0.328,  0.014, -0.194,  0.478, -0.074,  0.506, -0.039, -0.173,  0.273, 
		 0.431, -0.077,  0.659, -0.133,  0.542, -0.200, -0.053,  0.002, -0.328, -1.072, 
		 0.258, -0.956, -0.253,  0.455,  0.078,  0.290,  0.633, -0.105,  0.396,  0.245, 
		 0.008,  0.066, -0.048,  0.206, -0.149, -0.710, -0.765, -0.353,  0.053,  0.529, 
		-0.137,  0.106,  0.260,  0.040,  0.272, -0.512, -0.584,  0.185, -1.022, -0.942, 
		-0.384, -0.291,  0.016,  0.197,  0.140,  0.120,  0.236, -0.103,  0.109, -0.055, 
		-0.119,  0.047,  0.056,  0.033,  0.028,  0.096,  0.178,  0.258,  0.183, -0.116, 
		 0.157,  0.124,  0.032,  0.008, -0.403, -0.469, -0.450,  0.014, -0.326,  0.352, 
		-0.350,  0.226,  0.135, -0.016, -0.064, -0.294, -0.018, -0.235,  0.150,  0.387, 
		 0.306, -0.027, -0.229, -0.278,  0.372,  0.235,  0.018,  0.429,  0.129, -0.376, 
		-0.406,  0.105,  0.120,  0.481,  0.114,  0.226,  0.367,  0.357,  0.061, -0.303, 
		 0.124, -0.219,  0.201,  0.041, -0.414, -0.139,  0.243,  0.471,  0.572,  0.124, 
		-0.347, -0.234,  0.256, -0.301,  0.108,  0.124,  0.475,  0.271,  0.340, -0.082, 
		-0.379,  0.385,  0.513,  0.280,  0.550, -0.191,  0.034,  0.274,  0.095,  0.266, 
		-0.326, -0.254, -0.046,  0.293, -0.005,  0.554,  0.430,  0.192,  0.108, -0.461, 
		-0.072, -0.150, -0.282,  0.534, -0.111, -0.127,  0.087,  0.414,  0.575, -0.303, 
		-0.027,  0.351,  0.211, -0.752,  0.759, -0.304,  0.196, -0.015, -0.507,  0.476, 
		 0.065, -0.065,  0.471,  0.444,  0.654, -0.411, -0.244, -0.718, -0.108, -0.041, 
		 0.019,  0.665,  0.156, -0.030,  0.184,  0.398, -0.071, -0.681, -0.375,  0.966, 
		-0.859, -0.059, -0.102, -0.129,  0.182, -0.357, -0.344,  0.544,  0.057, -0.045, 
		 0.157,  0.442,  1.227, -0.153, -0.085, -0.425, -0.359, -0.338, -0.129,  0.712, 
		 0.171, -0.113,  0.664,  0.338, -0.050, -0.159,  1.682, -0.271, -0.760,  0.235, 
		-0.266, -0.314, -0.216, -0.568, -0.350,  0.065,  0.533,  0.361,  0.261,  0.661, 
		 0.490, -0.256,  0.027, -0.263, -0.550, -0.107,  0.229, -0.409,  0.057,  0.622, 
		 0.321, -0.329,  0.895,  0.231,  0.117, -1.406,  0.760,  0.721,  0.680, -0.670, 
		-0.406, -0.555, -0.637,  0.226, -0.095, -0.019, -0.286,  0.037,  0.130,  0.030, 
		 0.440, -0.265, -0.571, -0.177,  0.382, -0.339,  1.176, -0.069,  1.027,  0.497, 
		-0.061,  0.510, -1.916,  0.603,  0.097, -0.055,  0.591, -0.080, -0.263,  0.630, 
		-0.122, -0.131, -0.355, -0.022, -0.058,  0.218,  0.316,  0.435,  0.216,  0.367, 
		 0.489, -0.064, -0.117,  0.305, -0.095, -0.265,  1.126,  0.361,  0.578,  0.747, 
		-2.436, -0.468, -0.616,  0.382,  0.613,  0.776,  0.006,  0.035,  0.221,  0.107, 
		-0.358,  0.423,  0.194,  0.178,  0.006,  0.427,  0.074, -0.024,  0.060, -0.318, 
		-0.260,  0.621, -0.337,  0.260, -0.252,  0.001, -0.861, -1.598, -0.514, -0.413, 
		 0.158,  0.687,  0.181, -0.160,  0.772, -0.311, -0.522,  0.107, -0.138, -0.031, 
		-0.183, -0.956, -0.407, -0.557,  0.055,  0.315,  0.681,  0.171, -0.249,  0.749, 
		 0.245, -0.373,  0.813,  0.636,  0.544, -1.314,  4.663,  1.698,  1.402,  1.979, 
		 0.117, -0.088, -1.193, -0.861, -0.432, -1.163, -0.356, -0.863, -0.238,  0.968, 
		 1.514, -0.989,  0.245, -0.294,  0.253, -0.501, -0.461, -0.379, -0.570,  1.387, 
		 2.637, -0.678,  0.489, -0.309}, 

		{ // Unit 2 weights.
		 2.363,  2.244,  1.532,  0.737,  2.506,  3.593,  4.017,  0.657, -0.602, -0.012, 
		-0.668,  0.481, -0.729,  0.059, -0.395,  0.626, -0.125,  0.227,  0.050, -1.094, 
		-2.351,  0.752, -0.641, -1.068, -0.672, -0.138, -0.979,  2.422,  2.921,  2.812, 
		 0.467, -0.927,  2.882, -0.691,  1.843, -1.588,  0.054,  1.034,  0.189,  0.422, 
		-0.030, -0.040,  0.242, -0.204, -0.609, -0.478,  0.045, -0.134, -0.544, -0.409, 
		 0.378, -0.816,  0.772,  1.904,  2.367,  1.177,  2.939,  2.081, -0.925,  0.419, 
		-0.649,  0.883, -0.248,  0.584,  0.112,  0.131, -0.016, -0.555, -0.667, -0.341, 
		-0.366, -0.125,  0.052, -0.147,  0.116,  0.565, -0.331,  0.093, -0.070,  0.597, 
		-0.008,  1.355,  1.638,  0.271,  2.383,  0.808, -0.777, -0.544, -0.398,  1.664, 
		 0.291,  0.829,  0.320,  0.072, -0.182,  0.310,  0.136,  0.197, -0.131,  0.039, 
		 0.419, -0.401, -0.594, -0.284, -0.204, -0.208,  0.478, -1.393, -0.645, -0.012, 
		 0.027,  0.680,  2.133,  2.312,  0.429, -2.977, -2.102, -1.229,  0.338,  0.044, 
		 0.532, -1.030,  0.265,  0.740, -0.479, -0.345, -0.392,  0.432, -0.120,  0.522, 
		 0.087, -0.393, -0.131,  0.260, -0.795, -0.166,  0.219, -0.677, -0.685, -1.339, 
		 2.435,  2.881,  1.436, -1.433, -2.059,  1.849, -0.104,  0.512,  1.439, -0.344, 
		 0.085, -0.005, -0.053, -0.382, -0.700,  0.602, -0.032,  0.316,  0.033, -0.425, 
		 0.101,  0.455,  0.166, -0.206, -0.190, -0.164,  0.667,  0.462,  1.897,  1.435, 
		-0.951, -2.830,  0.506, -1.535,  0.507, -0.181, -0.052,  0.076,  0.303, -0.656, 
		 0.195, -0.865, -0.493, -0.135, -0.060,  0.370,  0.230,  0.218,  0.543,  0.393, 
		-0.613, -1.498,  0.435, -1.058, -0.835, -0.673,  0.658,  0.080, -0.582, -4.432, 
		 0.095, -0.578,  0.298, -0.386, -1.096, -0.041,  0.162, -0.266,  0.289, -0.175, 
		-0.056,  0.265,  0.162, -0.026,  0.349,  0.156,  0.013,  0.083,  0.230, -0.758, 
		-0.669, -0.793,  0.292, -1.417,  0.261, -1.341, -1.980, -1.801, -2.494, -0.595, 
		-0.081, -0.008, -1.010, -0.240, -0.663, -0.006, -0.520, -0.135, -0.088, -0.088, 
		 0.037, -0.335,  0.287, -0.241,  0.104,  0.890,  0.057, -0.826, -0.437, -0.108, 
		 0.385,  0.208,  0.446, -0.286, -4.144,  0.389, -3.134,  0.148,  0.252, -0.293, 
		-0.992, -1.047, -0.776, -0.238,  0.160, -0.087, -0.743, -0.396,  0.165, -0.416, 
		-0.405,  0.239,  0.698,  0.488, -0.227, -0.674, -0.550, -0.602, -0.642,  0.305, 
		 3.110,  2.169, -0.129, -0.621, -0.483, -0.242,  0.513, -0.072, -0.329, -1.282, 
		-0.279,  0.254,  0.071, -0.319, -0.146, -0.495, -0.164, -0.143, -0.620, -0.682, 
		-0.057,  0.191,  0.087,  0.068, -0.318, -0.179, -0.803, -0.667, -0.656, -0.046, 
		 0.334,  0.109, -0.780, -0.994,  0.469,  0.484, -0.301, -1.091,  0.402,  0.772, 
		 0.069, -0.094,  0.141, -0.261,  0.110, -0.079, -0.542,  0.009, -0.315,  0.433, 
		 0.354,  0.111,  0.152,  0.221,  0.845, -0.119, -1.857, -0.130,  0.203,  0.909, 
		-3.185, -0.341, -0.096, -0.088, -0.304, -0.405,  0.300,  0.594, -0.163, -0.136, 
		-0.534,  0.444, -0.615, -0.260, -0.590, -0.135, -0.209,  0.225, -0.097,  0.140, 
		 0.617,  0.655,  1.201,  0.402, -0.799,  0.764,  3.239,  1.051, -0.286,  1.121, 
		 0.140,  0.100,  0.015,  0.234,  0.163, -0.065, -0.149,  0.234, -0.048,  0.021, 
		 0.142, -0.041,  0.312, -0.054, -0.013,  0.518,  0.040,  0.176, -0.041,  0.299, 
		 0.084, -0.525,  2.300,  1.072, -0.791, -0.946,  0.154, -0.215,  0.048,  0.379, 
		 0.387, -0.169,  0.411,  0.270,  0.431, -0.165,  0.078,  0.005,  0.532,  0.117, 
		-0.103, -0.195, -0.109,  0.398, -0.335,  0.088,  0.498,  0.235, -0.058, -0.715, 
		 1.405, -0.241, -1.881, -0.639, -0.252, -0.159,  0.516, -0.414,  0.392,  0.436, 
		 0.684,  0.267,  0.382,  0.265,  0.072, -0.093, -0.031,  0.332, -0.222,  0.042, 
		 0.180,  0.310,  0.008,  0.154, -0.180,  0.146,  0.331, -0.595, -0.307, -0.108, 
		-1.582, -1.146, -0.330, -0.054,  0.244, -0.200,  0.097,  0.139,  0.283,  0.386, 
		 0.343,  0.473, -0.022,  0.047,  0.194,  0.060, -0.116,  0.173,  0.051, -0.233, 
		 0.313, -0.334, -0.257, -0.162,  0.252, -1.060,  1.007,  0.661, -1.074, -1.117, 
		-0.206,  0.075,  0.546, -0.340,  0.128, -0.013,  0.523,  0.466,  0.233,  0.086, 
		 0.621, -0.228, -0.350, -0.260,  0.102,  0.421,  0.327, -0.222,  0.041, -0.190, 
		-0.019, -0.221, -0.130, -0.743,  0.423,  0.416, -0.728, -0.588,  0.238,  0.225, 
		 0.148,  0.034, -0.004, -0.237,  0.239, -0.010,  0.198,  0.781,  0.657, -0.407, 
		-0.309,  0.040, -0.153, -0.079,  0.092,  0.225,  0.246, -0.726,  0.230,  0.484, 
		 0.482, -0.093,  0.244,  0.654, -0.174,  0.009,  0.339, -0.139,  0.108, -0.039, 
		-0.388, -0.039, -0.209, -0.411,  0.182, -0.218,  0.420, -0.169, -0.065,  0.002, 
		-0.269,  0.052,  0.157, -0.340,  0.466, -0.393,  0.105, -0.303, -0.088,  0.473, 
		 0.534,  0.261,  0.140, -0.053,  0.239, -0.010,  0.084,  0.076, -0.443, -0.068, 
		 0.110,  0.093, -0.451, -0.716, -0.240,  0.062,  0.429,  0.446,  0.405, -0.616, 
		-0.613, -0.011,  0.022, -0.226,  0.139, -0.160,  0.123, -0.500,  0.593, -0.233, 
		 0.117,  0.376, -0.020, -0.369, -0.193, -0.142, -0.532, -0.021,  0.079, -0.108, 
		-0.247,  0.118,  0.209,  0.145,  0.918,  0.863,  0.560, -0.392, -0.671, -0.096, 
		 0.026,  0.108,  0.086, -0.666, -0.312, -0.221, -0.817, -0.196,  0.345, -0.189, 
		 0.204, -0.272, -0.105, -0.301, -0.178,  0.205, -0.277, -0.580, -0.630,  0.682, 
		 0.547,  0.456,  0.528,  0.679,  0.932, -0.505, -0.721, -0.178, -0.284, -0.554, 
		 0.164,  0.603, -0.495,  0.335, -3.076,  0.021,  0.499, -0.273, -0.076, -0.788, 
		-0.726, -0.423, -0.485, -0.230, -0.203,  0.033,  0.053,  0.087,  0.655,  0.344, 
		 0.133,  0.528,  0.583, -0.178, -0.542, -0.693, -0.365, -0.569,  0.075, -0.138, 
		-0.692,  0.135, -1.034,  0.377, -0.038, -0.332,  0.023, -0.338, -0.648, -0.197, 
		-0.337,  0.112,  0.184, -0.157,  0.726,  0.340,  0.549,  0.106, -0.858, -0.351, 
		-0.127, -0.171,  0.131,  0.160,  0.516,  0.495,  0.679,  0.390,  0.069, -1.123, 
		 0.283,  1.086, -0.575, -0.362, -2.028, -1.237, -0.399, -0.505, -0.086,  0.226, 
		 0.830,  0.704,  0.071,  0.361,  0.433, -0.228,  0.285, -0.261, -0.152,  0.032, 
		 0.013, -0.127,  0.647, -0.303, -0.168, -0.960, -0.304,  0.829, -1.537, -0.185, 
		-0.328,  1.085, -1.635, -1.231,  0.412,  0.189,  0.310, -0.010, -0.138,  1.326, 
		 0.790,  0.361,  0.229, -0.050,  0.524,  0.022, -0.656, -0.092,  0.655,  0.407, 
		 0.692, -2.238,  0.432,  1.018, -0.251, -0.104,  1.098,  3.030,  0.765,  0.479, 
		 3.500,  0.177, -2.709, -0.596, -0.347,  0.199,  1.914, -0.180, -0.535, -0.354, 
		 0.089, -0.375, -0.130,  0.023,  0.118, -0.005,  0.094, -0.645, -2.080, -0.495, 
		-0.611, -0.319, -0.229, -0.365}, 

		{ // Unit 3 weights.
		-1.026, -0.289, -2.263,  1.609, -2.572, -0.485, -2.077, -2.357,  0.676,  0.445, 
		-0.280, -0.346, -1.415,  0.256,  1.229, -0.513, -0.545,  0.221, -0.235, -1.701, 
		-1.161, -2.845, -1.324,  0.586,  2.722,  2.634, -0.401, -0.342, -3.172, -3.140, 
		-3.070,  0.967, -0.868,  2.734, -0.485, -0.591, -1.041, -0.612, -0.291, -0.321, 
		-0.191, -0.056, -0.810,  0.658,  0.417,  0.045, -0.254, -0.362, -1.440, -0.153, 
		 0.441, -0.538,  0.583,  1.162,  1.594, -2.980, -4.222, -2.715, -0.462, -3.454, 
		-0.321,  2.212,  1.707,  0.845, -0.707, -0.254,  0.281,  0.206,  0.356,  0.120, 
		-0.444, -0.187, -0.012, -0.091,  0.108,  0.045,  0.256,  1.220,  1.980,  0.430, 
		 0.155,  0.717,  0.634,  0.400, -3.047, -0.698, -1.444, -0.801,  0.187, -0.271, 
		 0.895,  0.269, -0.064,  0.129,  0.544, -0.543,  0.274, -0.304, -0.644, -0.307, 
		-0.111, -0.172, -0.416, -0.245, -0.209,  0.505,  0.297,  1.562,  2.195,  2.095, 
		 0.583,  0.800, -0.327, -0.153, -1.270,  1.300,  0.963, -0.018,  0.444,  0.635, 
		-0.131,  0.264, -0.046, -0.585, -0.548, -0.177, -0.405, -0.481, -0.490,  0.057, 
		 0.058, -0.796, -0.013,  0.904, -0.243,  1.541,  2.637,  1.927,  1.436, -0.606, 
		-0.207,  0.858, -0.386,  1.269,  0.048,  0.211,  1.032,  0.823,  0.008, -0.810, 
		-0.147, -0.109, -0.208, -0.783, -0.325, -0.421, -0.612, -0.024,  0.177, -0.410, 
		 0.928,  1.251, -0.043,  0.139,  1.069,  1.849,  0.991, -0.747,  1.752,  0.455, 
		-0.055, -0.079, -0.483, -0.166,  0.206,  0.813, -0.069, -1.219, -0.456, -0.950, 
		-0.074, -0.426, -0.498,  0.105, -0.324,  0.175,  0.389, -0.691,  0.467,  0.648, 
		 0.371, -0.320,  0.025,  1.246,  0.961,  0.522,  0.135,  1.257, -0.461,  0.114, 
		-0.673, -0.320,  0.505,  1.190, -0.206, -0.998, -0.260, -0.915, -0.283, -0.462, 
		-0.061,  0.270,  0.024, -0.277, -0.013, -0.438,  0.624,  0.786, -0.397,  0.602, 
		 0.228,  0.471,  0.674,  0.766,  0.347,  2.094,  0.719,  0.620, -0.137, -0.611, 
		 0.015,  1.246, -0.211, -0.843, -0.390, -0.790, -0.273, -0.157, -0.590,  0.110, 
		 0.061,  0.324,  0.261,  0.231,  0.338,  0.644,  0.030,  0.033,  0.423,  0.622, 
		 0.628, -0.100,  0.215,  1.299, -0.595,  0.042,  0.062, -0.615, -0.132,  0.252, 
		 0.325, -0.322,  0.191,  0.110,  0.100, -0.763, -0.457,  0.054, -0.013,  0.105, 
		 0.782,  0.110,  0.068,  0.911, -0.629, -0.515, -0.127,  0.883,  0.701, -0.004, 
		 1.090,  0.350, -0.562,  0.233, -0.075, -0.121,  0.210,  0.229, -0.382, -0.254, 
		-0.332, -0.120,  0.200, -0.131, -0.738, -0.502,  0.158,  0.139,  0.040,  0.246, 
		 0.515,  0.689, -0.130, -0.207,  0.199,  0.014,  0.617,  1.471,  1.115,  0.682, 
		-0.998,  0.332, -0.040, -0.603,  0.376,  0.196, -0.379,  0.215, -0.207, -0.399, 
		 0.008, -0.026, -0.128, -0.340,  0.262,  0.018,  0.202,  0.128,  0.290,  0.506, 
		 0.224,  0.108,  0.193,  0.118, -0.119,  1.609,  1.459,  0.470, -1.461,  0.023, 
		-0.636, -0.894,  0.321,  0.265, -0.254, -0.368, -0.295, -0.314,  0.143, -0.235, 
		-0.345, -0.080,  0.408, -0.213, -0.078,  0.024,  0.136,  0.350, -0.068, -0.056, 
		 0.218,  0.138, -0.445,  0.447,  3.023,  0.088, -0.485, -0.290, -0.532, -0.050, 
		 0.413, -0.033, -0.005, -0.080,  0.058,  0.056,  0.028, -0.385, -0.431, -0.223, 
		 0.220,  0.117,  0.224,  0.183,  0.009,  0.119,  0.031, -0.154,  0.008,  0.084, 
		-0.724,  0.196,  0.547,  0.592, -0.477, -0.072, -0.096, -0.134,  0.791, -0.227, 
		-0.151,  0.253, -0.317,  0.286, -0.172, -0.220, -0.318,  0.374,  0.070,  0.244, 
		 0.050,  0.449,  0.062,  0.142,  0.549,  0.168, -0.131, -0.207, -0.336,  0.116, 
		 0.462,  0.386, -0.257, -0.811, -0.148,  0.488,  0.241, -0.241,  0.049, -0.230, 
		-0.374,  0.070,  0.032, -0.151, -0.033,  0.371,  0.694,  0.513, -0.034,  0.565, 
		-0.132,  0.333,  0.136,  0.070,  0.453, -0.248,  0.151,  0.931,  1.166, -0.219, 
		 0.275, -0.114,  0.352,  0.494,  0.339, -0.353,  0.242,  0.319,  0.116,  0.494, 
		 0.113, -0.097,  0.140, -0.049,  0.016,  0.127,  0.151,  0.602,  0.278,  0.198, 
		 0.569, -0.092, -0.266,  0.581,  0.164,  0.270,  0.692,  0.239, -0.140, -0.053, 
		 0.189, -0.031,  0.154,  0.113,  0.240,  0.169, -0.055, -0.227, -0.087,  0.084, 
		 0.282, -0.160, -0.001, -0.425, -0.012, -0.084,  0.139,  0.030,  0.092,  0.051, 
		 0.127,  0.296,  0.706,  1.001,  0.232,  0.460,  0.652,  0.074, -0.073, -0.423, 
		 0.327,  0.038,  0.020, -0.351,  0.027,  0.081,  0.256, -0.210,  0.023,  0.014, 
		 0.309,  0.549, -0.087, -0.418,  0.113,  0.270, -0.013, -0.151,  0.234,  0.371, 
		 0.086,  0.083,  0.574,  0.047,  0.569,  0.416, -0.587, -0.060,  0.337, -0.205, 
		-0.205,  0.454,  0.518, -0.043, -0.125, -0.389,  0.140,  0.250, -0.101, -0.180, 
		 0.054, -0.576, -0.301,  0.147,  0.094, -0.225,  0.878,  0.468,  0.645, -0.501, 
		 1.193,  0.359,  0.707,  0.556, -0.246, -0.439,  0.225, -0.466, -0.682, -0.371, 
		 0.278,  0.179, -0.152, -0.024,  0.396,  0.118,  0.221, -0.186, -0.223, -0.593, 
		-0.497,  0.322, -0.476,  0.245,  0.857,  0.464,  0.443,  0.446,  0.550,  0.910, 
		 0.384, -0.520,  0.336, -0.179,  0.430, -0.494, -0.477,  0.214,  0.449,  0.396, 
		 0.071,  0.327,  0.334,  0.457,  0.090, -0.046, -0.052, -0.548, -0.444,  0.507, 
		 0.194, -0.220,  0.825,  0.261,  0.259, -0.250, -0.312,  0.379, -0.939, -0.371, 
		 0.521, -0.142, -0.146,  0.151, -0.551,  0.565,  0.319,  0.055,  0.282,  0.687, 
		 0.608,  0.497,  0.143, -0.187, -0.244, -0.407, -0.004, -0.194,  0.014, -0.121, 
		 0.360, -0.283, -0.276,  0.109,  0.819,  1.147, -1.152,  0.748, -0.009, -0.029, 
		-0.408,  0.041, -0.248,  0.180, -0.260, -0.306,  0.304,  0.646,  0.446,  0.333, 
		-0.087, -0.161, -0.144, -0.929, -0.219, -0.324,  0.484,  0.548, -0.035,  1.002, 
		-0.792,  1.550, -1.086, -0.127,  0.009,  0.678,  0.065,  0.465, -0.089, -0.111, 
		-0.050,  0.573, -0.019,  0.205,  0.069,  0.653,  0.771,  0.122,  0.072,  0.092, 
		-0.221, -0.631, -0.369, -0.349,  0.350, -0.069, -0.569, -0.142, -0.457, -0.310, 
		-0.328, -0.188,  0.746,  0.179,  0.064, -0.046,  0.425,  0.242, -0.162,  0.911, 
		 0.220,  0.108,  0.102,  0.502,  0.678,  0.293, -0.301, -0.078,  0.567, -0.302, 
		-0.577, -0.372,  0.682,  0.192, -0.460,  0.371,  0.631, -0.395,  0.338, -1.691, 
		 1.009,  0.583, -0.013,  0.127,  0.201, -0.700,  0.595,  0.387,  0.216, -0.118, 
		 0.331,  0.085,  0.511, -0.401, -0.101,  0.092,  0.330,  0.164, -1.277, -0.195, 
		 0.129, -0.597, -0.045, -0.507,  0.456, -0.112, -1.800, -3.251, -1.189, -0.450, 
		 0.269,  0.324, -0.336,  0.208, -0.353,  0.280, -0.307,  0.527,  0.345, -0.266, 
		 0.279, -0.581, -0.347, -0.603, -0.775, -0.102,  1.831,  1.649, -0.138, -0.426, 
		 0.216,  0.436,  0.544,  1.139}, 

		{ // Unit 4 weights.
		 0.053, -0.026,  0.061, -0.034,  0.017, -0.080,  0.056,  0.046,  0.012, -0.057, 
		-0.023,  0.016,  0.037, -0.016,  0.071, -0.033,  0.052, -0.053,  0.060, -0.088, 
		 0.057,  0.020,  0.045, -0.045, -0.056,  0.040, -0.027,  0.049, -0.049, -0.074, 
		-0.068,  0.017,  0.026, -0.072,  0.038,  0.001,  0.002, -0.076, -0.009,  0.055, 
		-0.077,  0.062, -0.021,  0.045, -0.019, -0.049, -0.002,  0.050, -0.047,  0.055, 
		 0.003, -0.088, -0.063,  0.050, -0.028, -0.059, -0.043,  0.032, -0.061, -0.087, 
		-0.006, -0.014, -0.010,  0.066,  0.021, -0.006, -0.057,  0.073, -0.066, -0.027, 
		-0.080, -0.056,  0.034,  0.053, -0.073, -0.031, -0.005, -0.014, -0.056,  0.017, 
		 0.029,  0.045,  0.010,  0.060,  0.080,  0.031, -0.011,  0.054, -0.022, -0.083, 
		-0.013, -0.079, -0.031, -0.069,  0.046,  0.014,  0.031, -0.057,  0.008, -0.072, 
		-0.061,  0.027, -0.090,  0.011,  0.027, -0.055, -0.093, -0.014, -0.053,  0.015, 
		 0.019, -0.059, -0.056,  0.002, -0.088,  0.048,  0.021, -0.051,  0.030,  0.034, 
		 0.032,  0.064, -0.032,  0.005, -0.037,  0.026,  0.058,  0.023, -0.096,  0.050, 
		-0.041,  0.070, -0.067,  0.017, -0.023, -0.044,  0.070, -0.056, -0.019,  0.050, 
		-0.003, -0.025,  0.045, -0.082, -0.025,  0.000, -0.045, -0.041, -0.088, -0.042, 
		-0.016,  0.071, -0.076, -0.026, -0.083, -0.067,  0.030, -0.061,  0.046, -0.034, 
		 0.067,  0.046,  0.023, -0.008, -0.079,  0.054,  0.028, -0.068,  0.030,  0.047, 
		 0.037, -0.015,  0.059,  0.009, -0.077,  0.010, -0.059, -0.055,  0.041, -0.024, 
		 0.044, -0.083, -0.080, -0.060, -0.061, -0.093, -0.056, -0.012, -0.018, -0.093, 
		 0.005,  0.042, -0.059,  0.020,  0.028,  0.005,  0.011, -0.072, -0.019, -0.082, 
		-0.088, -0.071, -0.094,  0.031,  0.037, -0.021, -0.047,  0.038,  0.062, -0.040, 
		-0.061,  0.011, -0.074, -0.001, -0.035, -0.073,  0.033, -0.018, -0.081, -0.029, 
		-0.014,  0.076,  0.050, -0.002,  0.052, -0.048, -0.042,  0.047,  0.067, -0.030, 
		-0.027, -0.093, -0.017,  0.032,  0.028,  0.046, -0.027, -0.098, -0.003,  0.008, 
		 0.005,  0.039, -0.084, -0.072,  0.051,  0.017, -0.044, -0.021, -0.090,  0.064, 
		-0.019, -0.059,  0.001, -0.088, -0.057, -0.002, -0.088,  0.044, -0.078,  0.075, 
		-0.050, -0.068,  0.019,  0.038, -0.016, -0.023, -0.093, -0.003, -0.071, -0.010, 
		 0.030,  0.005,  0.039, -0.040,  0.067, -0.039, -0.013,  0.004,  0.009, -0.088, 
		-0.091,  0.018,  0.048,  0.045, -0.090,  0.036, -0.051,  0.049,  0.018,  0.006, 
		-0.095,  0.059,  0.007, -0.060, -0.026, -0.040,  0.042,  0.035, -0.022,  0.033, 
		-0.085, -0.037, -0.065,  0.032,  0.013, -0.050,  0.061, -0.011,  0.009, -0.054, 
		-0.004, -0.025,  0.050, -0.047, -0.075, -0.034, -0.010, -0.004,  0.027,  0.031, 
		-0.057, -0.054, -0.087,  0.044, -0.102,  0.026, -0.044, -0.082, -0.091, -0.058, 
		-0.010,  0.051,  0.030, -0.061, -0.053, -0.045, -0.028, -0.030,  0.068,  0.049, 
		-0.064, -0.015,  0.034,  0.042, -0.080,  0.038, -0.052, -0.037, -0.001, -0.105, 
		 0.046,  0.013, -0.007, -0.079, -0.083, -0.014, -0.028,  0.004, -0.058,  0.054, 
		-0.062,  0.026, -0.056,  0.067,  0.064,  0.072,  0.068, -0.021,  0.045,  0.056, 
		-0.015,  0.045, -0.039, -0.070,  0.037, -0.091,  0.020,  0.013, -0.034, -0.032, 
		-0.061,  0.024, -0.005,  0.033,  0.057, -0.067, -0.047,  0.052, -0.068, -0.073, 
		-0.066, -0.030,  0.045,  0.051,  0.027, -0.093, -0.016, -0.012, -0.075, -0.066, 
		 0.052,  0.044,  0.060, -0.060, -0.021,  0.057, -0.097, -0.032,  0.027, -0.010, 
		 0.007,  0.051,  0.016,  0.033,  0.020,  0.069, -0.061, -0.079, -0.061, -0.086, 
		 0.040,  0.071, -0.019,  0.032,  0.061, -0.089, -0.080,  0.028, -0.006,  0.031, 
		-0.037, -0.029, -0.040,  0.060, -0.023, -0.034, -0.019,  0.026, -0.062,  0.033, 
		-0.091, -0.023,  0.059, -0.031, -0.086, -0.012,  0.067,  0.061, -0.073,  0.066, 
		-0.065, -0.009,  0.015,  0.004,  0.004, -0.095, -0.007, -0.002, -0.052, -0.080, 
		-0.032, -0.066, -0.051,  0.055,  0.012,  0.016,  0.042, -0.070,  0.008, -0.069, 
		 0.056,  0.042,  0.003, -0.096,  0.022,  0.043, -0.079,  0.026, -0.023, -0.054, 
		-0.074,  0.039, -0.035,  0.015, -0.094, -0.073,  0.027, -0.026,  0.045,  0.058, 
		 0.008, -0.083,  0.060, -0.084,  0.055,  0.058,  0.026, -0.075, -0.097, -0.075, 
		-0.068, -0.003,  0.020,  0.014,  0.027, -0.094, -0.036,  0.023,  0.058,  0.017, 
		 0.032, -0.043, -0.098,  0.002,  0.013,  0.064,  0.054, -0.026,  0.025,  0.063, 
		-0.012, -0.060,  0.065,  0.057, -0.081, -0.070, -0.072,  0.014, -0.022, -0.043, 
		-0.029,  0.064, -0.021, -0.077, -0.030, -0.046,  0.048, -0.024, -0.085,  0.055, 
		-0.009,  0.011, -0.074, -0.061, -0.030,  0.070, -0.004, -0.080, -0.004, -0.036, 
		 0.034,  0.041, -0.094,  0.057,  0.040,  0.029,  0.067, -0.014, -0.078, -0.085, 
		-0.087,  0.061, -0.016, -0.021, -0.092, -0.041, -0.005, -0.087, -0.017,  0.070, 
		 0.024, -0.024, -0.099,  0.009,  0.067, -0.072, -0.071, -0.096,  0.071,  0.067, 
		-0.069, -0.030, -0.003,  0.008, -0.020, -0.070,  0.042,  0.047,  0.060,  0.056, 
		-0.073,  0.001,  0.035, -0.070,  0.051,  0.072, -0.064,  0.014, -0.059,  0.012, 
		-0.058, -0.078, -0.029,  0.030, -0.016, -0.023,  0.053,  0.032, -0.043, -0.027, 
		 0.073, -0.012,  0.007, -0.038, -0.071, -0.054, -0.049, -0.039, -0.023, -0.012, 
		-0.091, -0.004, -0.017, -0.073, -0.070, -0.055,  0.070, -0.031,  0.005, -0.012, 
		-0.010, -0.033, -0.006, -0.028,  0.036,  0.050,  0.029, -0.041, -0.097, -0.016, 
		-0.034,  0.044, -0.067, -0.006,  0.014,  0.017, -0.068,  0.040,  0.019, -0.069, 
		-0.055,  0.037,  0.061,  0.034,  0.054, -0.023, -0.058, -0.019, -0.059,  0.034, 
		-0.000,  0.012,  0.033, -0.050,  0.042, -0.015,  0.036,  0.022, -0.049, -0.042, 
		 0.030, -0.048,  0.002,  0.051,  0.018, -0.090, -0.093, -0.018, -0.022,  0.056, 
		 0.071, -0.026,  0.036,  0.069,  0.009, -0.047,  0.039,  0.063,  0.029, -0.096, 
		-0.096, -0.020,  0.012, -0.040, -0.040, -0.023, -0.018, -0.083,  0.070,  0.026, 
		 0.078, -0.092, -0.020, -0.065,  0.037,  0.014, -0.018,  0.030, -0.095, -0.082, 
		-0.064,  0.071, -0.064,  0.047,  0.054, -0.090, -0.071, -0.033, -0.095, -0.049, 
		 0.010, -0.002, -0.015,  0.044,  0.070,  0.012, -0.003, -0.024, -0.052, -0.038, 
		-0.049, -0.001,  0.042, -0.089,  0.054, -0.039, -0.093,  0.032,  0.012,  0.049, 
		 0.049, -0.007, -0.023,  0.024,  0.041, -0.090, -0.080, -0.068, -0.043,  0.042, 
		 0.009, -0.032,  0.007, -0.016,  0.011,  0.010, -0.069, -0.044, -0.027,  0.021, 
		 0.041, -0.035,  0.005, -0.093,  0.022,  0.056, -0.051, -0.088,  0.013, -0.062, 
		-0.024,  0.061, -0.010, -0.083,  0.050,  0.070, -0.077, -0.059, -0.019, -0.005, 
		 0.009, -0.090,  0.039,  0.002}, 

		{ // Unit 5 weights.
		-0.071,  0.013,  0.005, -0.018,  0.056, -0.028,  0.008,  0.093,  0.058, -0.011, 
		 0.002, -0.019,  0.029,  0.090,  0.087, -0.073, -0.007,  0.077, -0.041,  0.006, 
		-0.093, -0.085,  0.030,  0.046,  0.021, -0.019, -0.025,  0.000, -0.054, -0.061, 
		-0.056,  0.099, -0.029, -0.050,  0.051, -0.029,  0.064,  0.017, -0.060,  0.034, 
		-0.046,  0.020,  0.068, -0.037,  0.027, -0.017, -0.075,  0.006,  0.004,  0.000, 
		 0.048,  0.062, -0.009, -0.048,  0.051,  0.064, -0.072,  0.053,  0.047,  0.063, 
		-0.018,  0.019, -0.075, -0.021, -0.090, -0.000, -0.036,  0.087, -0.034, -0.008, 
		 0.022,  0.025,  0.065,  0.036,  0.063,  0.026, -0.080,  0.028, -0.012,  0.041, 
		 0.044, -0.025,  0.028,  0.016, -0.043,  0.041,  0.021,  0.037,  0.058,  0.071, 
		 0.001, -0.089, -0.091, -0.075,  0.099, -0.023, -0.003,  0.076, -0.034,  0.024, 
		 0.059,  0.036,  0.051, -0.003, -0.070,  0.065,  0.025,  0.052,  0.062, -0.096, 
		-0.065, -0.057,  0.015,  0.033,  0.019, -0.055, -0.034,  0.071, -0.020, -0.022, 
		 0.025, -0.091,  0.084,  0.084,  0.028,  0.011,  0.047, -0.014,  0.027, -0.078, 
		 0.066, -0.056, -0.033,  0.012,  0.046,  0.006,  0.010,  0.051, -0.077, -0.083, 
		-0.079,  0.062, -0.062,  0.059, -0.071,  0.020, -0.061, -0.004,  0.027, -0.054, 
		 0.033, -0.012, -0.051, -0.035, -0.035,  0.060,  0.010, -0.075, -0.019, -0.082, 
		 0.046,  0.075, -0.035,  0.002, -0.008,  0.090,  0.074,  0.067,  0.022,  0.015, 
		 0.014,  0.076, -0.020, -0.018, -0.034, -0.077,  0.023,  0.072,  0.006,  0.090, 
		 0.022,  0.028,  0.023, -0.022,  0.049,  0.032,  0.003,  0.017, -0.040, -0.065, 
		 0.041, -0.038,  0.056,  0.025,  0.071,  0.060, -0.051, -0.045, -0.026,  0.021, 
		 0.054, -0.085, -0.024, -0.093,  0.017, -0.040, -0.043, -0.076, -0.085, -0.061, 
		-0.023, -0.088, -0.010,  0.021,  0.047, -0.010,  0.033,  0.027, -0.048,  0.031, 
		-0.019,  0.040, -0.004,  0.056,  0.078, -0.017, -0.017,  0.042, -0.070, -0.052, 
		-0.048, -0.010, -0.039,  0.031, -0.096, -0.064, -0.011, -0.048,  0.013, -0.014, 
		 0.043,  0.045, -0.059,  0.065,  0.011, -0.068, -0.107, -0.063,  0.079,  0.054, 
		 0.058,  0.075, -0.006, -0.041, -0.006, -0.051,  0.064, -0.060,  0.017,  0.012, 
		 0.006, -0.080,  0.003, -0.068, -0.012, -0.016, -0.024, -0.024, -0.078, -0.066, 
		-0.078, -0.048, -0.122, -0.052, -0.019,  0.053, -0.092, -0.013,  0.000,  0.031, 
		 0.049,  0.060,  0.070, -0.084,  0.020,  0.034, -0.020, -0.109, -0.078, -0.046, 
		-0.123, -0.057,  0.046,  0.042,  0.052, -0.013, -0.040, -0.101, -0.075,  0.049, 
		-0.037, -0.017,  0.031, -0.006,  0.063, -0.090,  0.025, -0.052, -0.069,  0.017, 
		 0.005,  0.027,  0.009, -0.065,  0.015,  0.016, -0.067, -0.047, -0.122, -0.001, 
		-0.061, -0.023,  0.011,  0.001, -0.080,  0.017, -0.067,  0.058, -0.043, -0.059, 
		-0.023,  0.057, -0.006, -0.037, -0.008,  0.081, -0.010,  0.036,  0.001, -0.060, 
		-0.077,  0.042,  0.050, -0.118, -0.103, -0.050,  0.020, -0.084, -0.032,  0.058, 
		-0.035, -0.019,  0.044,  0.038,  0.019,  0.066,  0.047, -0.096, -0.110, -0.018, 
		 0.024, -0.085,  0.067, -0.087, -0.076, -0.052, -0.082,  0.049,  0.075, -0.041, 
		-0.009,  0.046,  0.041,  0.000, -0.027, -0.030,  0.013, -0.102,  0.044, -0.107, 
		-0.043, -0.072,  0.039, -0.062,  0.060,  0.038,  0.060, -0.014,  0.021,  0.051, 
		 0.038, -0.056,  0.077, -0.039, -0.026, -0.029, -0.064, -0.022, -0.037,  0.002, 
		-0.026, -0.006, -0.044, -0.080, -0.076,  0.005, -0.025, -0.018, -0.055,  0.022, 
		 0.008,  0.076, -0.005,  0.058, -0.013,  0.009, -0.070, -0.098,  0.049, -0.039, 
		 0.029,  0.072, -0.067, -0.074, -0.043, -0.073, -0.054, -0.017, -0.073,  0.023, 
		-0.045, -0.113, -0.043, -0.093, -0.056, -0.059, -0.029,  0.012,  0.036, -0.073, 
		 0.054,  0.013, -0.069, -0.048, -0.079, -0.016,  0.075,  0.073,  0.018,  0.050, 
		-0.004, -0.078, -0.035, -0.077,  0.008,  0.009, -0.078, -0.057, -0.030,  0.026, 
		-0.040,  0.037,  0.001, -0.093, -0.062, -0.035, -0.094, -0.045, -0.027, -0.080, 
		-0.082, -0.042, -0.057,  0.049,  0.047, -0.036, -0.009, -0.048,  0.046,  0.028, 
		 0.017, -0.115, -0.035, -0.063, -0.069, -0.080, -0.055, -0.022, -0.051, -0.041, 
		-0.090, -0.092, -0.064, -0.016, -0.035,  0.030, -0.023,  0.066, -0.112, -0.016, 
		-0.077, -0.004,  0.017,  0.058,  0.012,  0.048, -0.062, -0.074,  0.016, -0.118, 
		 0.030, -0.103, -0.078,  0.035, -0.003, -0.041, -0.030, -0.106, -0.042, -0.021, 
		-0.106, -0.035,  0.029, -0.074,  0.001, -0.064,  0.020, -0.073,  0.013,  0.034, 
		-0.033,  0.039,  0.036, -0.091, -0.027,  0.045,  0.048,  0.005, -0.117, -0.082, 
		-0.083, -0.077, -0.054,  0.019,  0.005,  0.033, -0.003, -0.006, -0.123, -0.096, 
		-0.079,  0.076,  0.006,  0.018, -0.017, -0.083,  0.045,  0.020, -0.020, -0.055, 
		-0.035, -0.045,  0.019, -0.062,  0.049,  0.005, -0.007,  0.054,  0.052,  0.016, 
		-0.063, -0.070, -0.056, -0.010,  0.033, -0.062, -0.051,  0.017,  0.069, -0.062, 
		-0.060,  0.066, -0.063, -0.073,  0.023, -0.073,  0.010, -0.030, -0.012, -0.066, 
		-0.038, -0.056, -0.011, -0.048, -0.018, -0.019,  0.056, -0.096,  0.011, -0.062, 
		-0.015, -0.057, -0.103,  0.010, -0.002, -0.032, -0.071,  0.021,  0.074,  0.065, 
		 0.045, -0.107, -0.024,  0.073, -0.036,  0.008, -0.036, -0.010, -0.019,  0.030, 
		-0.057, -0.007, -0.091,  0.053, -0.040, -0.047, -0.052, -0.079, -0.072, -0.033, 
		-0.060,  0.058, -0.097, -0.036,  0.039, -0.056, -0.025, -0.044, -0.063,  0.017, 
		 0.059, -0.072,  0.047, -0.014, -0.033, -0.030, -0.001, -0.059,  0.042, -0.054, 
		-0.001, -0.010, -0.074, -0.031,  0.018,  0.055, -0.082, -0.048,  0.040, -0.014, 
		-0.012,  0.072,  0.086,  0.010,  0.086, -0.084,  0.011, -0.105, -0.002,  0.005, 
		 0.061,  0.055, -0.073,  0.035, -0.097,  0.017, -0.063, -0.104, -0.000,  0.002, 
		-0.067, -0.061,  0.044, -0.049,  0.043,  0.064, -0.015, -0.018,  0.049, -0.013, 
		 0.047, -0.023, -0.062,  0.003, -0.009, -0.061, -0.040,  0.042, -0.056, -0.026, 
		-0.082,  0.059, -0.016, -0.054,  0.026,  0.062, -0.083, -0.068, -0.080, -0.068, 
		 0.016, -0.088, -0.058, -0.074, -0.090,  0.047,  0.028, -0.021, -0.007,  0.077, 
		-0.067,  0.068, -0.011,  0.066, -0.035,  0.048,  0.069,  0.047,  0.010,  0.039, 
		-0.099,  0.057,  0.030,  0.041,  0.061,  0.042, -0.093, -0.007, -0.045, -0.038, 
		-0.085,  0.008,  0.002,  0.042,  0.061, -0.023, -0.020,  0.038,  0.006,  0.049, 
		-0.043,  0.008,  0.021, -0.011, -0.058, -0.037, -0.072, -0.042, -0.081, -0.037, 
		 0.009, -0.045,  0.041, -0.029, -0.042, -0.044,  0.035,  0.000, -0.057, -0.104, 
		-0.098,  0.046, -0.018,  0.041,  0.046, -0.086, -0.062, -0.070,  0.025, -0.039, 
		-0.011, -0.065, -0.062, -0.049}, 

		{ // Unit 6 weights.
		-2.247,  1.627, -0.088,  2.766, -0.675, -3.114,  1.017,  0.887, -0.392, -0.411, 
		 0.391,  1.105, -1.238, -0.189,  0.372, -0.981,  1.225,  1.131,  0.253,  0.217, 
		 0.244, -1.133, -0.254,  0.165, -0.916,  0.426, -0.918, -0.995, -0.375,  1.635, 
		-2.322, -2.983, -1.916, -1.312, -1.649, -0.345, -1.110,  0.992,  0.833,  0.424, 
		-0.836,  0.384,  0.977, -0.343,  0.799,  1.072,  1.248,  0.453, -0.051,  0.028, 
		-0.431, -0.591, -3.209, -0.015, -0.142, -0.990,  3.052,  0.057, -2.143, -0.085, 
		-0.251, -0.911, -0.399,  0.190, -0.531, -0.084, -0.204, -0.332, -0.506,  0.423, 
		-0.049, -0.553,  0.211,  0.308,  0.209, -0.428,  0.710, -0.230, -0.584,  1.012, 
		 0.341, -0.303, -0.135,  0.602,  0.249, -0.365,  0.543, -0.968,  1.339,  0.015, 
		-0.199, -0.152, -0.696,  0.084,  1.061,  0.279,  0.169, -0.210, -0.161, -0.457, 
		 0.333,  0.412,  0.474, -0.681, -0.762,  0.133,  0.317, -0.048,  0.401, -1.278, 
		-0.244, -0.149, -0.116, -0.530, -1.364,  0.917,  0.462, -0.113,  0.337, -0.270, 
		-0.901,  0.314,  0.173,  0.094, -0.197, -0.400, -0.784, -0.431, -0.343,  0.429, 
		 0.270, -0.151, -0.374, -0.262, -0.247,  0.911,  0.348, -0.046,  0.367, -0.785, 
		 4.261, -3.000, -1.858, -0.051,  1.267,  0.102,  0.405, -0.146, -0.426,  0.178, 
		 0.234,  0.457,  0.417, -0.212, -0.433,  0.170, -0.028,  1.120, -0.009, -0.029, 
		-0.780,  0.088, -0.199,  0.394,  0.184,  0.646, -0.029,  1.596, -0.572, -1.450, 
		 0.489, -0.169,  0.363,  0.155,  0.812,  0.173, -0.365, -0.092,  0.329, -0.187, 
		-0.373, -0.187, -0.463,  0.470,  0.017, -0.341, -0.461, -0.728, -0.326, -0.059, 
		 0.113,  0.532,  0.426,  0.661, -0.070, -0.066,  0.820, -1.427,  0.545, -0.247, 
		 0.660,  0.230,  0.819, -0.060, -0.523, -0.090,  0.324, -0.356, -0.212, -0.251, 
		-0.162, -0.544,  0.565, -0.036,  0.016, -0.054,  0.099,  0.257,  0.458, -0.244, 
		 0.333, -0.838, -0.398,  1.675,  1.498, -1.056,  0.619,  0.364,  1.029,  0.260, 
		-0.077, -0.778, -0.524,  0.264,  0.486, -0.260,  0.208, -0.192, -0.110,  0.092, 
		-0.118,  0.354,  0.267, -0.031, -0.064,  0.455, -0.009,  0.468, -0.311, -0.069, 
		-0.233,  1.033,  1.697, -0.824,  1.275,  0.442, -0.037,  0.564,  0.166, -0.486, 
		-0.221, -0.158,  0.189,  0.146, -0.203, -0.482, -0.658, -0.518, -0.309,  0.222, 
		 0.125,  0.091, -0.343,  0.271,  0.381,  0.035,  0.367, -0.349,  0.292, -1.077, 
		-1.771, -1.930, -0.258, -0.434,  0.133, -0.020, -0.559, -0.074, -0.023,  0.454, 
		 0.380,  0.531,  0.064, -0.107, -0.513, -0.470, -0.352,  0.217, -0.033, -0.158, 
		-0.245,  0.339,  0.066, -0.246,  0.050, -0.608,  0.597, -0.597, -0.332, -2.744, 
		 0.874,  1.114,  0.644,  0.184,  0.146,  0.196, -0.048,  0.478,  0.766,  0.706, 
		 0.077, -0.578, -0.181, -0.208, -0.330, -0.162, -0.167, -0.162,  0.144, -0.357, 
		-0.006, -0.023, -0.059, -0.353, -0.338,  0.257,  0.437, -1.467,  0.029,  0.274, 
		 0.596, -0.064,  0.330,  0.222, -0.204,  0.003,  0.613,  0.164,  0.101, -0.211, 
		 0.046, -0.164, -0.506, -0.891, -0.012, -0.377, -0.691,  0.035, -0.094, -0.565, 
		-0.178, -0.627, -0.142,  0.396, -1.197, -1.522, -0.615, -0.106,  0.127,  0.168, 
		 0.117,  0.008, -0.084,  0.050, -0.036,  0.637, -0.269, -0.316,  0.109, -0.376, 
		 0.062,  0.012, -0.374, -0.202, -0.436,  0.055,  0.369, -0.466,  0.176, -0.278, 
		 0.085,  0.244,  1.802, -1.402,  0.158,  0.414,  0.231,  0.000,  0.220, -0.243, 
		-0.344,  0.009,  0.418,  0.292,  0.397,  0.416, -0.396, -0.404,  0.311, -0.153, 
		-0.107, -0.273,  0.034,  0.148,  0.325, -0.112,  0.059,  0.565,  0.414,  1.158, 
		-0.100, -0.734,  0.505, -0.111, -0.279,  0.418,  0.274, -0.284,  0.379,  0.315, 
		 0.181,  0.355,  0.560,  0.136,  0.272,  0.012,  0.455, -0.094, -0.340, -0.229, 
		-0.346, -0.316, -0.206, -0.205,  0.136,  0.343,  0.477, -0.496,  0.372, -0.067, 
		-0.115,  0.081, -0.137,  0.532,  0.068,  0.100,  0.192, -0.076, -0.493,  0.030, 
		 0.263, -0.148, -0.003,  0.135,  0.174, -0.371,  0.165, -0.273, -0.233, -0.080, 
		-0.097,  0.171, -0.011, -0.308,  0.054, -0.673,  0.839, -1.265, -0.065, -0.731, 
		-0.274,  0.674,  0.099,  0.019, -0.106,  0.033,  0.037, -0.255,  0.197, -0.072, 
		 0.296, -0.356,  0.193,  0.270,  0.125, -0.327, -0.252,  0.197,  0.209,  0.186, 
		 0.015, -0.680,  0.266,  0.161,  0.423,  0.178, -0.638, -0.645,  0.074,  0.748, 
		-0.115,  0.046,  0.264, -0.002,  0.662,  0.380,  0.068, -0.038,  0.464, -0.167, 
		 0.042, -0.200, -0.311, -0.092, -0.399,  0.178, -0.110,  0.234, -0.219,  0.333, 
		 0.560, -1.305, -0.420, -0.511, -0.622, -0.190,  0.334,  0.827, -0.225, -0.294, 
		 0.227,  0.032,  0.048, -0.326, -0.084, -0.043,  0.577, -0.147, -0.003, -0.249, 
		 0.297, -0.112, -0.230, -0.071, -0.167,  0.693, -0.059,  0.116, -0.120, -0.437, 
		 0.165, -0.208, -0.798,  0.102, -0.017,  0.533,  0.261,  0.289,  0.005, -0.004, 
		 0.091, -0.123,  0.064,  0.530,  0.221, -0.257, -0.244, -0.051, -0.051, -0.104, 
		 0.022, -0.090,  0.155,  0.269, -0.393, -0.421,  0.123,  0.660, -0.310,  1.307, 
		 0.020, -0.095,  0.204,  0.043, -0.343,  0.051,  0.706, -0.174,  0.658,  0.446, 
		-0.032,  0.288, -0.116, -0.079, -0.321,  0.094,  0.306,  0.016,  0.061, -0.282, 
		 0.105,  0.421, -0.541, -0.132,  0.205,  0.439,  0.090,  0.539,  0.184, -0.486, 
		 0.213, -0.072, -0.280, -0.315, -0.141,  0.336, -0.016,  0.282,  0.361, -0.083, 
		-0.193,  0.092, -0.129,  0.102, -0.068,  0.134,  0.194,  0.031,  0.116,  0.406, 
		 0.224,  0.512,  0.608, -0.356, -0.903,  0.249, -0.143,  0.581,  0.697, -0.319, 
		 0.084, -0.737, -0.835,  0.180,  0.412,  0.366, -0.214, -0.168,  0.230, -0.202, 
		 0.625, -0.190,  0.470, -0.182, -0.569,  0.255,  0.000, -0.339,  0.144, -0.241, 
		 0.812, -1.613, -0.795, -0.432, -0.106,  0.687,  0.631, -0.495, -0.101, -0.856, 
		-0.315,  0.799,  0.473, -0.121, -0.303, -0.158,  0.120, -0.236,  0.627, -0.228, 
		 0.502,  0.109, -0.417,  0.093, -0.116, -0.278,  0.364, -0.785,  0.339, -0.080, 
		 1.649, -0.455,  0.149,  0.517,  0.328, -0.254, -0.069, -0.097,  0.339,  0.575, 
		 0.148,  0.229, -0.145, -0.590,  0.351, -0.052,  0.332,  0.168,  0.610,  0.410, 
		-0.023, -0.386, -0.113,  0.223,  0.491, -0.280, -0.135,  0.124,  3.720,  1.121, 
		-0.574, -1.055, -0.185,  0.417, -0.384,  0.031,  0.822,  1.042, -0.450, -0.423, 
		-0.095, -0.478, -0.337, -0.533, -0.075,  0.033,  0.098,  0.996,  0.284,  0.024, 
		 0.248,  0.496, -0.793,  0.230, -0.258,  0.088,  3.048,  0.248,  0.737,  1.381, 
		 0.828, -0.136,  0.476, -0.320,  1.614,  1.288, -0.334, -0.959, -0.581, -1.051, 
		-0.927, -0.490,  0.035, -1.032,  0.797,  2.040,  0.829,  1.044, -0.685,  0.102, 
		 0.466, -0.016, -0.520,  0.197}, 

		{ // Unit 7 weights.
		-1.530, -2.323,  2.159, -1.634, -0.763,  0.339, -1.715, -0.677, -0.531,  1.093, 
		-1.576, -0.187,  1.778, -0.337, -0.246,  0.776,  1.202, -0.279,  0.518, -1.106, 
		 0.541, -0.903, -0.622, -0.928, -0.855, -1.722,  1.204, -1.070, -2.099,  0.914, 
		 3.696, -0.773, -1.603, -1.220, -0.068, -0.895,  0.016, -0.502, -0.365,  0.190, 
		 1.718,  0.560,  0.422,  1.209,  0.510, -0.134,  0.026, -0.304, -0.423, -0.164, 
		-1.213,  0.701,  0.317, -0.647, -1.074, -0.134, -0.779,  0.746,  0.463,  2.108, 
		-0.648,  0.129, -0.155, -0.023,  0.067, -0.160,  0.127,  0.182,  0.235,  0.740, 
		 0.506,  0.934,  0.417,  0.119, -0.026,  0.047, -0.335, -0.497,  0.433, -0.494, 
		 0.141,  0.679,  0.407,  0.282, -1.943, -0.928,  1.022,  0.499, -0.339,  0.247, 
		 0.572,  0.574,  0.462,  0.432, -0.891, -0.375,  0.361, -0.255, -0.138,  0.086, 
		 0.767, -0.304,  0.234,  0.430, -0.272, -0.167, -1.095,  0.361, -0.671,  0.075, 
		 0.703, -0.590, -2.974, -1.687,  0.715,  1.949, -0.613,  0.049,  1.035, -0.096, 
		-0.070,  0.339, -0.036,  0.240, -0.323,  0.324, -0.467, -0.427,  0.382,  0.137, 
		-0.111, -0.212,  0.459, -0.229, -0.078, -0.146,  0.551,  0.565, -0.272,  1.234, 
		-0.739, -0.710,  1.095,  0.197,  0.955,  0.170,  0.591,  0.092, -0.237, -0.350, 
		-0.215, -1.044, -0.166, -0.460,  0.045,  0.103, -0.598,  0.547,  0.365,  0.078, 
		-0.094, -0.078, -0.178,  0.144,  0.455,  0.530, -0.073,  1.860, -2.831,  1.578, 
		 1.250,  0.484,  0.627,  0.937, -0.027,  0.613,  0.559,  0.605,  0.895,  0.144, 
		 0.019,  0.058, -0.839, -0.587, -0.259,  0.052, -0.069, -0.080, -0.432, -0.484, 
		-0.107, -0.047, -0.287, -0.282,  0.591,  0.461,  1.493,  1.472,  1.425,  0.811, 
		 0.454,  0.130,  0.582,  1.063,  1.106,  0.875, -0.062,  0.759, -0.233, -0.147, 
		-0.440,  0.144,  0.388,  0.135, -0.056,  0.453,  0.686,  0.111, -0.144, -0.176, 
		-0.016, -0.112,  0.401,  0.407,  2.063,  0.862,  0.663,  0.541,  0.864,  1.448, 
		 1.965,  1.519,  1.056,  0.670,  0.117,  0.201,  0.605, -0.396, -1.078, -0.325, 
		 0.216, -0.333, -0.056,  0.610,  0.021,  0.277,  0.006, -0.638, -0.085, -0.107, 
		 0.427, -0.450,  1.352,  1.164,  0.680,  1.216,  0.667,  1.159,  0.708,  1.362, 
		 0.722,  0.716,  0.230, -0.007,  0.194, -0.534, -0.132, -0.149,  0.536, -0.350, 
		-0.169,  0.299,  0.511,  0.368, -0.181, -0.198,  0.060, -0.120, -0.604,  0.038, 
		 1.316,  1.638,  0.098, -0.015,  0.122,  0.425, -0.125,  0.550, -0.016, -0.294, 
		-0.000,  0.238,  0.143, -0.468, -0.142, -0.080,  0.051, -0.087, -0.334, -0.347, 
		 0.020,  0.180, -0.156,  0.378,  0.085, -0.461,  0.017,  0.191,  2.240,  0.628, 
		 0.159, -0.316,  0.486,  0.470, -0.315,  0.275,  0.185, -0.582, -0.201,  0.390, 
		 0.131, -0.070, -0.240,  0.035, -0.198, -0.095,  0.212,  0.067,  0.241,  0.299, 
		 0.799,  0.175, -0.190,  0.497, -0.372, -0.099,  2.623,  1.034, -0.579,  0.108, 
		 0.349,  0.217,  0.094,  0.439, -0.428, -0.165,  0.523, -0.059, -0.089, -0.088, 
		 0.389,  0.023, -0.314, -0.353, -0.035, -0.066, -0.433,  0.077, -0.101, -0.219, 
		 0.017,  0.437, -0.447,  0.060, -1.612,  1.862, -0.902,  0.546,  0.069, -0.336, 
		-0.206, -0.528, -0.306, -0.003,  0.130,  0.076,  0.301,  0.040,  0.016,  0.270, 
		 0.153,  0.240,  0.390,  0.098, -0.080,  0.134,  0.228,  0.036,  0.366,  0.410, 
		-0.344, -0.269, -0.657, -0.575, -0.638,  0.498, -0.254, -0.455, -0.339, -0.262, 
		 0.033,  0.371, -0.185,  0.329, -0.262,  0.166,  0.544, -0.165, -0.129,  0.144, 
		 0.016,  0.289, -0.208,  0.293,  0.163,  0.119, -0.145,  0.243,  0.463, -0.209, 
		-0.319, -0.620, -0.614,  0.310, -0.367, -0.368, -0.536, -0.780, -0.130, -0.122, 
		 0.072,  0.490,  0.057,  0.530, -0.002,  0.186,  0.067,  0.268,  0.163, -0.274, 
		 0.202, -0.179, -0.261,  0.195, -0.080,  0.128,  0.457, -0.296,  0.054, -0.808, 
		 0.720, -0.009, -0.430, -0.229, -0.149, -0.475, -0.049,  0.388,  0.137,  0.277, 
		 0.075,  0.321,  0.499, -0.123, -0.143,  0.053,  0.031,  0.015, -0.382,  0.474, 
		 0.112,  0.570, -0.023,  0.128, -0.267, -0.136,  0.432, -0.229,  0.317,  0.283, 
		 0.284, -0.536, -0.376, -0.278, -0.467, -0.430,  0.153,  0.170,  0.344,  0.238, 
		 0.493,  0.274, -0.281, -0.179,  0.412,  0.084, -0.815, -0.071, -0.098, -0.467, 
		-0.175,  0.044, -0.174, -0.108,  0.585, -0.326,  0.272,  0.478,  0.363, -0.687, 
		-0.124, -0.121, -0.227,  0.393,  0.367, -0.142, -0.265,  0.724,  0.311,  0.005, 
		 0.200,  0.009,  0.388, -0.390, -0.274, -0.006,  0.301,  0.248,  0.243, -0.297, 
		-0.139, -0.013, -0.204,  0.005,  0.564,  0.246,  0.149, -0.801,  0.179, -0.598, 
		-0.057,  0.096, -0.085,  0.385, -0.220,  0.314,  0.171, -0.082,  0.066, -0.075, 
		 0.018, -0.195,  0.099, -0.272, -0.238,  0.184,  0.383, -0.115,  0.456, -0.591, 
		 0.050,  0.149,  0.344,  0.018, -0.333, -0.477, -0.440, -0.430, -0.293,  0.170, 
		 0.973, -0.118,  0.312,  0.064,  0.025, -0.183, -0.638,  0.340,  0.214,  0.091, 
		-0.307,  0.240,  0.104,  0.164,  0.737,  0.398, -0.181,  0.044, -0.438,  0.714, 
		 0.594,  0.119,  0.118, -0.812, -0.344, -0.085, -0.293,  0.021, -0.187, -0.192, 
		 0.257,  0.290,  0.502, -0.025, -0.010,  0.526,  0.470,  0.264, -0.317,  0.005, 
		-0.323,  0.051,  0.094,  0.245,  0.251,  0.944, -1.213,  0.327,  0.776,  0.439, 
		-0.230, -0.546, -0.402, -0.686, -0.499, -0.021,  0.105,  0.354,  0.043,  0.170, 
		 0.555,  0.589,  0.171,  0.383,  0.488, -0.257, -0.228,  0.043, -0.008, -0.707, 
		-0.072, -0.348,  0.441,  0.129,  0.365, -0.425,  0.087, -0.013, -0.461,  0.147, 
		-0.227, -0.398, -0.140,  0.061, -0.046,  0.081,  0.383,  0.375, -0.134,  0.135, 
		 0.027,  0.747,  0.627, -0.075, -0.378, -0.436, -0.210,  0.050, -0.340, -0.225, 
		 0.437,  0.971,  1.140, -0.403,  0.477,  0.454, -0.376,  0.296,  0.205, -0.253, 
		-0.260, -0.152, -0.196,  0.417,  0.048, -0.020,  0.095, -0.095,  0.460,  0.454, 
		 0.217,  0.064,  0.709, -0.274, -0.185,  0.128, -0.498,  0.301, -0.132,  0.169, 
		 0.866, -1.190, -0.054, -0.217, -0.474,  0.064, -0.512, -0.220, -0.597, -0.366, 
		 0.306,  0.614,  0.671,  0.650,  0.006, -0.367,  0.832,  0.291, -0.380,  0.205, 
		 0.132,  0.069,  0.632, -0.417, -0.565,  0.310,  0.044,  1.284, -1.429, -1.407, 
		-0.165, -0.726, -0.489, -0.447,  0.117, -0.017, -0.213, -0.438,  0.839,  0.481, 
		-0.317,  0.259,  0.488,  0.440, -0.025,  0.271,  0.153,  0.054,  0.248,  0.600, 
		 0.770, -0.188,  0.474, -0.545,  0.350,  1.645, -1.699, -1.476, -0.792, -0.078, 
		-0.109,  0.758,  0.479, -0.643, -1.483, -0.490, -0.554, -0.003, -0.311,  1.785, 
		 1.129,  0.631,  0.364,  0.619, -1.008, -0.415,  0.594,  0.146,  0.228, -0.697, 
		-1.010, -0.470,  0.154,  0.993}, 

		{ // Unit 8 weights.
		 0.681,  0.474, -0.678,  0.178,  6.103,  0.786,  2.332,  2.562,  1.003, -0.004, 
		 0.407,  0.514, -0.557,  1.055,  0.728,  0.232, -0.072,  0.159, -0.238,  1.075, 
		 1.972,  1.533, -0.197,  1.670, -1.410, -0.100,  2.182,  0.048,  1.540,  1.417, 
		 1.556, -4.462,  1.696, -3.918,  0.390, -0.326, -0.570, -0.249,  0.767,  1.240, 
		 0.209, -0.124,  0.465, -0.278,  0.891,  1.371,  0.279,  0.170, -1.278, -0.638, 
		-0.357,  0.723,  0.484, -0.067,  1.636,  3.032, -1.059, -1.487, -1.448, -2.792, 
		-0.718, -3.019,  0.012, -1.349, -0.033, -0.431,  0.145, -0.350,  0.401, -0.466, 
		-0.202,  0.445, -0.268, -0.108, -0.178, -0.220,  0.136, -0.594,  0.149, -0.302, 
		 0.623,  0.575,  1.712,  2.089, -0.982, -1.859, -2.270, -6.700, -0.412, -1.025, 
		 0.520, -0.732, -0.170, -0.112,  0.304,  0.188,  0.170, -0.338,  0.755, -0.294, 
		-0.270, -0.103,  0.074, -0.506, -0.708, -0.459,  0.515, -0.319,  0.397,  0.131, 
		 0.496, -0.301,  0.031,  0.085, -4.135, -5.202, -3.628, -0.267, -0.301, -1.129, 
		-0.366,  0.525,  0.087, -0.462, -0.745,  0.040,  0.117,  0.101,  0.406, -0.316, 
		-0.223,  0.254,  0.115,  0.017, -0.837, -0.232,  0.751,  0.190, -0.658,  2.462, 
		 1.428,  0.101, -1.957, -4.005, -1.530,  1.179,  0.128,  0.442,  0.119,  0.102, 
		-0.601, -0.126,  0.607,  0.532,  0.121,  0.131,  0.579,  0.352,  0.314, -0.301, 
		-0.332,  0.457, -0.331,  0.340,  0.117, -0.158, -0.419,  1.862, -1.334, -0.683, 
		-6.263, -3.968, -1.414,  0.258,  1.166,  0.914,  0.124,  0.381, -0.929, -0.402, 
		-0.641,  0.506,  0.197, -0.023,  0.299,  0.427,  0.092,  0.035,  0.308, -0.869, 
		-0.030,  0.017, -0.331,  0.158,  0.715,  1.336,  1.445, -0.983, -7.220, -3.543, 
		-0.476, -0.188,  0.924,  0.396, -0.100,  0.065, -0.177, -0.395, -0.453, -0.427, 
		 0.281,  0.395,  0.410,  0.071,  0.196,  0.337,  0.366,  0.231, -0.019, -0.444, 
		-0.469,  0.675,  0.075, -0.050,  1.616, -1.474, -5.692, -5.754,  0.805, -0.142, 
		 0.075,  0.691, -0.181, -0.605,  0.081, -0.481, -0.258, -0.126,  0.075, -0.125, 
		-0.216,  0.757,  0.338, -0.133, -0.260,  0.562,  0.073,  0.311,  0.065,  0.277, 
		-0.236, -0.301,  0.636, -1.010, -3.976, -4.276,  0.407, -0.034,  0.102,  0.040, 
		-0.620, -0.496, -0.229, -0.579, -0.515,  0.001, -0.506,  0.025,  0.081,  0.800, 
		 0.539, -0.223, -0.488,  0.118, -0.058,  0.214,  0.049,  0.112,  0.488, -0.495, 
		 1.322, -1.982, -5.620, -3.123, -0.957,  0.049,  0.870, -0.470, -0.194, -0.264, 
		-0.263, -0.227, -0.350,  0.188, -0.223, -0.182, -0.268,  0.117,  0.234,  0.331, 
		-0.465,  0.083,  0.210,  0.118, -0.368,  0.631,  0.731, -0.522, -5.007, -4.565, 
		-8.536, -2.753, -0.049, -0.211, -0.289,  0.307,  0.510, -0.025,  0.523,  0.229, 
		 0.511, -0.065, -0.396, -0.356,  0.089, -0.046, -0.398, -0.220,  0.001,  0.072, 
		-0.295, -0.053,  0.100,  0.416,  0.411, -0.490, -5.049, -1.389, -1.173, -2.565, 
		-0.073, -0.232, -0.007,  0.360,  0.067, -0.107,  0.078,  0.383,  0.595, -0.155, 
		 0.422, -0.140,  0.288,  0.089, -0.605,  0.323,  0.389,  0.367,  0.085, -0.137, 
		 0.008, -0.325,  0.008, -0.307, -2.353, -1.090, -0.627, -0.395, -0.628, -1.710, 
		-0.054,  0.367, -0.286, -0.052,  0.219,  0.386,  0.288, -0.369, -0.024,  0.123, 
		 0.625, -0.222, -0.517, -0.098,  0.083,  0.385,  0.083,  0.273,  0.554, -0.356, 
		 0.329,  0.145,  0.220, -0.155,  0.456,  0.014, -0.172, -0.771, -0.004, -0.440, 
		 0.258, -0.748,  0.048,  0.365,  0.236,  0.186, -0.206,  0.243,  0.714,  0.327, 
		-0.053,  0.136, -0.159,  0.848,  0.086, -0.048,  0.710,  0.193,  0.547,  0.354, 
		 0.390,  0.103,  0.943, -0.312,  0.266, -0.662,  0.360, -0.276,  0.108, -0.109, 
		-0.141,  0.305,  0.483, -0.276, -0.065,  0.274,  0.511, -0.232, -0.443, -0.029, 
		-0.074,  0.037,  0.635, -0.201,  0.106,  0.714,  0.435, -0.233, -0.252,  0.153, 
		 0.249,  0.232, -0.118, -0.830,  0.078, -0.323,  0.017,  0.013,  0.062,  0.103, 
		 0.595,  0.016,  0.204, -0.062,  0.223,  0.424, -0.022,  0.012, -0.178,  0.268, 
		-0.450, -0.178,  0.327, -0.222,  0.216,  0.027,  0.262, -0.605,  1.131, -0.230, 
		-0.589, -0.280, -0.008, -0.125,  0.469, -0.275,  0.194,  0.305,  0.339, -0.046, 
		-0.462,  0.183,  0.080,  0.565, -0.093, -0.219,  0.306,  0.208,  0.347, -0.561, 
		-0.132, -0.013,  0.143, -0.224,  0.584,  0.308,  1.612, -0.330, -0.565, -0.141, 
		-0.124, -0.187,  0.317, -0.536,  0.259,  0.144,  0.300,  0.116, -0.678,  0.413, 
		 0.149, -0.273, -0.017, -0.243,  0.330, -0.021,  0.119,  0.170, -0.262, -0.266, 
		 0.479, -0.036,  0.618, -0.005,  0.691,  0.174, -0.462, -1.243,  0.281, -0.128, 
		-0.087,  0.059,  0.153,  0.018,  0.003, -0.087, -0.433,  0.121,  0.518,  0.117, 
		-0.218, -0.330,  0.428,  0.453, -0.057, -0.087,  0.112, -0.345,  0.460,  0.983, 
		 0.568,  0.640,  0.852,  0.383, -0.835,  0.077,  0.367, -0.616, -0.375, -0.240, 
		-0.238,  0.313, -0.302, -0.291, -0.840,  0.157,  0.327,  0.518,  0.084,  0.050, 
		 0.140, -0.327,  0.750, -0.110, -0.193,  0.005, -0.389,  0.212,  1.359,  0.170, 
		 0.669,  0.520, -0.298,  0.208, -0.145, -0.635, -0.187, -0.450,  0.223,  0.671, 
		 0.179, -0.042, -1.043, -0.140,  0.358,  0.472, -0.021,  0.009,  0.041, -0.203, 
		 0.710,  0.540, -0.378, -0.262,  0.094,  0.643,  1.129,  0.797,  0.859,  0.194, 
		-0.684,  0.000,  0.069, -0.454, -0.509, -0.381,  0.012,  0.492,  0.587, -0.367, 
		-0.783,  0.170,  0.504,  0.249,  0.137, -0.637,  0.325, -0.122,  0.757, -0.396, 
		-0.076,  0.093,  0.831, -0.599, -1.051,  0.225,  1.264,  0.380, -1.044,  0.016, 
		 0.029, -0.180, -1.074, -0.290, -0.182,  0.208,  0.536,  0.095, -0.570,  0.390, 
		-0.026, -0.062,  0.232, -0.804, -0.544,  0.196,  0.545, -0.466,  0.708, -0.723, 
		-0.114, -1.476, -0.540,  0.393, -0.639, -0.070,  0.016, -0.050,  0.375,  0.498, 
		-0.962, -0.239,  0.261,  0.002,  0.814, -0.161, -0.637,  1.025,  0.338, -0.081, 
		 0.177, -0.406, -0.318,  0.402, -0.301, -0.283,  1.064, -0.933, -0.479, -1.602, 
		-0.212,  0.771,  0.249,  0.083, -0.813,  0.318,  0.252, -0.561, -0.151,  0.699, 
		 0.174,  0.338,  0.365, -0.204, -0.718, -0.037, -0.040,  0.224,  0.472,  0.346, 
		-0.731, -0.299, -0.172, -0.276,  0.609, -0.013, -0.575, -0.624,  2.058,  1.788, 
		-0.257, -2.081, -2.368,  1.336,  0.488, -0.503,  0.096,  0.903, -0.062, -0.338, 
		-0.540, -0.414,  0.042,  0.406, -0.149, -0.531, -0.177,  0.310, -0.126, -0.097, 
		 0.824, -0.584, -0.996, -0.167,  1.025,  0.389, -0.193,  2.327,  2.586, -1.001, 
		-0.802,  1.125, -0.404,  0.029, -0.904,  0.604,  1.029,  0.185,  0.807, -1.457, 
		-2.782,  0.281, -0.059,  0.863,  0.950, -0.663, -0.056,  0.599,  0.121,  1.399, 
		 0.312,  1.208,  0.379,  0.635}, 

		{ // Unit 9 weights.
		-2.063,  2.597, -2.601,  1.687, -0.177, -0.858, -1.371, -1.024, -1.219, -3.000, 
		-2.524, -0.598, -0.378,  1.471,  1.670,  0.935,  0.117,  0.392, -0.960, -2.334, 
		-2.253, -0.281,  0.600,  1.815,  1.941,  1.535, -0.713, -0.428, -2.110, -0.530, 
		-3.241,  0.701,  0.350,  0.415,  0.736,  0.791, -1.191, -0.553,  0.012,  0.350, 
		-0.011,  0.245,  0.122,  0.696,  0.587,  0.878, -0.225, -1.128, -0.338,  0.017, 
		 0.861,  0.349,  1.707,  2.632,  1.835, -0.735,  0.575, -0.836, -0.059, -0.431, 
		-0.108,  1.561, -0.811, -1.099, -0.954, -0.685, -0.157, -0.446, -0.110,  0.438, 
		 0.249,  0.787,  0.065, -0.434,  0.077, -0.118, -0.872, -0.996, -0.604,  0.014, 
		-0.323,  1.135, -0.689,  1.375,  0.747,  0.143,  0.111,  0.274, -0.499,  0.280, 
		-0.515, -0.399, -1.051, -0.084, -0.054, -0.119, -0.262,  0.328, -0.108,  0.073, 
		-0.150, -0.599,  0.217, -0.746,  0.399, -0.284, -0.031, -0.160, -0.593,  0.979, 
		 0.795,  0.684,  2.206,  0.847, -0.355, -0.384,  0.132,  0.758, -0.419, -1.014, 
		-0.390,  0.130,  0.050, -0.559,  0.316,  0.132,  0.328,  0.309,  0.822, -0.765, 
		-0.234,  0.355, -0.099, -0.532, -0.436, -0.447, -1.389, -0.402,  1.146,  0.305, 
		 1.865,  0.897, -0.520, -0.693, -0.145, -0.335, -0.195, -0.440, -0.484,  0.174, 
		 0.409,  0.238, -0.030,  0.812,  0.056, -0.221,  0.512,  0.103, -0.153, -0.144, 
		-0.247, -0.443, -0.419, -0.078, -0.506,  0.214,  0.758,  0.769,  2.389, -0.680, 
		-1.056, -0.317, -0.603, -0.651,  0.093, -0.216, -0.232, -0.458, -0.213,  0.959, 
		 0.058,  0.173,  0.056, -0.741,  0.265, -0.300, -0.213,  0.014, -0.469,  0.308, 
		 0.043,  0.062,  0.025,  0.496, -0.049,  0.342, -0.230, -0.352, -1.265, -0.638, 
		 0.137,  0.131, -0.226,  0.033, -0.182, -0.117, -0.069, -0.190, -0.096, -0.180, 
		 0.004, -0.632, -0.029,  0.188,  0.178, -0.261, -0.334, -0.130,  0.085,  0.216, 
		-0.498,  0.469, -0.374, -0.087, -0.186, -0.488, -0.021,  0.073, -0.154,  0.203, 
		 0.363, -0.323, -0.247,  0.097,  0.534, -0.037, -0.046, -0.685, -0.226, -0.257, 
		 0.294, -0.346,  0.597, -0.071, -0.189, -0.320, -0.057,  0.341,  0.481,  0.329, 
		 0.387,  1.105,  1.178,  0.410,  0.100,  0.217, -0.360,  0.325, -0.352,  0.253, 
		-0.470,  0.167, -0.261, -0.307, -0.625, -0.365, -0.102, -0.578,  0.175,  0.190, 
		 0.914,  0.136, -0.033, -0.600, -0.052,  0.547,  0.326,  0.995,  0.938,  0.766, 
		 1.010,  0.301,  0.170,  0.176, -0.296, -0.382, -0.038,  0.238, -0.253,  0.467, 
		-0.266,  0.215,  0.051, -0.740,  0.018, -0.723,  0.079,  0.240,  0.550,  0.036, 
		-0.399, -0.430, -0.337,  0.120,  0.391,  0.377,  0.100,  0.463,  0.793,  0.220, 
		 0.033, -0.770, -0.196, -0.337,  0.364,  0.147,  0.431,  0.880,  0.394,  0.262, 
		-0.057, -0.186, -0.087, -0.185, -0.446, -0.056,  0.345,  0.205, -0.211, -0.234, 
		-0.582,  0.133,  0.179, -0.258,  0.805,  1.333,  0.879,  0.401, -0.105, -0.545, 
		-0.129,  0.354,  0.142, -0.178,  0.301,  0.417,  0.441,  0.244, -0.512, -0.080, 
		-0.153, -0.227, -0.075, -0.057,  0.456,  0.448, -0.023, -0.116, -0.159,  0.141, 
		 0.093,  0.003, -0.160, -0.629,  2.231,  0.437,  0.531,  0.480,  1.206,  0.462, 
		 0.004,  0.256,  0.405,  0.273,  0.221,  0.063, -0.342, -0.064,  0.065,  0.004, 
		-0.257, -0.495,  0.061,  0.052,  0.556, -0.140, -0.035,  0.050,  0.485,  0.724, 
		 0.076,  0.241, -0.632, -0.567,  0.216,  0.082,  0.319,  0.423,  0.366,  0.601, 
		-0.061,  0.191,  0.689,  0.370, -0.023,  0.128, -0.001,  0.010, -0.031,  0.189, 
		-0.098,  0.207,  0.387,  0.134,  0.075,  0.098,  0.682,  0.463, -0.460,  0.985, 
		-0.177, -0.094,  0.398,  0.281,  0.168,  0.053,  0.353,  0.566,  0.024,  0.288, 
		-0.198,  0.084, -0.178, -0.136,  0.190, -0.295, -0.527, -0.067,  0.126,  0.151, 
		-0.221, -0.116,  0.451,  0.163,  0.219,  0.193, -0.191,  0.639,  0.632, -0.636, 
		 0.234,  0.582,  0.060,  0.162,  0.151,  0.207, -0.009,  0.313,  0.131, -0.261, 
		-0.077, -0.189,  0.041,  0.154, -0.003,  0.301,  0.295,  0.682, -0.181,  0.198, 
		-0.061,  0.335,  0.593, -0.061, -0.524,  0.656, -0.081, -0.202,  0.625, -0.127, 
		-0.021,  0.019,  0.380, -0.308,  0.277,  0.076, -0.485,  0.204,  0.030,  0.150, 
		-0.485, -0.226,  0.157, -0.082, -0.343,  0.204,  0.257,  0.033, -0.016,  0.384, 
		 0.385,  0.406, -0.849, -0.208,  0.322,  0.091,  0.600,  0.139, -0.378,  0.266, 
		-0.029, -0.151,  0.068,  0.195,  0.127,  0.369, -0.038,  0.470,  0.113,  0.315, 
		-0.263, -0.333, -0.315,  0.371, -0.191,  0.077, -0.174, -0.009,  0.052,  0.596, 
		-0.012,  0.431, -0.124,  0.047, -0.125, -0.304, -0.443,  0.083,  0.079, -0.110, 
		 0.378, -0.101, -0.117, -0.316, -0.016,  0.168,  0.492,  0.695,  0.487,  0.380, 
		 0.221, -0.038,  0.033,  0.088, -0.041,  0.162, -0.242,  0.124, -0.507,  1.631, 
		 0.506,  0.265,  0.203,  0.164, -0.074,  0.081,  0.135,  0.008,  0.345, -0.338, 
		-0.199, -0.256,  0.282, -0.042,  0.140,  0.262,  0.086,  0.316,  0.481,  0.265, 
		 0.238,  0.388,  0.505,  0.327, -0.398, -0.799,  0.028,  1.203,  0.632, -0.283, 
		 0.207, -0.065, -0.053,  0.968,  0.823,  0.288, -0.341, -0.789, -0.237, -0.330, 
		 0.058,  0.031,  0.349,  0.315,  0.265,  0.136, -0.033,  0.227,  0.382,  0.148, 
		 0.774,  0.076, -0.209,  0.133,  0.488,  0.510,  1.982,  0.478, -0.106, -0.165, 
		-0.320,  0.552, -0.039,  0.189,  0.171, -0.543,  0.322,  0.311, -0.276, -0.463, 
		-0.343, -0.118,  0.389,  0.411,  0.441,  0.035, -0.148,  0.354,  0.500,  0.324, 
		 0.562,  0.411, -0.039,  0.748,  0.073,  0.221, -0.250,  0.262,  0.356,  0.127, 
		 0.334, -0.019, -0.495, -0.381,  0.220,  0.046, -0.317, -0.608, -0.336,  0.142, 
		 0.333,  0.332,  0.209, -0.428, -0.784,  0.315, -0.016,  0.143,  0.429,  0.195, 
		 0.017, -1.038, -0.220, -1.269,  0.687,  0.884,  0.540,  0.036, -0.079, -0.246, 
		-0.320, -0.115,  0.500,  0.375,  0.018, -0.462, -0.253, -0.119, -0.372,  0.716, 
		 1.005,  0.139, -0.346,  0.366, -0.165,  0.162,  0.002,  0.402, -0.827,  0.134, 
		-0.042,  0.500,  0.717,  0.650,  0.583,  0.330, -0.013, -0.351, -0.419,  0.160, 
		 0.588, -0.207,  0.159, -0.553, -0.329,  0.010,  0.113,  0.568,  0.292, -0.185, 
		 0.273,  0.117, -0.302,  0.095,  0.724, -0.883, -0.147, -1.898, -1.953,  0.886, 
		 0.038,  1.169,  0.409,  0.036, -0.504,  0.273,  0.280,  0.944,  0.121, -0.315, 
		-0.000, -0.565, -1.220,  0.217,  0.512,  0.363, -0.115,  0.313,  0.430, -0.742, 
		-0.647, -0.101, -0.819, -0.284, -1.146, -2.320, -4.052,  0.210,  0.743, -0.132, 
		 0.495,  0.466,  0.865,  0.516,  1.229,  0.568,  0.015,  0.352,  0.281, -0.827, 
		 0.209,  0.612, -0.807, -1.444, -0.657,  1.275, -1.617,  0.207,  0.456, -0.307, 
		-1.165,  0.753,  2.000, -1.216}
		}; //////////////// End of weights for layer 1. //////////////// 


float Layer1_Bias[10] = { 
		{ // Biases for units 0 to 10.
		 1.193, -0.192,  2.025,  1.923, -0.029, -0.014,  0.699, -0.144, -0.238, -0.973
		}; //////////////// End of biases for layer 1. //////////////// 

		// Layer 3, 10 inputs, 10 outputs.
float Layer3_Weight[10][10] = { 

		{ // Unit 0 weights.
		-0.028, -0.296, -1.028, -0.476,  0.528, -0.090,  0.387,  0.384, -0.542, -0.369}
		, 

		{ // Unit 1 weights.
		-0.455, -0.820, -1.299, -2.342, -0.187,  0.299,  0.461,  0.035,  1.390, -0.618}
		, 

		{ // Unit 2 weights.
		 0.446,  0.374, -1.087, -0.423,  0.032,  0.294,  0.596,  0.078, -0.167, -0.258}
		, 

		{ // Unit 3 weights.
		-1.716,  0.264,  0.005, -1.345,  0.201, -0.421,  0.499,  0.134, -0.355, -0.242}
		, 

		{ // Unit 4 weights.
		 0.029,  0.587, -0.375, -1.016,  0.473,  0.118,  0.162,  0.056, -0.472,  0.313}
		, 

		{ // Unit 5 weights.
		-2.119, -0.138,  0.670,  1.022, -0.120, -0.248,  0.323, -3.217, -0.686, -0.049}
		, 

		{ // Unit 6 weights.
		-1.097,  0.395, -1.276, -0.318, -0.057, -0.535, -0.259,  0.254, -0.887, -0.207}
		, 

		{ // Unit 7 weights.
		 0.470, -1.330,  0.524, -0.029,  0.482,  0.296, -4.546, -1.180,  0.787,  0.795}
		, 

		{ // Unit 8 weights.
		 1.298, -0.452,  0.082, -0.015, -0.421, -0.211,  0.171, -0.113, -1.482,  1.145}
		, 

		{ // Unit 9 weights.
		-1.719, -0.080, -1.835,  0.635,  0.481, -0.407, -1.798, -0.875,  0.989, -0.333}
		
		}; //////////////// End of weights for layer 3. //////////////// 


float Layer3_Bias[10] = { 
		{ // Biases for units 0 to 10.
		 1.176, -1.006, -0.527,  0.770, -0.692,  1.708,  0.921,  0.779, -3.411, -2.402
		}; //////////////// End of biases for layer 3. //////////////// 

		

/**************************************************

  ACTIVATION FUNCTIONS REQUIRED

   - Layer 2: relu
   - Layer 4: softmax

 **************************************************/

